tree
version=v2
num_class=1
num_tree_per_iteration=1
label_index=0
max_feature_idx=157
objective=huber
feature_names=Unnamed:_0 feature_1 month elapsed_time hist_authorized_flag_mean hist_card_id_count hist_category_1_sum hist_category_1_mean hist_category_1_std hist_category_2_1.0_sum hist_category_2_4.0_sum hist_category_2_4.0_mean hist_category_3_A_sum hist_category_3_A_mean hist_category_3_B_sum hist_category_3_B_mean hist_category_3_C_sum hist_category_3_C_mean hist_month_nunique hist_hour_mean hist_weekofyear_mean hist_weekofyear_nunique hist_day_nunique hist_day_mean hist_dayofweek_mean hist_weekend_sum hist_weekend_mean hist_duration_min hist_duration_max hist_price_sum hist_price_mean hist_price_max hist_price_min hist_price_var hist_amount_month_ratio_max hist_amount_month_ratio_min hist_installments_sum hist_installments_max hist_installments_var hist_installments_mean hist_merchant_category_id_nunique hist_merchant_id_nunique hist_purchase_amount_mean hist_purchase_amount_max hist_purchase_amount_min hist_purchase_amount_median hist_purchase_date_max hist_purchase_date_min hist_purchase_date_ptp hist_time_since_purchase_date_min hist_time_since_purchase_date_max hist_time_since_purchase_date_mean hist_month_lag_min hist_month_lag_max hist_month_lag_mean hist_month_lag_var hist_month_lag_ptp hist_month_diff_mean hist_month_diff_min hist_month_diff_max hist_month_diff_var hist_store_size_min hist_store_size_mean hist_city_size_min hist_city_size_mean hist_state_size_mean hist_subsector_size_min hist_subsector_size_max hist_subsector_size_mean hist_category_size_min hist_category_size_max hist_category_size_mean new_card_id_count new_category_1_sum new_category_1_mean new_category_2_1.0_mean new_category_3_A_sum new_category_3_B_mean new_month_nunique new_weekofyear_nunique new_day_nunique new_day_ptp new_day_mean new_duration_min new_duration_max new_price_sum new_price_mean new_price_max new_price_min new_price_var new_amount_month_ratio_max new_amount_month_ratio_min new_amount_month_ratio_ptp new_installments_sum new_installments_mean new_merchant_category_id_nunique new_merchant_id_nunique new_purchase_amount_sum new_purchase_amount_mean new_purchase_amount_max new_purchase_amount_min new_purchase_amount_var new_purchase_date_max new_purchase_date_min new_purchase_date_ptp new_time_since_purchase_date_min new_time_since_purchase_date_max new_time_since_purchase_date_mean new_month_lag_min new_month_lag_max new_month_lag_mean new_month_lag_var new_month_lag_ptp new_month_diff_mean new_month_diff_max max_repeat_purchases mean_repeat_purchases mean_merchant_purchases mean_category_purchases mean_monthly_purchases hist_purchase_date_uptonow new_purchase_date_uptonow days_feature1 days_feature2 days_feature3 days_feature1_ratio days_feature2_ratio days_feature3_ratio first_month first_year category_1_mean new_CLV hist_CLV transactions_ratio mean_purchase_ratio max_purchase_ratio sum_purchase_amount_ratio mean_month_lag_ratio mean_month_diff_ratio sum_installments_ratio mean_installments_ratio transactions_product mean_purchase_product sum_purchase_amount_product mean_month_lag_product mean_month_diff_product sum_installments_product mean_installments_product min_duration_product hist_min_duration_weighted hist_max_duration_weighted hist_time_since_purchase_date_min_weighted new_min_duration_weighted new_max_duration_weighted new_time_since_purchase_date_min_weighted sum_price_ratio mean_price_ratio CLV_Ratio
feature_infos=[3:201914] [1:5] [1:12] [546:2830] [0.037037037037037035:1] [2:2912] [0:1786] [0:1] [0:0.70710678118654757] [0:2140] [0:1381] [0:1] [0:2910] [0:1] [0:1748] [0:1] [0:514] [0:1] [2:12] [0.59999999999999998:22.75] [1.875:51.200000000000003] [1:52] [1:31] [1:30.30769230769231] [0:6] [0:659] [0:1] [0:331500] [50:95999999978.639999] [-147974.91766666668:inf] [-2791.1500000000001:inf] [2:inf] [-106700.49000000001:inf] [0:574480373352910.38] [0.080000000000000002:166666666.62958333] [0:1147.0588235294115] [-9:2075] [0:12] [0:60.5] [-0.69230769230769229:11.800000000000001] [1:95] [1:398] [1.5977777777777775:333333349.94750005] [2:3999999999.1100001] [0:19500] [0.01:20000] [1485935216:1519862391] [1483228808:1514761726] [152065:36626924] [-1:391] [58:422] [8.2547169811320753:413.125] [-13:-1] [-11:0] [-12.434782608695652:-0.01492537313432836] [0.014925373134328353:49] [1:13] [17:30] [17:30] [17:30] [0:0.5] [3.43496702311434e-08:0.038303214225737306] [1.0991894473965886e-07:0.038303214225737334] [1.5457351604014531e-06:0.2512357207991478] [2.6037050035206689e-05:0.25123572079915674] [0.00024845116478186021:0.45416258063027959] [4.2593591086617823e-06:0.19223442578223046] [0.00046110997318286895:0.19223442578223046] [0.00046110997318286895:0.19223442578223071] [3.43496702311434e-08:0.19085573306816306] [8.051562702180012e-05:0.19085573306816306] [6.2031863688987411e-05:0.1908557330681632] [0:109] [0:16] [0:1] [0:1] [0:92] [0:1] [1:2] [1:10] [1:30] [0:30] [1:31] [0:446120] [0:1030576] [-49718.589999999997:inf] [-22624:inf] [-22624:inf] [-44200:inf] [0:211770330.74240232] [0:2941.1764705882347] [0:1330.8235294117646] [0:2940.8786928104573] [-4:152] [-1:12] [1:40] [0:109] [0:78560.550000000003] [0:23480] [0:51528.800000000003] [0.01:23480] [0:992008244.64499998] [-9223372036.8547764:1525132799] [-9223372036.8547764:1525131828] [-9223372036.8547764:5343723] [-62:361] [-62:363] [-62:361] [1:2] [1:2] [1:2] [0:0.5] [0:1] [17:30] [17:30] [1:1458] [1:89.5] [1:494] [1:494] [1:1456] [518:911] [457:880] [546:10495] [577:8490] [0:2830] [0.0005977286312014345:0.0086655112651646445] [0.00035335689045936394:0.0051993067590987863] [0:0.0017331022530329286] [1:12] [2011:2018] [0:2] [0.00047619047619047619:160919.40344638948] [1.8551724137931036:2606234843.2771249] [0:15.25] [0:430.6524696982936] [0:347.99283154121866] [0:66.955298472929186] [-91.480769230769241:-0.082018927444794956] [0.94444444444444442:1.0588235294117647] [-inf:inf] [-inf:inf] [0:105248] [0:16564762730.391052] [0:1391440069352.8484] [-24.869565217391305:-0.0203788748564868] [289:900] [-1190:141480] [-8.375:116.57142857142857] [0:10084564657.440001] [0:3857546] [378:1151999999743.6799] [-2143:259168] [0:446120] [0:31372800] [-6758:21760] [-inf:inf] [-inf:inf] [3.0763431955009533e-11:366.12876478478233]
tree_sizes=4829 5037 5260 5116 5180 5205 4886 5243 5207 4811 4825 4904 5285 5213 4889 5068 5252 5233 5082 5005 5008 4898 5165 4979 5256 4855 4699 4915 4951 4772 5168 4891 4874 4954 4857 4346 5068 4890 4755 4502 4755 4705 4660 4184 4512 4716 4693 4952 4785 4489 4391 5168 4577 4689 4883 4743 4215 4955 4678 4231 4578 4810 4213 4453 4404 4420 4531 4289 4437 4276 4393 4350 4453 4304 4366 4708 4228 4329 4361 4047 4479 4748 4270 4368 4702 4083 4545 4567 4487 4025 4341 4468 5062 4260 4730 4457 4411 3837 4080 4147 4183 4142 4080 4256 4278 4595 4726 4381 4387 4226 3843 4104 3611 4106 4038 3976 4135 4290 3646 3733 4210 4389 3715 4095 4353 4018 3662 4008 4047 4068 4145 4195 3690 3877 3970 4067 3963 4002 3583 3810 3819 3570 4274 3723 3620 3826 3713 3863 3725 3751 3793 3272 3276 3614 3648 4091 3881 3742 3231 3800 3179 3433 4039 3129 3541 3232 3589 3883 3553 3358 3598 3756 3893 3606 3561 3199 3492 3518 3261 3745 3045 3645 3315 3562 3224 3688 3055 3331 3093 3560 3247 4007 2993 3432 3377 3471 3473 3420 3655 3010 2923 3308 3155 2965 2899 3410 3554 3034 3359 3528 3106 3083 3171 2901 3010 3469 3551 3027 2888 3149 2922 3210 3089 2830 3153 2895 2900 3318 3034 3513 3417 3256 2884 3283 3316 2867 2850 2831 2844 3101 3361 2843 2743 2862 3118 2937 2931 3201 2703 2833 3265 3078 2747 2853 3084 2664 2809 3002 3056 2941 2837 3156 3058 2600 2936 2708 2761 2594 3061 3103 2584 2559 3044 2583 2990 2699 3094 3108 2759 2756 2749 2561 3180 2607 2752 2571 2705 2873 2616 2685 2527 3044 2680 2606 2124 2556 2745 2428 2866 2460 2860 2738 2822 2804 2377 2876 2749 2450 2173 2173 2549 2704 2409 2577 2688 2332 2181 2336 2441 2482 2544 2099 2580 2274 2353 2342 2751 2437 2726 2456 2589 2259 2199 2417 2424 2406 2593 2614 2275 2749 2448 2360 2127 2540 2365 2281 2342 2599 2354 2517 2541 2373 2362 2347 2277 2490 2206 2475 2533 2123 2373 2107 2278 1864 2192 2125 1953 2561 2464 2027 2288 2011 2189 2198 2379 1997 2013 1846 2452 2030 2505 2041 1874 2185 2457 2258 2126 2187 2455 2078 2346 1936 2378 2534 2053 2361 2010 1950 1998 2085 2210 2043 1993 2084 1709 2037 2170 2257 2198 2129 2209 1925 2120 1955 1751 1691 1962 1857 1785 2299 1786 2139 1849 2120 1958 1782 1944 1869 2003 2018 1854 2125 1705 1952 2105 2045 1984 1783 1787 1832 1930 1764 1537 2114 1766 1944 1620 1705 1766 1690 1600 1627 1839 1703 2016 1613 1697 2194 1619 1698 1625 1707 1598 1686 1684 2123 1613 2182 1951 1451 1450 1541 1629 1903 1364 1520 1699 1867 1855 1452 1703 1680 1692 1793 1786 1545 1765 1784 1791 1748 2155 1625 1449 1602 1593 1616 1652 1697 1700 1947 1368 1707 1956 1336 1614 1611 1491 1628 1781 1695 1701 1702 1518 2096 1368 1697 1452 1804 1525 1457 1776 1769 1198 1678 1949 1541 1518 1371 1443 1673 1374 1516 1602 1598 1372 1586 1728 1262 1871 1706 1882 1834 1457 1361 1524 1536 1612 1199 1720 1624 1382 1367 1773 1503 1715 1691 1792 1631 1455 1274 1340 1407 1516 1453 1367 1542 1534 1373 1178 1667 1371 1350 1335 1542 1512 1340 1615 1115 1435 1446 1450 1268 1428 1203 1853 1357 1622 1291 1369 1444 1751 1448 1120 1597 1455 1426 1541 1454 1407 1359 1517 1279 1352 950 1371 1185 1282 1540 1605 1588 1600 1180 1285 1452 1544 1446 1359 1462 1026 1544 1368 1367 1434 1367 1537 1194 1523 1530 1427 1121 1619 1117 1254 1581 1340 1441 1372 1097 1157 949 1285 1696 1290 1193 1454 1282 1363 1040 1118 1455 1265 1263 1677 951 1284 1208 1113 1079 1450 1348 1115 1373 868 1094 1350 1182 1111 1283 1204 1258 1206 1367 1112 1179 1093 1178 1032 1209 1033 1269 1201 1030 1287 1281 1115 1293 1183 1342 1181 1194 1256 1194 871 1275 1030 1204 1185 1092 1522 951 781 1281 1028 1025 926 872 927 1206 1286 944 1120 948 948 1110 1120 1017 1033 946 1092 792 942 1169 1191 1120 1196 1119 948 1277 1119 954 1026 1015 1115 1026 1280 1190 1206 786 857 1030 1119 1038 1113 1115 1042 1436 1096 1024 1016 789 1290 949 1261 866 945 860 945 1178 1263 952 947 1122 1209 943 1110 923 940 962 868 947 1195 874 1288 1028 1092 780 1299 1107 838 1039 1285 1013 865 1034 1202 866 927 1203 1029 1112 703 858 1100 1024 945 1022 864 1000 1115 1276 1034 950 861 1034 858 868 861 1030 672 942 1042 864 995 1203 862 784 923 873 781 617 1038 867 948 870 863 1118 792 868 943 862 861 1365 1103 1029 948 783 939 613 771 778 864 694 853 1123 871 771 926 859 933 786 861 860 864 950 696 615 697 783 859 946 699 845 692 857 865 1019 867 789 763 694 860 779 954 1292 868 1023 697 1204 782 692 955 949 761 955 624 955 767 687 870 533 613 786 710 1213 697 789 865 956 861 947 945 786 780 876 869 863 531 858 708 704 773 781 617 780 1029 700 703 702 623 954 610 785 707 696 623 766 616 869 611 859 451 702 938 531 782 535 865 785 1029 701 612 698 773 696 865 779 702 779 535 690 771 534 697 532 531 448 788 617 921 868 864 776 702 786 694 697 867 701 528 954 762 777 693 445 677 612 785 704 839 612 612 591 865 698 615 670 697 866 618 614 766 784 946 592 531 619 532 504 700 611 781 527 618 620 538 530 656 616 532 1040 611 507 537 698 612 530 792 703 697 532 532 617 529 697 677 537 529 533 618 531 531 613 444 448 447 611 701 537 517 616 622 538 534 533 453 531 449 449 448 531 530 346 669 598 699 619 347 619 449 531 680 449 451 536 366 594 617 533 675 450 450 595 531 448 530 701 366 366 449 450 447 370 703 452 369 541 450 614 367 428 452 364 520 535 616 451 363 621 533 452 452 535 617 522 449 370 450 612 453 452 533 365 366 533 543 371 676 624 365 366 531 686 539 450 362 451 536 697 372 576 454 451 450 282 621 368 447 532 367 622 282 454 451 281 366 369 280 621 283 283 282

Tree=0
num_leaves=59
num_cat=0
split_feature=84 76 84 106 33 103 106 84 92 141 92 150 139 150 117 84 33 133 145 137 84 117 33 45 151 106 90 57 92 84 84 102 106 121 103 84 42 110 57 92 117 42 32 90 42 102 57 106 103 102 45 45 45 141 94 156 110 90
split_gain=2744.16 1280.99 507.234 425.858 394.399 345.872 141.874 103.013 101.914 101.051 91.7016 91.0337 71.7688 66.6633 64.66 62.3303 53.054 51.4024 49.3493 44.0773 39.4707 38.8164 36.3492 32.7806 32.4703 29.7563 26.2166 24.596 22.7734 19.5505 18.0189 16.4444 16.1624 14.8712 11.0094 10.8678 9.97292 9.32306 9.20004 9.09318 8.42031 8.31565 8.11732 7.94574 7.3158 6.88741 6.24607 15.9109 5.52731 4.57498 3.23731 3.16637 3.13154 3.01648 1.80178 1.46365 1.36307 0.262313
threshold=4930.1000000000013 2.5000000000000004 18254.910000000003 10.500000000000002 4661.0705289812568 1519814199.0000002 2.5000000000000004 1908.2700000000002 3.2737647058823534 80.500000000000014 2.0343790849673211 4387671.5400000019 0.1146165074309979 1251216.3200000001 2.5406784335355765 52199.900000000009 25760.774500870546 0.054083304083304092 488.40500000000014 -0.38746996281242846 47626.330000000009 1.8903274306715672 4110.4793489124304 30.392500000000002 3764.0000000000005 10.500000000000002 26.716879084967328 18.143223443223448 11.261274509803926 10940.320000000002 12600.115000000002 1523716135.5000002 -33.499999999999993 542.50000000000011 1516447513.0000002 43399.020000000011 63.275490196078401 1.3307291666666667 21.420336010338783 10.715147058823531 2.8078865578865582 156.49716216216214 -299.99499999999995 5.115587044534414 85.92053571428572 1524152819.5000002 18.208497375328086 -27.499999999999996 1504705328.0000002 1524772431.0000002 41.317500000000003 65.002500000000012 31.002500000000001 220.50000000000003 1.602325581395349 -0.1081013040664167 1.7231800766283529 2.4897368421052639
decision_type=2 10 2 10 10 2 10 2 10 2 10 2 8 2 2 2 10 2 10 10 2 2 10 2 2 10 2 2 10 2 2 2 10 10 2 2 2 10 2 10 2 2 2 2 2 2 2 10 2 2 2 2 2 2 10 10 10 2
left_child=1 3 4 7 6 10 13 14 37 21 38 16 24 23 46 25 35 45 33 39 54 43 -9 55 30 51 -25 32 -8 41 44 -21 -16 -12 40 52 -30 -7 -3 -19 53 -14 -15 -5 -6 -10 47 -1 -20 -31 -44 -13 -4 -11 -18 -2 -35 -23
right_child=2 5 11 9 12 8 28 22 17 34 18 15 29 42 27 -17 20 19 48 31 -22 57 -24 26 -26 -27 -28 -29 36 49 -32 -33 -34 56 -36 -37 -38 -39 -40 -41 -42 -43 50 -45 -46 -47 -48 -49 -50 -51 -52 -53 -54 -55 -56 -57 -58 -59
leaf_value=-0.3891536127623586 -0.39637496743633521 -0.39389234367955506 -0.39853737042113613 -0.3900572164838228 -0.39354532116262009 -0.39233793990756577 -0.39476594887699323 -0.39160447222677419 -0.39274570697572514 -0.39257505590475616 -0.3951542624723256 -0.39423693698600915 -0.393706098260933 -0.39108584026310872 -0.38995405166658859 -0.3968309014072634 -0.39413861526483401 -0.39252336123037224 -0.39455416443471319 -0.3953171057213053 -0.39774438060534645 -0.39187125959304353 -0.39053470241267063 -0.39340335454577446 -0.39361918722620293 -0.39591493286008977 -0.39509756905304405 -0.39156503516507862 -0.3973354913021851 -0.39463863090079926 -0.39290614909668814 -0.3936595246662889 -0.39089340516503784 -0.39710441332528407 -0.39241048593273503 -0.39889639698352386 -0.39582186699086974 -0.3912025404467625 -0.39213817523001809 -0.39383488728904725 -0.39444855855153244 -0.39235510359644865 -0.39404587454388573 -0.39182675291829122 -0.39117119424889968 -0.39156352390181387 -0.39042194037353528 -0.39001013002154483 -0.3929713021197303 -0.39304478746067933 -0.3928733332556002 -0.39286378213142625 -0.39669504588461807 -0.39390183641866244 -0.39548892766169974 -0.39454211373347764 -0.39493786098066497 -0.3932693125938021
leaf_count=10918 1494 1367 663 2465 436 2671 1946 8819 2638 1713 2612 1019 1910 440 9101 1306 1231 5850 1701 1396 751 1528 9730 2670 1414 859 2347 3492 1660 1980 1672 2967 6849 1678 2269 963 2972 6830 1397 1598 1599 2765 1742 1214 5758 3512 4027 9085 921 782 2755 1536 3515 1623 1068 617 439 1254
internal_value=0 0.268454 -0.016607 0.343737 0.0457169 0.116522 -0.0551355 0.379499 0.175624 0.180584 -0.0429961 -0.187965 0.158739 0.0107356 0.408188 -0.0685477 -0.255461 0.12808 -0.105104 0.0844728 -0.135625 0.276413 0.311592 -0.0546127 0.22184 0.00532002 -0.00242657 0.359104 -0.177283 0.0785427 0.250812 -0.0016299 0.38032 -0.171965 0.0930796 -0.324347 -0.223718 0.264295 0.118516 0.136154 0.0535893 0.126801 0.106974 0.354427 0.283098 0.210032 0.447361 0.461674 0.0119692 -0 0.0847617 0.0705 -0.28659 0.0963243 -0.0573861 -0.173583 -0.255276 0.169036
internal_count=161534 113263 48271 75686 35360 37577 18643 62021 27462 13665 10115 12911 16717 12065 43472 4720 8191 17961 7351 11811 3050 6461 18549 7128 9280 3414 5017 19442 6578 7437 7866 4363 15950 4729 7204 5141 4632 9501 2764 7448 4935 4675 4937 3679 6194 6150 24030 20003 2622 2762 4497 2555 4178 3336 2299 2111 2117 2782
shrinkage=1


Tree=1
num_leaves=61
num_cat=0
split_feature=136 135 114 51 76 131 131 84 135 92 76 136 21 77 47 21 57 84 48 84 136 21 136 50 136 131 84 121 120 85 121 114 54 103 131 136 9 136 47 124 86 89 121 103 77 103 84 131 121 121 131 115 101 77 116 98 101 47 116 123
split_gain=3555.75 800.251 690.267 440.573 390.921 238.747 190.344 176.966 159.549 106.558 68.6635 56.5714 52.3726 50.6552 46.7379 43.0717 39.9905 54.8924 38.0998 35.6163 35.3005 35.0917 34.5648 31.9343 34.0244 24.486 18.0134 17.8809 29.3246 18.0209 16.4886 16.1521 14.1598 12.6291 12.2966 11.0974 10.842 10.6987 10.4745 9.95947 9.22536 9.13238 6.43796 5.33748 5.30135 5.21563 4.72828 4.61353 4.56975 4.4359 6.33509 3.33271 3.11042 2.76214 1.844 1.72737 1.53873 1.02683 0.965336 0.602578
threshold=0.09966601223627275 1.0811772321428574 18.500000000000004 113.48461174242426 2.5000000000000004 13.23759197324415 82.778058823529435 14040.750000000002 0.23917327328064411 15.129705882352944 2.5000000000000004 0.040484516144756462 15.500000000000002 0.78319623971797903 1506780194.5000002 14.500000000000002 18.208497375328086 2248.8400000000006 26926406.000000004 6798.4700000000003 0.17207636019808084 10.500000000000002 0.25328237579778939 178.50000000000003 0.40050181865896178 60.447272727272733 15283.085000000001 542.50000000000011 659.50000000000011 1043.3833333333337 466.50000000000006 18.500000000000004 -4.1499097472924182 1504705328.0000002 596.81606217616581 0.050540853771205728 61.500000000000007 0.14127443319078539 1511623467.5000002 653.50000000000011 409.00250000000005 297984.33054523816 473.50000000000006 1522490223.0000002 0.30151515151515157 1519905142.5000002 4648.3000000000011 255.35365384615389 466.50000000000006 483.50000000000006 164.38738390092882 2.5000000000000004 241413.4177361039 0.8765243902439025 1.8575187969924813 226.97375000000002 451668.65732491895 1486480549.0000002 1.1400389105058366 1567.5000000000002
decision_type=2 2 10 2 10 10 10 2 2 10 10 2 2 10 2 2 2 2 2 2 2 2 2 2 2 10 2 10 2 10 10 10 2 2 10 2 2 2 2 2 10 8 10 2 10 2 2 10 10 10 10 2 8 10 2 2 10 2 2 2
left_child=2 3 4 9 8 15 21 14 16 10 51 49 40 20 25 -4 17 43 -13 57 48 44 41 24 -9 46 45 29 58 -14 -27 39 35 -30 -22 -21 -18 -25 55 -12 -7 59 -20 -1 -5 -15 -3 -16 -8 50 -6 -2 -39 -32 -17 -24 -19 -10 -29 -11
right_child=1 7 5 6 11 12 13 23 19 22 31 18 27 26 47 54 36 56 42 32 34 -23 38 37 -26 30 -28 28 33 -31 53 -33 -34 -35 -36 -37 -38 52 -40 -41 -42 -43 -44 -45 -46 -47 -48 -49 -50 -51 -52 -53 -54 -55 -56 -57 -58 -59 -60 -61
leaf_value=0.004230725080059082 0.0034474964002007037 0.00025985961202889174 0.0035212832019699599 0.0012723225969687693 0.0031463318964908022 0.0020969304846164272 -0 -1.933398516262887e-05 0.002512095258233022 0.0019389940989399861 0.0020648485480625361 0.0021868147079718452 0.0014020810722501246 -4.0972920024454116e-05 0.00072683034975539655 0.0018927138194791016 0.0034161090977587226 0.003454994939264992 0.0011469134869114864 0.0023793276483935937 -0.001569046701040187 3.3386082478970189e-05 -9.2652171857810785e-05 -0.0011590465501814995 -0.0030806556509421728 -0.00083831212604179909 -0.0015348146125548432 -0.00010647623440952932 -0.00064896243641765451 -0.00029231328212721405 -0.0027762449430194548 -0.00084857340519191456 0.0028621101360095085 0.0012222151235128465 -0.0029743117664912748 0.00040787868326984346 0.0017363982275341949 -0.0032153620394393275 0.00087876677429430934 0.00072354699493635958 0.00048670227365097551 5.564493185946375e-05 -6.0826912167656387e-05 0.0049281446228313808 0.0028718397183101004 0.0014062585450572728 -0.0016210571828838617 -0.00069576496866984407 -0.0011341603373821779 0.0017308941868737048 0.0020155424360782039 0.0023713086067837464 -0.0047471587546598247 -0 -0 -0.0016281707535804875 0 0.003427626191181676 -0.0018626434152685081 0.00065685565916598929
leaf_count=25544 3574 1074 3793 2345 6714 2044 1731 735 3361 2880 3014 5371 1857 1696 1462 3247 6095 10678 3459 891 3778 2655 1409 342 1688 1378 880 576 1247 1863 3052 448 1359 1243 2069 1752 1156 1557 1143 2189 1440 1160 1425 6489 1064 1100 602 1369 3548 1869 2355 3191 2445 204 256 890 130 5573 1913 1162
internal_value=0 -0.0164018 0.293334 0.0563219 0.332915 0.121633 -0.0474418 -0.208605 0.373134 0.159567 0.221927 0.212751 0.033251 -0.110434 -0.113603 0.267686 0.39992 0.413768 0.152514 0.268474 -0.147152 0.104669 0.0687516 -0.335213 -0.219502 -0.166252 0 -0.0109631 -0.0606111 0.0528811 -0.211022 0.131522 0.17366 0.0247368 -0.208631 0.11143 0.316392 -0.396994 -0.0168723 0.152113 0.146181 0.127199 0.0775258 0.437625 0.180558 0.0496374 -0.0362961 0.000481818 -0.0770085 0.268187 0.286544 0.295765 -0.418316 -0.261542 0.172887 -0.0732697 0.341885 0.309665 -0.149665 0.159637
internal_count=161534 57834 103700 41926 84221 19479 20866 15908 63028 21060 12416 21193 12183 14802 9141 7296 50092 42841 10255 12936 11126 6064 8644 6767 2423 6310 3676 8699 4979 3720 4634 5651 4002 2490 5847 2643 7251 4344 3442 5203 3484 5202 4884 32033 3409 2796 1676 2831 5279 10938 9069 6765 4002 3256 3503 2299 10808 8934 2489 4042
shrinkage=0.01


Tree=2
num_leaves=63
num_cat=0
split_feature=136 134 106 131 99 51 141 77 131 47 117 131 134 131 136 77 137 107 117 51 135 77 141 136 57 106 136 136 136 136 76 76 12 103 107 46 117 131 136 107 106 117 135 107 137 77 136 90 76 99 136 134 56 131 131 137 110 57 99 131 99 102
split_gain=3524.52 870.526 743.41 393.708 270.714 265.376 243.235 137.645 134.465 94.4339 94.4259 92.0705 77.5814 72.0137 61.6621 49.0613 46.0343 39.528 38.8787 37.5263 37.2488 36.7611 36.3501 33.3564 23.2818 36.6998 21.8263 21.3878 20.1036 17.7957 16.9649 15.0711 14.9461 13.1189 12.8359 21.5938 12.6255 12.1542 11.3433 11.0863 9.76628 9.56433 9.04812 8.9803 8.57439 7.07469 6.76871 6.34441 6.31106 5.97241 5.95951 5.51032 4.84761 4.65113 4.50792 5.13172 4.49754 3.19833 3.06514 3.02133 2.32012 2.15063
threshold=0.09966601223627275 1.3936437896082197 10.500000000000002 20.420563492063497 783.41500000000008 106.65301003344483 80.500000000000014 0.49358974358974367 82.778058823529435 1504281535.0000002 2.1115555555555559 267.26472749099645 3.5902286069518534 56.412454517889635 0.048359265684170677 0.74239631336405543 -0.37034647550776584 -27.747340425531913 1.9004504504504507 119.64739304812836 0.26000536104581634 0.8452991452991454 532.50000000000011 0.47318068348044912 18.143223443223448 -24.499999999999996 0.22582739379187236 0.45684906082805538 0.17483108934371386 0.42588644567791645 4.5000000000000009 2.5000000000000004 6.5000000000000009 1519910414.5000002 33.026315789473692 1506848592.0000002 2.5719461697722577 578.35240641711232 0.1802816298341518 -35.985074626865661 176.50000000000003 6.0056179775280905 0.60449397274864436 -23.242647058823525 -0.29558819526366448 0.66312056737588654 0.041103355477272355 86.799705882352939 1.5000000000000002 327.02500000000003 0.26915404396592729 3.097335487517372 8.5000000000000018 164.38738390092882 12.752028811524612 -0.61446473946473923 1.5961179544606199 17.625508130081304 635.03000000000009 19.80550420168068 549.93500000000006 1524922954.5000002
decision_type=2 2 10 10 2 2 2 10 10 2 2 10 2 10 2 10 10 10 2 2 2 10 2 2 2 10 2 2 2 2 10 10 2 2 10 2 2 10 2 10 10 2 2 10 10 10 2 2 10 2 2 2 2 10 10 10 10 2 2 10 2 2
left_child=2 5 3 10 9 11 18 14 32 13 48 30 19 51 44 28 -16 50 60 26 39 27 36 53 25 42 -6 47 61 -14 -2 -19 -7 -17 45 40 54 -30 -21 -9 -36 -26 -12 -32 -5 -24 -38 -13 57 -22 -15 -3 -51 -11 -8 -56 -34 -1 -23 -20 -4 -10
right_child=1 4 6 7 12 8 22 20 15 23 24 21 29 17 16 33 -18 31 59 38 49 58 34 -25 41 -27 -28 -29 37 -31 43 -33 56 -35 35 -37 46 -39 -40 -41 -42 -43 -44 -45 -46 -47 -48 -49 -50 52 -52 -53 -54 -55 55 -57 -58 -59 -60 -61 -62 -63
leaf_value=0.0051080156938454295 0.003179264356564333 0.00050657260348149085 0.0038665774507291033 0.0030335512702910506 0.00039745177555635899 0.0025296732507349459 0.002318696845618549 0.0042077781355609007 -0.00065986989299866611 0.0015156880004405702 0.0041880026592002106 0.0011130031353637042 -0.003157948080090778 -0.00015747580954512616 0.002185272783188523 -0.00019175874825328975 0.00059830979789196397 -0.0014577469292549512 0.0020388200583122212 -0.0017499343049743677 0.0030308087057756908 0.002564045657290548 -0.00039600205239220874 -0.00095494952966799736 0.003063681335957497 0.0030875282573503788 -0.001858873690613291 -0.00087163178392842336 -0.0010598613831582461 -0.005277317157134781 0.0023255268696457322 -0.0030430446163647032 0.00010866512090961173 0.0013675885817675509 0.0012616094214185063 -0.0018650776285474614 0.00070995705975853242 -0.0026910947734356434 -0.003768528777430977 0.0032473393210555612 -0.00088603949291464067 0.0011024658246475123 0.00013339089239964869 0.0001707152147849176 0.0021364300886181679 0.0013048370579093833 -0.00082626904062248652 -0.00080999748815941341 0.0037921757248699272 0.0028975196932031016 -0.0018239941336451232 -0.00092660410284280972 0.0013185144786625152 0.0001961254408541855 0.0018534159313485039 0.00042917073709736338 0.0017896960238148686 0.0041498596779702621 0.00091620587872210757 -0 0 0.00094535323965365501
leaf_count=9611 4898 2144 3017 5325 796 1728 1127 4681 3024 2112 14104 4862 1614 1863 4323 2331 5018 1922 2325 1059 3205 2263 1092 1663 4031 7442 2047 1095 2502 1699 1615 3157 1356 1486 764 1611 1937 1541 1895 9398 923 779 166 676 6654 1112 1063 415 2906 1126 920 1134 2167 1681 1225 2506 957 3651 881 300 111 498
internal_value=0 -0.0163682 0.292008 0.332577 -0.154414 0.0937947 0.111889 0.262086 -0.00191662 -0.0761623 0.401469 0.182697 -0.295711 -0.131786 0.202428 -0.0601721 0.134438 -0.187081 0.287317 -0.217692 0.323323 0.112917 0.0354934 0.0356679 0.360939 0.379009 -0.11939 0.0614826 -0.11156 -0.428435 0.273485 -0.246548 0.159568 0.0391673 -0.03348 -0.0868317 0.0850008 -0.170969 -0.30844 0.357581 0.00309415 0.276856 0.414771 0.173466 0.254511 0.0420089 0.0132703 0.0942448 0.467138 0.247251 -0.0746798 0 0.189362 0.0958012 0.127212 0.0925712 0.0849736 0.485427 0.213658 0.178761 0.374622 -0.0403826
internal_count=161534 57834 103700 84587 25706 32128 19113 41897 15423 16596 42690 16705 9110 11140 21320 11382 9341 7862 5753 5797 20577 9516 13360 5456 26522 21712 2843 6372 7565 3313 7189 5079 4041 3817 5502 3298 7858 4043 2954 14079 1687 4810 14270 2291 11979 2204 3000 5277 16168 6498 2783 3278 3293 3793 4858 3731 2313 13262 3144 2625 3128 3522
shrinkage=0.01


Tree=3
num_leaves=61
num_cat=0
split_feature=136 134 113 131 99 51 131 77 131 51 131 134 131 118 136 118 137 118 77 57 92 51 77 110 136 102 136 136 136 107 49 136 12 36 107 118 12 131 131 136 137 18 136 135 136 107 107 107 50 90 137 110 92 135 18 99 107 27 102 92
split_gain=3494.28 861.576 675.44 389.477 268.102 262.045 236.143 140.188 133.138 91.9685 91.1987 77.0483 66.9911 60.4959 59.9896 59.7958 54.4301 52.4954 48.3984 44.2648 38.6501 37.121 36.1392 35.3931 34.6044 31.4903 21.4429 20.979 19.7874 19.226 36.8659 17.7222 14.6776 12.9055 12.3226 12.1975 12.0157 11.8756 11.5284 11.1887 10.4565 9.66061 8.21204 7.66515 7.17733 6.56559 6.48347 6.38968 6.36107 6.14734 4.65802 4.37479 3.8946 3.32323 3.16417 2.86315 2.72817 2.29438 2.0159 1.18348
threshold=0.09966601223627275 1.3936437896082197 18.014705882352946 20.420563492063497 783.41500000000008 106.65301003344483 13.23759197324415 0.49358974358974367 82.778058823529435 117.62534916201119 267.26472749099645 3.5902286069518534 56.412454517889635 2.6267857142857149 0.040484516144756462 2.835271317829458 -0.30334637374337364 3.9104278074866312 0.74239631336405543 18.143223443223448 18.889150326797392 119.64739304812836 0.8452991452991454 1.8024390243902444 0.47318068348044912 1524310427.0000002 0.22582739379187236 0.45684906082805538 0.17483108934371386 33.026315789473692 137.50000000000003 0.42588644567791645 6.5000000000000009 17.500000000000004 -20.59411764705882 7.0944940476190483 11.500000000000002 578.35240641711232 160.87659127706942 0.1802816298341518 -0.25207109673603384 4.5000000000000009 0.050540853771205728 1.4178905277668374 0.15665467700030275 -36.711981566820278 149.57983193277315 -23.242647058823525 131.50000000000003 86.799705882352939 -0.81846473251877427 1.5961179544606199 28.366274509803922 0.43581719507544814 4.5000000000000009 635.03000000000009 -24.987804878048774 84.680000000000021 1524922954.5000002 14.667156862745101
decision_type=2 2 10 10 2 2 10 10 10 2 10 2 10 2 2 2 8 2 10 2 10 2 10 8 2 2 2 2 2 10 2 2 2 2 10 2 2 10 10 2 10 2 2 2 2 10 10 10 2 2 10 10 10 2 2 2 10 2 2 10
left_child=2 5 3 13 9 10 17 14 32 24 36 21 41 -1 56 50 -16 57 28 23 45 26 27 53 38 44 -6 49 58 33 54 -13 -7 -17 -20 -21 -2 -30 48 -23 -22 -11 -42 -43 -14 -9 -32 -38 -3 -12 -8 -34 -35 -15 -31 -24 -5 -4 -10 -36
right_child=1 4 6 7 11 8 15 20 18 12 22 31 25 19 16 29 -18 -19 34 35 40 39 55 -25 -26 -27 -28 -29 37 30 46 -33 51 52 59 -37 47 -39 -40 -41 42 43 -44 -45 -46 -47 -48 -49 -50 -51 -52 -53 -54 -55 -56 -57 -58 -59 -60 -61
leaf_value=0.004718012788552787 0.0031846009029677727 0.0021790133439699702 0.0025253514724963427 0.002886814967399981 0.00039472879075234192 0.0025178580578725739 0.003079905218640871 0.0041387148488371142 -0.0006560641442678038 0.0013061586663972418 0.0011054449793301752 -0.003141808912075314 -0.0012884856142688372 0.0034968027169781685 0.0020781973421653004 -0.0002689682107916848 0.00051998720733382249 0.0014276488003290364 0.0013815624560221831 0.0030774948873269138 0.0027763610563445148 -0.0017390305238327592 0.0025464739540444268 0.0043200630326678544 -0.0011644228834109581 -0.00052929273505529484 -0.0018473508385423443 -0.00086606976801275541 -0.0010543735282174255 0.00069174850753120939 0.001191247979829578 -0.0052577503498730371 0.00010821748264083157 0.0016927408271707903 0.00041694701032944762 0.0012577239853913569 0.0024323903309871357 -0.0026760173485521933 -1.2015741075705685e-05 -0.0037506530407981032 0.0023700285376432729 -0 0.00013882857218975146 -0.0021172132299555322 -0.0028227173016781432 0.0032585195576911013 -0.00024933368205891533 0.00055969302548342168 0.000508947012211893 -0.00080513657256721231 0.0012202809919306659 0.0017824183329468997 -0.00019104889161726085 0.0016825121697484357 -0.0016586451154048248 0.00090982823550621544 0.0019476166546002443 0.0038909829164290115 0.00093978847470217275 -0.00091573594473904046
leaf_count=10925 4490 1133 1671 6993 796 1728 692 4490 3024 743 4862 1614 1246 10559 6658 1468 4724 2812 1422 4400 4126 1059 2263 14827 1842 1584 2047 1095 2502 193 1264 1699 1356 1719 1283 1035 1882 1541 2412 1895 815 1670 827 532 3825 10272 1856 817 1609 415 2036 957 382 659 2573 881 2911 2813 498 1112
internal_value=0 -0.016339 0.290714 0.329875 -0.153682 0.0932614 0.120831 0.259767 -0.00186497 -0.0757918 0.181624 -0.294321 -0.1427 0.398717 0.199591 0.0329089 0.144081 0.266117 -0.059855 0.372929 0.321583 -0.216535 0.112138 0.392876 0.0147002 -0.20219 -0.118636 0.0610341 -0.110954 -0.00675511 -0.0508075 -0.42664 0.158873 0.0631425 0.0389127 0.275115 0.272024 -0.170053 0.0635539 -0.306899 0.237847 -0.00480368 0.131118 -0.0551891 -0.246748 0.353495 0.0304977 0.190467 0.123865 0.0935872 0.173521 0.0846447 0.130498 0.340015 -0.145822 0.212212 0.262237 0.340917 -0.0401355 -0.0162601
internal_count=161534 57834 103700 84221 25706 32128 19479 41816 15423 16596 16705 9110 9600 42405 21286 12183 11382 7296 11382 31480 20530 5797 9516 26045 6996 6655 2843 6372 7565 9455 5886 3313 4041 3569 3817 5435 7189 4043 5154 2954 5768 2945 1642 2202 5071 14762 3120 2699 2742 5277 2728 2313 2101 11218 2766 3144 9904 4484 3522 2395
shrinkage=0.01


Tree=4
num_leaves=62
num_cat=0
split_feature=136 134 106 76 84 51 141 84 117 95 50 134 84 76 136 76 137 77 117 141 136 136 51 84 84 136 136 107 136 137 136 107 136 136 18 107 106 106 117 136 136 113 84 85 141 143 107 134 84 107 18 136 18 117 18 102 134 38 117 117 117
split_gain=3463.98 852.698 728.077 386.892 279.786 258.74 240.62 163.844 101.467 89.4385 85.6947 73.4112 71.1552 82.7611 58.2485 52.5641 43.1142 40.492 38.6475 35.6519 34.8862 34.2587 32.8185 27.2242 24.6989 24.4568 22.7851 22.4682 22.1912 19.9631 26.3406 19.4502 17.4653 15.9286 14.6596 12.3443 20.9775 12.5288 12.0475 11.6353 11.3743 10.0545 9.22577 8.8304 7.117 6.43744 6.02294 5.44925 4.9657 4.2411 3.82855 3.72925 3.65084 3.0788 2.92637 1.81552 1.09798 0.750532 0.743869 0.636849 0.129931
threshold=0.09966601223627275 1.3936437896082197 10.500000000000002 2.5000000000000004 14040.750000000002 106.65301003344483 80.500000000000014 5600.5300000000016 2.1004587155963308 4.5000000000000009 180.50000000000003 3.5902286069518534 6798.4700000000003 7.5000000000000009 0.040484516144756462 5.5000000000000009 -0.30334637374337364 0.77346041055718484 1.9004504504504507 532.50000000000011 0.47318068348044912 0.043691741568272512 122.67986542443066 7128.4500000000016 5419.6400000000012 0.1802816298341518 0.22582739379187236 -27.298148148148147 0.28686468419355832 -0.30541498731153899 0.050540853771205728 -23.98076923076923 0.42588644567791645 0.040484516144756462 5.5000000000000009 33.026315789473692 126.50000000000001 176.50000000000003 4.6473389355742309 0.1802816298341518 0.04564498302266639 21.674242424242433 4773.1750000000011 1243.3100000000002 72.500000000000014 182955.84490000003 -29.987804878048774 1.081932976841278 10749.635000000002 -25.989130434782606 7.5000000000000009 0.16642148856758604 7.5000000000000009 2.0025380710659904 4.5000000000000009 1524836174.0000002 0.93053959905748473 10.044781144781146 2.6844476055002375 2.2862137862137866 3.3892496392496394
decision_type=2 2 10 10 2 2 2 2 2 10 2 2 2 10 2 10 10 10 2 2 2 2 2 2 2 2 2 10 2 10 2 10 2 2 2 10 10 10 2 2 2 10 2 10 2 2 10 2 2 10 2 2 2 2 2 2 2 2 2 2 2
left_child=2 5 3 7 10 12 18 8 33 23 20 22 13 44 46 24 53 25 48 34 49 38 26 47 54 55 -6 -17 57 -9 -31 -15 -13 -1 -8 43 -37 -38 -10 -24 60 -29 -19 -21 -2 -27 -5 -7 -4 -3 -20 -26 -35 -16 -12 -11 -46 -14 -42 -18 -36
right_child=1 4 6 14 11 9 19 29 21 17 15 32 28 31 16 27 59 42 50 35 -22 -23 39 -25 51 45 -28 41 -30 30 -32 -33 -34 52 40 36 37 -39 -40 -41 58 -43 -44 -45 56 -47 -48 -49 -50 -51 -52 -53 -54 -55 -56 -57 -58 -59 -60 -61 -62
leaf_value=0.0047501664667272915 0.0036256597613983843 0.0014401085700056046 0.0038710930816805429 0.0030740367051830032 0.00037523111035555701 0.0021113437520290726 0.0017511184433354264 0.0029361150294148074 0.0038534514278472584 -0.00058322242811104422 0.0011735217591074488 -0.0031141737643523601 0.0015110629171548109 0.0013340660927544487 0.0027845066935054349 -0.0009438304332170447 0.001167725485251174 0.0013342760161685944 0.0022839764781624316 0.0014501305828345879 -0.00099863721611888811 0.0025404744228833169 -0.0016830433638089957 -0.00032547991628026059 -0.00052186136001873312 1.4569106438977306e-05 -0.0019146224949063021 -0.0038522226525020266 -0.00028321650082148057 0.002612573564111514 0.00065690515781214101 -0.00081332557088175305 -0.0052068028893033072 0.004265457918202333 0.0012587364424640169 -0.0018059438503268579 0.0014763214861689357 -0.00087998395250130123 0.0030822194788565557 -0.0036741882779648717 7.6369869261487498e-05 -0.0015997338974040461 -0.0001628782468395638 -0.00035172576871312299 0.0028285004446921176 -0.0019117798236889612 0.0021859785317780702 0.00054736446909018971 0 0.00014990204459569426 0.00054679255396575493 -0.0018979066976818884 0.003026176277460151 0.0016778314247177335 -0.000321828474886307 0.00082835229667545696 0.0017492412640924527 -0.00034583761954571051 -0.001479074855209627 7.5156309848926746e-05 0
leaf_count=14996 2405 2269 2998 5713 794 2540 2205 4531 22301 2870 697 1626 2883 2394 2106 1220 1634 1398 1793 986 1702 4607 1072 1142 1383 389 2058 1469 1868 2077 2047 797 1731 4065 2635 1685 690 923 6538 2034 1580 805 1908 1218 3989 3412 5227 1084 130 1636 832 2288 2218 4194 2922 680 2121 248 549 2333 889
internal_value=0 -0.0163129 0.289409 0.329565 -0.152956 0.0927267 0.111124 0.369395 0.390507 -0.00181584 -0.0720918 -0.294019 0.18055 0.226422 0.209974 -0.127288 0.149111 -0.0560757 0.285643 0.0351207 0.0323769 0.352909 -0.219124 0.117374 -0.0725683 -0.102522 -0.124407 -0.238257 0.0710061 0.234544 0.16685 0.0766783 -0.423207 0.448989 0.0842561 -0.033321 -0.0860963 0.0070721 0.368289 -0.30243 0.0469054 -0.310587 0.0442788 0.0413058 0.281276 -0.168964 0.266053 0.167246 0.37273 0.0925743 0.177353 -0.140812 0.384788 0.206626 -0.000515864 -0.0284366 0.247252 0.133266 -0.0283645 0.0550999 0.0950769
internal_count=161534 57834 103700 84587 25706 32128 19113 63380 54725 15423 16391 9315 16705 11706 21207 10784 10267 10657 5753 13360 5607 33446 5958 4766 7290 7351 2852 3494 4999 8655 4124 3191 3357 21279 7858 5502 3298 1613 28839 3106 5653 2274 3306 2204 8515 3801 10940 3624 3128 3905 2625 3671 6283 6300 3619 3550 6110 3131 2129 3967 3524
shrinkage=0.01


Tree=5
num_leaves=63
num_cat=0
split_feature=136 106 99 51 92 5 136 51 87 12 136 12 99 92 136 136 92 136 110 139 106 57 51 136 55 136 92 99 136 121 90 56 88 116 85 116 148 94 115 47 82 90 155 92 56 136 110 115 90 110 145 110 136 137 90 137 99 110 137 47 99 92
split_gain=3434.4 720.316 708.332 406.158 367.448 193.677 167.264 146.023 138.21 112.087 110.594 70.518 57.1899 53.8747 50.9793 43.6638 42.9665 35.3465 33.9931 32.3223 31.3145 59.3168 31.0767 30.7424 30.2104 27.5707 24.5066 19.0226 16.9419 16.8121 15.9413 13.8952 12.864 11.9127 11.4553 10.1849 9.72303 9.39576 9.05722 8.6039 8.59597 7.05684 6.62681 6.28407 6.25802 5.54964 5.49268 5.23782 5.20689 4.13495 3.52637 3.4752 2.78511 2.7078 2.63334 2.51218 2.1428 1.29308 1.26893 1.20805 1.1842 0.504681
threshold=0.09966601223627275 10.500000000000002 650.07500000000016 117.62534916201119 2.4984330065359481 54.500000000000007 0.40050181865896178 110.53589743589744 599.91000000000008 17.500000000000004 0.30002558554490161 24.500000000000004 159.88500000000002 0.98550420168067265 0.37778050266015145 0.048359265684170677 18.571683006535952 0.17207636019808084 1.3307291666666667 0.12217981340118746 -21.499999999999996 18.881944444444446 56.339962476547853 0.15214257679191887 11.476319875776399 0.045001544545519669 17.091879084967321 149.99500000000003 0.53639506608565657 466.50000000000006 16.468284313725494 8.5000000000000018 109.48500000000001 1.2759057180270625 800.0100000000001 1.2168993434053677 1223182.9919000003 2.226495726495727 5.5000000000000009 1508371220.0000002 18.628289473684216 43.839582043343661 0.15494728346574396 10.017761437908499 1.5000000000000002 0.18329645416148335 1.8317610062893086 8.5000000000000018 21.500555555555561 1.7165178571428574 299.1294885253551 1.455533596837945 0.012266699990199911 -0.29956347618412438 72.225228758169962 -0.25393322486003095 27.505000000000006 1.455533596837945 -0.32178217821782168 1511519225.0000002 1436.4550000000002 13.820424836601306
decision_type=2 10 2 2 10 2 2 2 10 2 2 2 2 10 2 2 10 2 10 10 10 2 2 2 2 2 10 2 2 10 2 2 10 2 10 2 2 10 2 2 10 2 8 10 2 2 10 2 2 10 10 10 2 10 2 10 2 10 10 2 2 10
left_child=1 4 3 10 20 13 7 35 16 12 11 26 28 47 18 53 33 58 -11 27 21 41 -8 42 50 38 39 -12 46 61 -21 49 -22 -6 -15 45 -25 55 -7 -2 -20 -1 -14 -31 -24 -4 -5 48 -3 -27 -17 -29 -34 -10 -19 -18 -40 -26 -9 -47 -46 -13
right_child=2 5 6 9 8 25 22 17 15 14 19 29 23 34 -16 24 37 54 40 30 32 -23 44 36 57 31 -28 51 -30 43 -32 -33 52 -35 -36 -37 -38 -39 56 -41 -42 -43 -44 -45 60 59 -48 -49 -50 -51 -52 -53 -54 -55 -56 -57 -58 -59 -60 -61 -62 -63
leaf_value=0.0043444273644526639 0.0022569458994909199 0.0033764973469266875 0.0015583312632283042 0.0011932656969935119 0.0037712264600699486 0.0014140704173904268 -0.0018200094947099204 -0.00046045382706669426 0.0028418881711618845 -0.0021710057384465532 0.00069304419648742364 0.0019573269912167325 9.6400344825219402e-05 0.0019706501055487746 -0.0031333196559895568 0.0022652302112772041 0.0028583511785521681 -0.0023334812883057752 -0.00080398779768372272 0.0022151512868157823 0.0040438759453392771 0.0028540416730475017 -0 -0.0011257730635205127 -0.00030315993554375466 -0.00025264634696498445 0.0014654118043403133 -0.0019573571525098076 -0.00058699471291110436 0.0006608804617697009 0.0002691039015913918 -0.0014442791823761922 0.0036817719334459953 0.0028395021187001095 0.00039883898437241972 -0.00092346299034896571 0.00076854046332989871 0.00060331493897121619 0.0014697398281186221 0.0034133941964992281 0.00048419599796012993 0.00050890483032876442 0.0019502225486483639 -0.0011426030059794546 -0.0033906343124934591 -0.00025863981555105113 0.0030123498102365828 0 -0 0.001596921649816969 0.0010805124082401596 -0.0002590055253591148 0.0027611696619405947 0.0020032291129456936 -0.0038596449221344874 0.0015152631302342112 0 0.00087113036645600499 -0.0018635514436375195 0.0014968358824641122 -0.0048525461815138796 0.00031006808614099081
leaf_count=26420 3577 4001 1123 2583 9802 2355 1310 1275 4292 2165 1383 1965 1862 2286 1609 2906 3307 1770 4163 1390 5084 4207 110 4347 1414 2321 2771 1036 582 1567 1584 1644 3517 5163 1673 1109 554 779 665 3778 1406 175 702 704 1917 1686 711 155 119 482 2076 1104 6492 5939 1519 1377 3412 1637 1489 437 1886 660
internal_value=0 0.288128 -0.0162883 0.0513505 0.328072 0.110779 -0.199459 -0.122462 0.254506 -0.0495559 0.148772 0.19808 0.0193857 0.229415 -0.134218 0.187608 0.313743 -0.226279 -0.0954115 0.0331727 0.389826 0.412631 -0.35061 -0.0349965 0.123765 0.0199923 0.249469 -0.0387356 0.126465 0.0895842 0.121469 -0.049198 0.342444 0.345798 0.133302 0.0197717 -0.0891014 0.223779 0.0693328 0.286726 -0.0461188 0.432299 0.0646181 0.00572701 -0.40409 0.0611855 0.162174 0.315738 0.327232 0.00347583 0.179354 -0.113057 0.309707 0.23665 -0.307555 0.248748 0.025132 0.0295941 -0.12545 0.00617317 -0.414994 0.158215
internal_count=161534 103700 57834 42203 84587 19113 15631 10408 38692 20684 21519 15022 11341 8234 9343 18264 20428 6053 7734 6497 45895 30802 5223 7465 8033 10879 10126 3523 3876 4896 2974 4447 15093 14965 3959 4355 4901 5463 6432 7355 5569 26595 2564 2271 3913 3246 3294 4275 4120 2803 4982 2140 10009 10231 3289 4684 4077 3051 2764 2123 3803 2625
shrinkage=0.01


Tree=6
num_leaves=59
num_cat=0
split_feature=135 106 135 151 97 97 97 97 106 76 76 134 106 97 76 97 134 141 77 105 157 76 105 105 141 97 48 134 93 3 77 157 157 76 157 48 137 137 48 116 105 77 101 103 48 134 106 48 134 157 35 133 110 18 97 94 31 101
split_gain=3262.27 866.713 634.853 285.509 237.905 187.649 176.822 169.259 145.787 127.763 100.552 99.4212 75.4865 61.4613 57.7537 56.6922 38.9331 35.1325 29.6355 27.7038 27.6852 26.567 26.4508 26.3619 23.4775 19.836 18.7975 17.3325 17.2529 16.5144 15.5437 14.7115 11.9381 11.7102 10.3991 9.49794 9.44432 8.88202 8.18261 7.34683 6.74632 6.46831 5.69318 5.45113 4.70879 4.36257 4.31251 4.03111 3.99564 3.56603 2.38836 2.18178 1.73281 1.2771 1.23883 0.633344 0.460944 0.245909
threshold=0.43049543174489435 -10.499999999999998 1.0811772321428574 1861.0000000000002 524.44500000000028 130.00500000000002 402.58500000000004 697.91500000000019 1.0000000180025095e-35 1.5000000000000002 2.5000000000000004 2.824290969673084 1.0000000180025095e-35 252.51000000000002 2.5000000000000004 775.84500000000014 2.0193160165370334 63.500000000000007 0.7231800766283526 -41.499999999999993 0.0047007821873653131 2.5000000000000004 -39.499999999999993 -52.499999999999993 82.500000000000014 305.80500000000006 6124239.0000000009 0.47775047291719186 8.5000000000000018 776.00000000000011 0.82683658170914553 0.0085275748987694352 0.0029049735422685559 2.5000000000000004 0.013140554957097277 23927904.500000004 -0.30334637374337364 -0.31769091918911413 10931854.000000002 1.8575187969924813 19.500000000000004 0.92052631578947375 46734.812010000001 1519905142.5000002 10077123.000000002 0.73032984274165214 133.50000000000003 12672476.500000002 1.4074897031308524 0.018738868835917171 0.052679425837320583 0.30032679738562096 1.3307291666666667 5.5000000000000009 319.00500000000005 1.8024390243902444 1261.3225000000002 159689.54335666666
decision_type=2 10 2 2 2 2 2 2 10 10 10 2 10 2 10 2 2 2 10 10 10 10 10 10 2 2 2 2 10 2 10 10 10 10 10 2 10 10 2 2 10 10 8 2 2 2 10 2 2 10 2 2 10 2 2 10 2 10
left_child=1 6 4 9 12 17 10 19 16 15 29 23 21 45 28 27 30 39 34 54 -18 47 32 -9 -14 43 -25 -3 48 -1 36 55 -15 -21 -8 -26 -6 -23 56 -5 -30 -28 -33 -16 -35 -11 -27 -2 -7 -13 -31 -24 -12 -19 -4 -17 -10 -32
right_child=2 3 7 5 8 14 18 11 38 13 52 49 24 22 25 31 20 53 -20 33 -22 37 51 26 35 46 41 -29 40 50 57 42 -34 44 -36 -37 -38 -39 -40 -41 -42 -43 -44 -45 -46 -47 -48 -49 -50 -51 -52 -53 -54 -55 -56 -57 -58 -59
leaf_value=0.0045396144709757584 0.0033710711172488463 0.0039865646889948383 0.0013291637319197023 0.0035393655402845424 0.00062531201232903595 0.0015083380997006973 0.0021613028817857555 -0.00086887928003092827 -6.6852274462322555e-05 0.0028140429045192357 0.0015932331967003467 -0.00283695098983328 0.0013563618672858889 0.0021589074164355686 -2.1701509535219059e-05 0.0031062717438289297 0.0005365359639623264 0.0026000428267329108 0.003131466354478436 -0.00031707009124878839 -0.0016674839927002061 0.0017066699805814405 0.00012967774211422337 -0 9.9399244718602711e-05 -0.0017429320349855986 -0.0030827339113644642 0.0029365662350332605 0.00084690409339953897 0.0029947569668655862 0.0017620922180119662 0.0018506406536464707 0.00093221231468772095 -0.0005223160466458534 0.00074711546446137454 -0.001724490532219047 -0.00049032653110203986 0.00031711494785841325 -0.002195474051153007 -0 -0.00055734081426820747 -0 0.00014421866728942824 0.0025145190476977574 -0.0026953777619129686 0.0016977150135737552 -0.00032853484010438825 0.0020898392685839763 0 -0.0042750477384111991 0.0039789682539668105 -0.0019654534233657628 0.0028908020774639255 0.0012989584627953724 -2.0103353659642337e-05 0.00087387029573205907 -0.0016844890099766113 -0
leaf_count=12709 1716 5878 839 2394 5500 3964 3938 2799 1002 4814 1256 1572 1909 2539 1962 2310 1184 1100 3987 1679 1947 3352 1204 429 2340 2100 2617 6779 1543 2371 2129 2352 4547 602 1700 731 2052 1631 3470 115 1788 248 855 252 1109 2298 1357 3645 735 3233 24256 324 5426 3681 1683 379 823 380
internal_value=0 0.274406 -0.0322469 0.184806 0.047098 0.0906049 0.363191 -0.192358 -0.0304021 0.242174 0.390025 -0.268545 0.141191 0.171762 0.0190448 0.301233 0.0271051 0.223598 0.233667 -0.0501059 -0.0804002 0.193118 0.108401 -0.176278 0.0312548 -0.0635317 -0.2489 0.343411 0.0785708 0.410725 0.0615597 0.208699 0.138738 -0.11943 0.175373 -0.03068 0.030918 0.12725 -0.175318 0.335751 0.00646662 -0.284888 0.142731 0.0231723 -0.199323 0.246931 -0.121774 0.252251 0.127528 -0.383032 0.389591 -0.0259802 0.266362 0.162246 0.0393413 0.283111 -0.0853386 0.149545
internal_count=161534 110913 50621 55270 33811 20991 55643 16810 18487 34279 46018 10898 15324 15726 13701 18553 13192 7290 9625 5912 3131 10344 8614 6093 4980 5671 3294 12657 8030 39336 10061 5896 7086 3390 5638 3071 7552 4983 5295 2509 3331 2865 3207 2214 1711 7112 3457 5361 4699 4805 26627 1528 6682 4781 2522 2689 1825 2509
shrinkage=0.01


Tree=7
num_leaves=63
num_cat=0
split_feature=136 134 153 145 51 97 153 57 85 153 136 117 117 117 51 135 110 136 137 136 136 95 55 94 57 101 139 107 15 97 110 153 134 110 134 21 56 13 51 45 97 107 117 107 137 153 137 153 90 117 117 136 47 143 85 107 107 139 97 110 118 123
split_gain=3380.01 832.118 699.028 433.96 322.302 225.988 171.105 147.813 139.348 122.321 82.7426 77.0915 76.2064 67.5157 60.2984 47.0612 42.2992 37.6409 43.2256 34.0851 33.9599 33.4545 31.0555 28.1551 26.1187 20.425 19.3236 16.799 15.5458 15.0477 13.9549 13.3825 13.0618 11.4019 11.1534 10.6763 10.13 9.57113 9.37328 8.65821 8.00493 7.96086 7.82688 6.66191 6.2464 5.71795 5.66715 5.56123 5.46774 5.22554 5.22525 4.99511 4.95705 3.89088 3.52168 8.15977 5.39203 3.02838 2.87758 2.55432 2.23256 2.22473
threshold=0.09966601223627275 1.6916614658730171 3600.1550000000007 331.71651785714295 106.65301003344483 666.55500000000018 30122.775000000005 18.208497375328086 2627.8500000000008 44801.155000000006 0.34842162202940824 1.9584770114942531 2.0616861153390835 2.551862068965518 118.62579113924052 0.21120111634293223 1.8360215053763442 0.039856199915213837 -0.30334637374337364 0.17483108934371386 0.35773282570536019 3.5000000000000004 0.91992496392496392 0.16954022988505749 17.371220909794001 42.509912500000006 0.04856334263590268 12.017241379310347 0.44499449944994507 825.84500000000014 1.4622507122507127 11517.210000000001 1.081932976841278 1.1547008547008548 3.5902286069518534 16.500000000000004 4.5000000000000009 0.043564527260179439 144.90639602803739 39.997500000000009 341.67500000000007 -25.552777777777774 1.6255841121495329 -19.596296296296291 -1.4996653279785805 10469.520000000002 -0.89283741120757687 692.42999999999995 82.445555555555572 1.9251865671641795 6.0056179775280905 0.22166942328522363 1504281535.0000002 268410.12590000004 958.09166666666681 33.026315789473692 119.21111111111112 0.039238328125707565 867.2800000000002 1.3895663956639568 2.5729483282674779 1323.0000000000002
decision_type=2 2 2 10 2 2 2 2 10 2 2 2 2 2 2 2 8 2 10 2 2 10 2 10 2 10 10 10 2 2 10 2 2 10 2 2 2 2 2 2 2 10 2 10 10 2 10 2 2 2 2 2 2 2 10 10 10 10 2 10 2 2
left_child=2 4 7 8 9 24 21 12 15 23 14 35 47 25 -7 49 -14 43 -19 57 28 32 -12 31 46 42 33 50 -11 -17 54 -2 -6 -23 52 -5 -26 -21 -31 40 -38 -33 -9 -10 -22 -25 -3 -1 -16 -4 -15 -48 -24 -29 55 -13 -56 -8 -32 -39 -28 -30
right_child=1 5 3 11 6 10 19 13 17 20 22 30 16 27 48 29 -18 18 -20 37 44 26 34 45 36 -27 60 53 61 38 58 41 -34 -35 -36 -37 39 59 -40 -41 -42 -43 -44 -45 -46 -47 51 -49 -50 -51 -52 -53 -54 -55 56 -57 -58 -59 -60 -61 -62 -63
leaf_value=0.0052147045065337244 0.0024524923885268423 0.0015488782991809878 0.004067981052876958 0.0022244168369117165 0.0025024338043385685 -0.00037527657929577879 -0.0010686083358414126 0.0045676738164810845 0.0026264209662731014 7.2534729932442825e-05 -0.0020938460154878084 0.0014210912993370889 0.0031057527589804547 0.0028010419737634798 -0.0020869646093126487 0.0028780666503056781 0.0041343807067730108 0.0019824704279569065 0.00046775167235208837 -0.0010847174367957671 0.0005165618024316074 -0.0021929595485134842 -0.003991994835123509 0.003967930519838612 -2.1884058723481772e-05 0.0020215751146415548 0.0018670873981132159 0.0015111921270473483 0.00192013693075133 0.0026883266150154535 0.00056720682474677847 0.0015836873398551088 0.0007015893607531439 1.1234477488401554e-06 -0.0050124301312608 0.00066723125781136016 -0.00096093904005521594 -0.0033864699211440742 0.0010546497491467886 0 -0.003068355166257961 -0 0.0032700881523011079 0.0012330227458663958 -0.0011169293457162193 0.0025542941491951891 0.00065849746102090089 0.0042954313349078252 -0.0035840376274852205 0.0032060167472228998 0.00096529805005875495 -0.00088783979404892424 -0.0019693719388499771 -2.8928627878417941e-06 -0.0019518909311145114 -0.0008009520435995406 -0.00012279677456366339 1.1618368194096132e-05 -0.00078044126037348427 -0.0017566869341529765 0.00012868184374781926 0.00059881167635869787
leaf_count=6401 2311 821 4929 2232 1768 2334 1689 2367 7242 1796 1618 515 10060 2797 2964 6384 13166 5926 4118 2708 913 489 1522 1457 1422 1566 1184 1544 2926 1399 3377 1859 1494 3146 1963 1727 1038 1001 2154 501 932 986 4413 1309 1477 4333 1381 6125 1341 8206 755 1107 825 770 1384 1155 854 2652 825 1851 793 1232
internal_value=0 -0.0163775 0.285625 0.205444 0.0703893 -0.183895 -0.0238432 0.371617 0.254384 0.162578 -0.266663 0.0356263 0.407699 0.279984 -0.182198 0.308781 0.369427 0.186263 0.137196 -0.117128 0.0660669 0.0791606 -0.359245 0.235159 -0.0379889 0.343336 0.0238234 0.187847 0.112392 0.2479 -0.0226451 0.167763 0.171107 -0.0271792 -0.412757 0.157231 -0.103681 -0.176423 0.17298 -0.157986 -0.201547 0.100905 0.374234 0.242581 -0.0452971 0.293184 0.0364477 0.477603 -0.258168 0.353918 0.244115 -0 -0.333146 0.0967508 -0.0793673 -0.00544743 -0.129999 -0.0387673 0.0278638 -0.237064 0.122193 0.15538
internal_count=161534 57834 103700 53736 38065 19769 18775 49964 41667 19290 12567 12069 35752 14212 6639 23072 23226 18595 10044 9901 8344 8874 5928 10946 7202 8346 5612 5866 5954 9937 8110 5156 3262 3635 4310 3959 3893 5560 3553 2471 1970 2845 6780 8551 2390 5790 3309 12526 4305 13135 3552 2488 2347 2314 3908 1670 2238 4341 4202 2852 1977 4158
shrinkage=0.01


Tree=8
num_leaves=63
num_cat=0
split_feature=136 134 153 103 153 97 47 57 87 47 136 76 87 47 119 136 76 136 99 48 76 102 137 18 136 46 119 89 103 134 89 116 102 102 134 102 137 49 137 137 97 136 103 153 110 134 101 102 47 134 116 116 99 99 54 136 136 136 153 110 18 101
split_gain=3350.89 823.839 696.988 443.646 290.381 223.639 151.728 145.935 140.451 121.889 82.1483 62.557 54.4787 52.7769 52.2413 51.987 50.3013 45.9503 42.0634 34.6964 34.0015 32.7727 28.4131 27.7094 30.3357 26.8558 24.7838 20.5824 19.7061 19.2285 18.8676 14.8563 14.3729 13.045 11.7235 11.5328 14.8911 11.1143 10.4506 10.1883 9.06999 8.30193 8.13314 7.76846 7.69887 6.9593 6.21388 5.50553 5.41317 3.8863 3.61077 3.40318 2.86206 2.85233 2.73559 12.9152 2.67133 2.56235 2.46839 2.01617 1.31981 2.2381
threshold=0.09966601223627275 1.6916614658730171 3600.1550000000007 1519482326.0000002 30122.775000000005 666.55500000000018 1501073600.5000002 18.208497375328086 549.0200000000001 1503066211.5000002 0.34842162202940824 1.5000000000000002 450.01000000000005 1501845899.0000002 22.750000000000004 0.3300006329364274 4.5000000000000009 0.054371603059679273 549.93500000000006 7007317.5000000009 3.5000000000000004 1524820467.5000002 -0.30541498731153899 4.5000000000000009 0.22166942328522363 1506848592.0000002 13.250000000000002 154143.46997023813 1515087008.0000002 1.0738116281451406 102191.50487690479 1.2800491400491403 1522075512.0000002 1524259736.5000002 4.1781209739906275 1524087280.5000002 -0.82882394854225827 149.50000000000003 -0.29956347618412438 -1.4996653279785805 310.04500000000007 0.14127443319078539 1515353883.5000002 23801.360000000004 1.7523584905660379 0.88930158459304398 129307.9251738889 1524338515.5000002 1487956455.5000002 1.081932976841278 2.0529115341545361 1.1579747240441531 1292.1400000000001 709.10000000000014 -4.999505928853754 0.046984966673311035 0.17483108934371386 0.56312058736879267 56184.805 1.4267857142857145 5.5000000000000009 79.982779166666674
decision_type=2 2 2 2 2 2 2 2 10 2 2 10 10 2 2 2 10 2 2 2 10 2 10 2 2 2 2 8 2 2 8 2 2 2 2 2 10 2 10 10 2 2 2 2 8 2 10 2 2 2 2 2 2 2 2 2 2 2 2 10 2 10
left_child=2 4 7 12 9 23 21 11 18 16 13 45 26 41 60 30 29 38 31 -12 49 27 -19 43 48 40 -4 56 51 -2 46 -5 -22 -32 47 36 -18 -29 -10 -17 -14 -7 -27 57 -16 -1 -8 -21 -25 -11 -46 -28 -43 -30 55 -20 -6 -3 -41 -13 -9 -62
right_child=1 5 3 8 6 10 15 14 17 20 19 59 25 -15 44 39 35 22 54 34 32 -23 -24 24 -26 42 28 37 53 -31 33 -33 -34 -35 -36 -37 -38 -39 -40 58 -42 52 -44 -45 50 -47 -48 -49 -50 -51 -52 -53 -54 -55 -56 -57 -58 -59 -60 -61 61 -63
leaf_value=0.0044306547268793779 0.0020389437145032115 0.0016992702002441395 0.0028052440939658951 0.0036269371808322292 -6.924178578285443e-05 -0.0013030559088345014 0.0017888975085003408 0.0038870549135834836 0.0028377044714390466 0.0035013685970980367 -0.0016230802692725592 0.0026177689185506127 0.0014058926540745432 -0.00025658297807923153 0.0012490185543011796 0.00054146550504042797 0.00094464662614904857 0.0017632740116958934 0.002597440331554009 -0.0040269789572387757 -0.0004443981480428791 0.00023220742259761609 0.00023762293215322881 -0.0009760535518841322 -0.0019340273017889582 -0.0017083494996054814 0.00081887619054257701 -0.002812424105004326 0.0016754186521045901 0.00049918556482494655 -0.00087630014676291605 0.0027456329270433848 0.0019163823624621351 0.001041276945912051 -0.0050450086144126051 0.00094198725299817875 -0.0013515053028241813 -0.0011584236775658812 0.0019178522320709313 6.1090943556982126e-05 -0.00026459331558660354 -0.0022209296888787899 -0.00024739458345140011 -0.00084718050016740034 0.0026463409974602408 0.003454971114008954 -3.6152963714045464e-05 -0.0022623189896415108 0.00052439853259681206 0.0021211379828557759 0 -0.00061299408957842178 -0.0037522007904861889 -0.00035134712121230637 0.0025235583552464143 0 -0.0013060126660665997 -0 -0.0014312857338021525 0.0035780600335021001 0.0031271340911151564 0.0011098046231901061
leaf_count=24172 3322 1219 1020 12413 1710 1331 4702 3629 5278 3782 1128 3467 1332 1964 2544 1338 572 4487 571 1885 432 1775 2845 1131 2091 1761 1095 2048 2560 2258 974 6171 2909 1579 1732 1016 1829 1675 6820 650 1205 2020 1957 540 3114 3161 421 1183 1619 1499 244 1542 1324 261 1512 906 1941 602 1633 4952 4182 499
internal_value=0 -0.0163495 0.284352 0.204288 0.0699887 -0.183042 -0.012015 0.37022 0.255513 0.16566 -0.265398 0.406092 0.0385132 -0.181199 0.279115 0.0674264 0.0793402 0.190299 0.313706 -0.357683 0.254451 -0.111136 0.118539 -0.037856 -0.0890581 -0.0326054 0.108629 -0.144777 0.0743604 0.143483 0.118502 0.334084 0.158191 0.0271477 -0.401228 -0.0226755 -0.0762985 -0.20984 0.23288 -0.0382045 0.0576183 -0.244317 -0.0967565 0.0629919 0.196204 0.432243 0.162026 -0.338586 -0.00587117 0.31318 0.246911 -0 -0.28638 0.145325 0.183209 0.104904 -0.0754641 0.112265 -0.0965492 0.319703 0.336585 0.293504
internal_count=161534 57834 103700 53736 38065 19769 20446 49964 41003 17619 12567 35752 12733 6639 14212 11297 8997 19430 21573 5928 8622 9149 7332 7202 4841 6255 6478 7374 5458 5580 7676 18584 3341 2553 4800 3417 2401 3723 12098 3621 2537 4675 3718 2361 5902 27333 5123 3068 2750 5281 3358 2637 3344 2821 2989 1477 3651 1821 2283 8419 8310 4681
shrinkage=0.01


Tree=9
num_leaves=57
num_cat=0
split_feature=135 153 135 106 153 57 107 99 87 31 97 106 118 134 107 157 90 137 48 57 131 18 107 135 106 134 57 48 157 131 12 18 107 33 118 93 153 102 107 153 135 131 157 18 157 50 107 118 97 27 156 153 97 157 48 134
split_gain=3184.41 882.803 617.245 478.041 235.702 181.017 175.055 167.632 160.797 78.2847 74.3991 66.3885 65.9722 63.8903 52.2801 48.9124 43.1382 41.4217 34.9992 33.7551 28.4723 27.6892 26.8524 26.3321 25.7508 23.9889 23.8716 20.0715 17.5528 17.1262 16.9261 12.5686 11.3624 10.9313 10.4574 9.62855 7.76813 7.54433 6.51279 5.96743 5.78282 5.47307 5.47121 5.34376 4.72963 13.8678 4.69399 4.58312 3.93418 3.64831 3.38077 3.31796 2.78443 1.94887 1.85135 1.6975
threshold=0.43049543174489435 4968.295000000001 1.0811772321428574 10.500000000000002 16895.400000000005 18.225523278560253 -13.309523809523808 600.00500000000011 532.0150000000001 2575.0600000000004 775.84500000000014 -21.499999999999996 3.8280788177339908 2.4870359570976226 -27.986486486486481 0.0032074934463100974 75.882941176470595 -0.39997995188452279 12888156.500000002 21.501004016064261 138.49553623188407 4.5000000000000009 33.026315789473692 0.19358891717196605 14.500000000000002 1.230292240538158 17.538591038591044 9739933.5000000019 0.0075467085666778523 13.23759197324415 22.500000000000004 3.5000000000000004 33.026315789473692 84.990609973387805 2.6440092165898621 6.5000000000000009 12366.750000000002 1524764117.0000002 -18.982758620689651 25717.500000000004 0.15387101775946821 450.52666744840519 0.0042807257490978879 4.5000000000000009 0.02318411005984284 178.50000000000003 -29.59411764705882 7.0944940476190483 319.00500000000005 22.120000000000005 0.79898294320496155 969.59500000000014 2709.6450000000009 0.0068551489224719687 5482199.5000000009 4.1781209739906275
decision_type=2 2 2 10 2 2 10 2 10 2 2 10 2 2 10 10 2 10 2 2 10 2 10 2 10 2 2 2 10 10 2 2 10 10 2 10 2 2 10 2 2 10 10 2 10 2 10 2 2 2 10 2 2 10 2 2
left_child=1 5 4 8 18 11 16 14 10 21 40 34 29 44 48 38 25 46 -2 22 31 39 -11 -12 47 50 -20 41 -27 43 -13 -16 -23 -22 -1 -34 -21 -19 -10 -5 -3 -8 -15 -7 -9 -46 -17 -14 -4 -26 -6 -32 -25 -18 -47 -44
right_child=2 3 7 9 6 12 27 13 15 19 23 30 24 42 20 17 53 37 26 36 33 32 -24 52 49 28 -28 -29 -30 -31 51 -33 35 -35 -36 -37 -38 -39 -40 -41 -42 -43 55 -45 45 54 -48 -49 -50 -51 -52 -53 -54 -55 -56 -57
leaf_value=0.0049062048605661287 0.0024574932859419687 0.0037937393738299127 0.0012719046991751485 0.0029674317425289788 0.00093546469205703147 0.0044032721553483416 0.00029432244283745054 -0.00024528685935468279 0.002380258426817342 -0.00031953434431514628 0.0028164678642512244 0.0038820615482638631 0.0029903988965950903 -0.0017009782063114639 0.00098711049881177967 0.0020798401768634522 7.9817820612714091e-05 -0.00038851308575423948 0.0016169460169469813 0.0013940979877019814 -0.0029717825498526656 0.0012292979250416826 -0.0023462993295212042 0.001662848823362926 -0.00027711273211510892 0.0010189211872457199 0.00022570072465322776 -0.0019240349631172474 -0.00032322114759994399 0.0015049297556907393 0.0036515892057444274 -0.001161466824094667 0.00077999567675683624 -0.00076286350433546371 0.0041203415265248424 -0.000857408013930904 -0.00023485522771327541 0.0010300801205332943 0.00091030345229362888 0.0010366674749756324 0.0030114899360001585 -0.0014303279933433363 -0.0032337736284796022 0.0031466975465699203 -0.0010409543059893957 0.00016774175493425913 0.00093185330433694525 0.0013376562649159999 -0.00018500181093964113 0.0012829289446483066 0.0020847962598092495 0.0025722807929598702 3.7794510998699305e-05 -0.0013614066982057438 -0.0033160098666306925 -0.0046026818178868311
leaf_count=6656 4151 6747 837 1094 4347 1891 1123 665 7494 1950 3997 6895 2337 503 578 3314 676 2404 5210 939 1953 2057 1870 4045 582 2477 2879 5054 3763 994 2398 2077 1326 718 18369 1552 1996 1312 1107 1047 8496 847 2088 6048 1345 47 2282 1037 2511 2537 1636 5459 681 1648 1214 2274
internal_value=0 0.270816 -0.0321651 0.181122 0.0460851 0.361117 -0.0177099 -0.190075 0.234911 0.0175134 0.29061 0.398269 0.264531 -0.296617 -0.0888408 0.159751 0.0461134 0.102609 0.159239 -0.063276 -0.156018 0.0959867 -0.133987 0.208905 0.17858 0.0728636 0.113446 -0.151165 0.0194715 0.325702 0.337678 -0.0655798 0.0453496 -0.241827 0.433477 -0.00694194 0.0255891 0.00875539 0.220335 0.207584 0.336594 -0.0401181 -0.376469 0.346243 -0.174254 -0.208564 0.163102 0.251552 0.0152644 0.0960943 0.126832 0.291747 0.144958 -0.0901925 -0.310973 -0.397688
internal_count=161534 110913 50621 55710 33811 55203 21571 16810 41879 13831 23966 39777 15426 8136 8674 17913 14547 9312 12240 6755 5326 7076 3820 8723 6493 12223 8089 7024 6240 8933 14752 2655 4935 2671 25025 2878 2935 3716 8601 2141 15243 1970 4865 7939 3271 2606 5596 3374 3348 3119 5983 7857 4726 2324 1261 4362
shrinkage=0.01


Tree=10
num_leaves=58
num_cat=0
split_feature=135 153 135 106 153 76 107 84 57 85 90 76 117 153 107 117 90 135 58 48 76 18 102 157 57 106 48 107 3 157 101 107 122 110 18 146 153 157 117 131 117 157 84 131 117 117 101 48 102 52 157 157 48 153 101 76 76
split_gain=3156.15 879.362 610.909 505.045 233.222 182.651 172.873 171.643 151.348 85.2305 74.5198 68.879 66.3117 51.3048 49.664 49.634 42.4358 40.309 40.3 34.5362 34.2407 31.2219 24.2025 24.1579 23.4718 22.5492 19.7655 19.3575 18.6883 29.5341 17.8326 17.4967 17.2834 14.9447 12.9658 11.0353 10.3653 8.90361 7.95043 6.01154 5.61863 5.59791 5.46558 5.28499 4.38395 3.97994 3.23783 3.10989 2.80676 4.49452 1.81247 1.45961 1.39767 1.0598 0.894227 0.717272 0.711145
threshold=0.43049543174489435 3825.1700000000005 1.0811772321428574 10.500000000000002 16895.400000000005 1.5000000000000002 -13.309523809523808 12939.655000000001 18.208497375328086 1043.3833333333337 20.546584967320264 1.5000000000000002 2.551862068965518 16003.620000000003 -27.298148148148147 2.1115555555555559 75.882941176470595 2.2017073099868747 21.500000000000004 12888156.500000002 5.5000000000000009 4.5000000000000009 1523279894.5000002 0.012817510819953167 17.538591038591044 14.500000000000002 9739933.5000000019 33.026315789473692 867.50000000000011 0.0052811231729213868 42.509912500000006 33.026315789473692 776.00000000000011 1.2674796747967483 3.5000000000000004 342.50000000000006 12366.750000000002 0.028252936910535497 2.0940448113207553 53.803808284536984 1.7509398496240605 0.0065258260744408799 4773.1750000000011 450.52666744840519 6.0056179775280905 1.6255841121495329 99019.569828333348 6510519.5000000009 1524478389.5000002 -2.4999999999999996 0.0068551489224719687 0.002830048334865901 13022871.000000002 24344.500000000004 451668.65732491895 3.5000000000000004 1.5000000000000002
decision_type=2 2 2 10 2 10 10 2 2 10 2 10 2 2 10 2 2 2 2 2 10 2 2 10 2 10 2 10 2 10 10 10 2 10 2 10 2 10 2 10 2 10 2 10 2 2 8 2 2 2 10 10 2 2 8 10 10
left_child=1 8 4 5 19 10 16 14 11 21 38 15 30 22 42 -1 28 32 27 -2 34 53 51 -12 55 44 43 -11 37 -30 45 -23 -9 -15 -16 -33 -20 -6 -3 -29 -13 -35 -4 -8 -14 -10 -25 -22 49 -34 -18 -7 -32 -5 -19 -21 -26
right_child=2 3 7 9 6 13 26 17 12 18 23 40 25 33 20 -17 50 54 36 24 47 31 -24 46 56 -27 -28 39 29 -31 52 35 48 41 -36 -37 -38 -39 -40 -41 -42 -43 -44 -45 -46 -47 -48 -49 -50 -51 -52 -53 -54 -55 -56 -57 -58
leaf_value=0.004951366881747494 0.0024446654820629273 0.0037105425053622285 0.00067488066410409994 0.0029542730941774682 0.0015914455995156898 0.0017439247929307339 0.00029262350344789621 0 0.0044223517285929756 -0.00034352489671372855 0.0025393911312806276 0.0040974007436746767 0.0028318559731680131 -0 0.00058346226465258715 0.0039145264095669539 7.9297561942238005e-05 -0.0032530207500180443 0.0015291324589422881 0.0019299131209774623 -0.00032370648402084027 0.0014318041442031965 0.0025582049685725161 0.0014513494140501271 0.00086682937906892399 0.00086676536150585848 -0.0019135237906619783 -0.00048115237064267686 0.001111947732403234 -0.00090002628666417726 0.0034196802987828952 0.0010287591322356677 -0.0032735601813795646 0.0017528693921174615 -0.0013244109178425457 -0.00066465598209233963 -0.0001151453671073021 0.00058702009025433162 0.0029618374603119883 -0.0025757038391714549 0.0028916579807346261 0.00078718813014775886 -0.00056939416579894334 -0.0014211297505824572 0.001008174794903614 0.0032377589809492718 -8.3695951124477847e-05 -0.0030857795911109881 -0.0015110774163017147 -0.00041796102815881984 -0.0013528778389640011 0.00033307156112238743 0.0014189084728586415 0.0011973511619057619 -0.0047907191173786091 0.00081509899153110234 -0.00031324882546688595
leaf_count=10430 4151 9443 1751 1208 3764 1592 1123 415 2437 2217 5140 1970 2677 1783 748 16867 676 1772 1080 3610 277 2172 7440 1878 1392 2385 5054 631 1779 2122 560 1152 2188 3947 2508 1933 2087 4558 8562 1591 6942 3780 2235 847 739 4368 621 1847 1223 280 1648 1189 1231 861 1566 1600 1487
internal_value=0 0.269597 -0.0320399 0.187207 0.0458128 0.240229 -0.0176573 -0.189151 0.367543 0.0253938 0.297848 0.403774 0.275572 0.164759 -0.0948902 0.431561 0.045785 -0.306215 -0.0520311 0.158395 -0.163415 0.107064 0.219342 0.206066 0.112827 0.182905 -0.150324 -0.121077 0.0723602 0 0.336749 0.057453 -0.225886 0.10494 -0.0856125 -0 0.0417643 0.105405 0.33614 -0.202823 0.317257 0.129431 -0 -0.0398176 0.246895 0.368102 0.10323 -0.277356 -0.253131 -0.299111 -0.0896021 0.117816 0.211105 0.227735 -0.401335 0.160791 0.0224675
internal_count=161534 110913 50621 60307 33811 45375 21571 16810 50606 14932 25644 36209 14397 19731 9366 27297 14547 7444 7606 12240 5380 7326 10221 7639 8089 5801 7024 4439 12223 3901 8596 5257 4106 9510 3256 3085 3167 8322 18005 2222 8912 7727 3986 1970 3416 6805 2499 2124 3691 2468 2324 2781 1791 2069 3338 5210 2879
shrinkage=0.01


Tree=11
num_leaves=59
num_cat=0
split_feature=136 106 90 51 151 136 97 51 76 97 76 76 33 90 58 121 90 107 101 18 136 101 141 118 136 92 118 33 49 3 115 21 18 136 136 137 107 107 106 44 76 92 136 90 110 136 44 136 136 49 118 105 79 77 118 103 115 50
split_gain=3273.84 687.071 620.807 404.213 276.256 161.843 151.869 150.567 136.977 133.727 106.053 103.725 103.474 77.173 53.9403 49.3232 46.2537 44.598 41.4822 39.8485 37.9674 36.4695 33.3883 32.5643 30.6385 29.4333 25.2627 23.2186 22.6812 21.4821 17.7845 17.5337 17.2902 15.1172 14.8416 14.9327 13.996 13.8783 9.82194 9.57219 9.38699 9.11052 8.99595 7.43609 6.94871 6.86857 6.26707 6.63671 5.68633 5.17085 4.29013 2.89097 2.84958 1.2605 1.05659 0.472637 0.122357 0.0974819
threshold=0.09966601223627275 -10.499999999999998 35.294411764705892 113.48461174242426 3121.5000000000005 0.40050181865896178 361.33500000000009 118.62579113924052 2.5000000000000004 154.70000000000005 4.5000000000000009 2.5000000000000004 1341.0674403154633 9.6674509803921591 18.500000000000004 466.50000000000006 15.401302521008406 -25.552777777777774 59841.48901842106 4.5000000000000009 0.040484516144756462 323844.71180451586 63.500000000000007 2.5370879120879124 0.17207636019808084 12.271715686274511 2.8027777777777785 413.86784029160657 149.50000000000003 837.00000000000011 5.5000000000000009 18.500000000000004 3.5000000000000004 0.45684906082805538 0.18329645416148335 -0.80885620915032674 -33.245689655172406 33.026315789473692 -33.499999999999993 8.4550000000000018 1.5000000000000002 10.017761437908499 0.048359265684170677 44.707058823529415 1.8317610062893086 0.049071356824125133 27.005000000000006 0.17483108934371386 0.052751457875887281 149.50000000000003 3.9104278074866312 -42.499999999999993 3.5000000000000004 0.62284482758620696 6.6262254901960791 1509458460.0000002 4.5000000000000009 130.50000000000003
decision_type=2 10 2 2 2 2 2 2 10 2 10 10 10 2 2 10 2 10 10 2 2 8 2 2 2 10 2 10 2 2 2 2 2 2 2 10 10 10 10 2 10 10 2 2 10 2 2 2 2 2 2 10 10 10 2 2 2 2
left_child=1 8 3 10 11 7 19 34 13 22 16 18 15 14 23 -8 39 25 26 52 -13 32 50 -1 -9 -12 -3 36 -17 -22 40 54 -7 -18 -4 -36 -21 45 -25 57 -11 -19 -28 -15 55 -32 47 -14 -10 -39 -6 -31 -5 -34 -16 -24 -29 -2
right_child=2 4 5 6 9 21 12 24 48 30 17 20 46 43 31 28 33 41 -20 27 29 -23 44 38 -26 -27 42 56 -30 51 37 -33 53 -35 35 -37 -38 49 -40 -41 -42 -43 -44 -45 -46 -47 -48 -49 -50 -51 -52 -53 -54 -55 -56 -57 -58 -59
leaf_value=0.0048994825656400263 0.0026240386101725253 0.0037379784155873231 0.0010598444763068406 0.0022750678980061039 0.0039162314537946599 -0.0010101245878031313 -0.0002290881209583254 -0.0013210323558726631 0.0026974928552179166 0.0012065025923436526 0.0016951385064059702 0.0023571562453593019 0.0003363745151102192 0.0030686565484826863 0.0035596508963234848 -0.0029115239900500424 0.0015370964549356024 -0 0.0011981000353296135 0.0011217033260602287 0.001760441821079539 -0.0044876117500560276 0.0017630988017305611 0.0042114417783514413 -0.0031460689166588601 -0.00019682031776510148 0.0030399359406870084 0.0022340962429938027 -0.0014205070055183899 0.00078037897287085514 0.001023308317620411 0.0012831685177170378 -0.0038504377082057635 -0.00017933998027573224 0.00046284261580951692 -0.001271485921438314 -0.0007190599124034955 -0.0017851628699942391 0.0035102437999665814 0.0032585174256393873 -0.00013265833534377926 -0.0018685994758607142 0.0020973388191556476 0.0015943272674838133 0.0025533059559362326 -0.00071570581645115253 0.0013797027094317779 -0.00084255410935903151 0.0016744001125093952 -0.00026058465666207618 0.0014056449399942983 -0.00052164688520017332 0.00048853362613418886 -0.0017166351814831755 0.0013275659643649912 0.00055716247670702535 -0 0.0015065464258499637
leaf_count=7753 2381 6291 1866 1827 1300 1048 1931 2535 6120 2380 3302 5873 2424 7414 2673 3800 4515 1555 1775 864 3333 2319 1345 16152 2924 1509 8483 786 2991 2222 1302 1112 1194 919 1583 1593 3188 1492 9079 3227 1726 909 4131 1255 1106 891 737 2190 2884 1439 450 1034 706 584 412 2273 224 2203
internal_value=0 0.2807 -0.0165336 0.0468789 0.193341 -0.188072 -0.0491852 -0.113213 0.358273 0.081186 0.148767 0.24616 -0.112881 0.381588 0.403358 -0.18311 0.20465 0.0455827 0.292279 0.0675605 0.16871 -0.338557 0.195246 0.418813 -0.231953 0.108233 0.307901 0.00826661 -0.227157 0.1073 3.39526e-05 0.279011 -0.24367 0.122921 0.0136022 -0.0377724 -0.030126 -0.0478315 0.396419 0.260081 0.0620931 -0.072784 0.274048 0.286808 0.141484 0.0272796 0 -0.020278 0.238236 -0.107239 0.333527 0.0337 0.181838 -0.321487 0.329715 0.103513 0.170786 0.211172
internal_count=161534 103700 57834 42188 48846 15646 21668 10501 54854 15704 20520 33142 14073 45850 37181 8722 13245 7275 20680 7595 12462 5145 6474 32984 5459 4811 18905 5062 6791 6589 9230 4197 2826 5434 5042 3176 4052 5124 25231 7811 4106 2464 12614 8669 4724 2193 5351 4614 9004 2931 1750 3256 2533 1778 3085 3618 1010 4584
shrinkage=0.01


Tree=12
num_leaves=63
num_cat=0
split_feature=136 134 153 106 153 51 134 58 153 76 153 51 118 118 76 76 99 51 77 136 136 77 136 51 76 131 106 118 107 120 89 118 136 134 118 134 102 107 136 51 136 136 136 86 145 107 136 107 108 92 92 107 134 102 107 92 107 93 107 99 107 21
split_gain=3245.31 798.274 686.836 423.561 261.639 237.687 139.113 129.455 128.096 124.83 96.3555 74.8415 73.1275 68.5449 55.3768 50.3107 46.9077 40.8663 35.2876 33.1636 32.7527 31.7497 29.6529 27.6375 27.3077 24.3732 23.7401 22.9157 14.5054 38.0758 22.5149 14.1718 13.7837 12.0343 11.3702 9.09532 8.86663 14.1421 8.77978 15.4616 7.96081 7.71372 7.65726 6.86041 6.5826 6.48246 6.14427 4.90231 4.79277 4.30261 4.06139 4.0429 3.25655 3.20165 2.89904 2.35882 2.32334 2.14382 2.06602 1.05189 0.311766 0.00975584
threshold=0.09966601223627275 1.3936437896082197 3600.1550000000007 1.0000000180025095e-35 26792.425000000003 106.65301003344483 3.5902286069518534 17.500000000000004 30122.775000000005 1.5000000000000002 30122.775000000005 113.48461174242426 3.1310068649885587 2.835271317829458 1.5000000000000002 4.5000000000000009 549.93500000000006 100.00346020761246 0.8452991452991454 0.048359265684170677 0.31368814984903398 0.62731481481481499 0.16383562411819275 147.05758077879042 5.5000000000000009 22.36889459084605 14.500000000000002 2.8027777777777785 33.026315789473692 659.50000000000011 13077.638058272392 2.5931712962962972 0.45684906082805538 0.63390132221931073 7.0944940476190483 2.824290969673084 1524069583.5000002 91.754310344827587 0.048359265684170677 165.34263934744612 0.18960035345880402 0.47318068348044912 0.41291688547960986 449.64604901960791 488.40500000000014 -32.327956989247305 0.050540853771205728 149.57983193277315 1.5000000000000002 0.62517973856209152 40.165686274509802 -32.327956989247305 0.9448112151663608 1524328173.0000002 -23.242647058823525 78.789736842105256 -38.493243243243235 9.5000000000000018 -39.193749999999994 635.03000000000009 -32.327956989247305 15.500000000000002
decision_type=2 2 2 8 2 2 2 2 2 10 2 2 2 2 10 10 2 2 10 2 2 10 2 2 10 10 10 2 10 2 8 2 2 2 2 2 2 10 2 2 2 2 2 10 10 10 2 10 10 10 10 10 2 2 10 10 10 10 10 2 10 2
left_child=2 5 7 9 17 10 11 14 15 16 24 20 49 43 27 33 31 41 32 45 -6 40 -13 -21 -2 -19 34 -1 30 61 -15 -4 55 -7 -14 60 37 -17 -18 -40 -10 -3 -8 57 52 -11 -33 -31 -35 -9 -24 -29 -28 -23 -26 -12 -25 -5 -16 -20 -27 -30
right_child=1 4 3 13 6 8 42 12 21 19 18 22 26 28 58 36 38 25 59 23 -22 53 50 56 54 35 44 51 29 47 -32 46 -34 48 -36 -37 -38 -39 39 -41 -42 -43 -44 -45 -46 -47 -48 -49 -50 -51 -52 -53 -54 -55 -56 -57 -58 -59 -60 -61 -62 -63
leaf_value=0.0048715650671454797 0.0030806103054503075 0.0013244365287614745 0.004061844483043601 0.0026053791204919742 0.00013651733547276893 0.0027944796730870348 -0.0030559740482926328 0.0039219374303436291 -0.00083906045516244927 0.0028087756486601333 0.00092473052182575873 -0.0012069253535508743 0.0031053479302690524 0.0016394343488025226 0.0039413313498966795 -0.0016361376619617018 0.0028629349871477929 0.00061318942236708726 0.002430271820276816 0.0019341435056467013 -0.0015902674623047609 -0.00048549838310478239 -0.0024068590371399789 0.0015156182770019585 0.0019054502300485745 0.00032643505089614849 0.0012517271348823186 0.0042147983688197921 0 0.0011885819364604584 -0.00018724500172292912 0.0033559875912560727 -0.00085295783944248004 0.00079140050471898356 0.0013762495811483252 -0.0020041159778876085 0.0011542771011011765 0.00051761350715395641 0.0021676412436113417 6.9209158451947439e-05 -0.0022161396780390075 -0.00037187655391692214 -0.0047217171656450682 0.0004931862173833978 0.0023393573455391973 0.001900199403534824 0.0025245744681080891 -0.00014662758461316444 0.0025624423291798586 0.0022932446234690007 -0.0037053834444203504 0.0034343217199256071 -0.00038093697640554947 0.0008741819951536069 5.4534237186014058e-05 -0.00066450185908642728 0.0001813521653361454 0.00016763312978039806 0.0028699854699182075 0.00088275892840332664 -0.00092430274842006171 -0.0016685992651690369
leaf_count=7937 5354 2440 3980 1817 2601 1297 1738 5699 2113 4541 4542 2107 3890 1638 2253 1200 1464 1518 2062 4481 2919 2620 3062 987 1729 768 1928 12949 347 1274 2160 8916 1052 2792 1170 1554 688 806 1475 1099 2314 700 2098 895 1336 5883 5167 2036 661 982 1964 5287 544 932 613 461 2900 325 5989 892 2237 2351
internal_value=0 -0.0165075 0.279431 0.199945 -0.148772 0.0890292 -0.2256 0.364678 -0.00170726 0.250309 0.17334 -0.171728 0.283637 0.0387727 0.400935 0.0955 0.303967 -0.0102011 0.0977855 0.186582 -0.0760133 -0.0936123 -0.24427 0.130274 0.260331 -0.0644221 0.21719 0.42663 -0.00377746 -0.0442743 0.0577005 0.328743 0.04615 0.163336 0.272751 -0.108442 -0.0206617 -0.0724188 0.190303 0.131222 -0.158345 0.0915579 -0.400034 0.178974 0.140399 0.230718 0.305946 0.0339822 0.116366 0.370013 -0.293873 0.399548 0.0853375 -0.0100375 0.146402 0.0758142 0.0547471 0.228254 0.317821 0.199938 -0.0572536 -0.143666
internal_count=161534 57834 103700 53736 25706 32128 16489 49964 15423 40893 16705 12653 15549 12843 34415 7444 22101 9217 9009 18792 5520 7979 7133 8368 7696 6077 8868 26173 9806 6008 3798 18063 6055 4750 5060 4559 2694 2006 4038 2574 4427 3140 3836 3037 3808 10424 14083 3310 3453 6681 5026 18236 2472 3552 2342 5003 3887 2142 8242 2954 3005 2698
shrinkage=0.01


Tree=13
num_leaves=63
num_cat=0
split_feature=135 96 135 103 97 84 58 107 76 76 117 103 97 134 117 107 18 134 135 76 108 84 145 107 76 134 157 76 18 102 135 134 77 18 134 76 122 134 102 107 97 76 97 84 157 84 110 76 107 56 55 90 134 93 102 117 84 77 135 96 96 97
split_gain=3081.48 813.603 594.388 505.619 222.791 166.485 141.294 141.006 136.772 82.224 68.6541 68.4876 60.3908 59.2386 48.7689 48.5426 43.468 35.3913 35.0188 33.249 29.1145 27.8443 26.4745 24.6665 24.5408 22.6242 22.3199 19.557 19.4899 18.9383 16.6098 14.9801 14.6423 12.6432 10.8443 10.8062 10.7141 9.35105 9.27495 8.621 7.692 7.63601 7.30794 7.11756 7.07386 6.08235 5.37535 5.20761 5.00205 4.77782 2.80245 2.51535 2.10807 2.01248 1.98036 1.76112 0.917822 0.567357 0.42393 0.359145 0.152204 0.0794117
threshold=0.43049543174489435 2.5000000000000004 1.0811772321428574 1519482326.0000002 524.44500000000028 12939.655000000001 17.500000000000004 -13.309523809523808 1.0000000180025095e-35 5.5000000000000009 2.2506157635467985 1519896132.5000002 402.58500000000004 2.824290969673084 2.1366028708133973 -27.298148148148147 4.5000000000000009 2.0504082619910426 0.18123198113512337 5.5000000000000009 1.5000000000000002 7930.7400000000007 488.40500000000014 12.017241379310347 2.5000000000000004 0.95880246129475666 0.0048119959470846957 6.5000000000000009 5.5000000000000009 1524301065.5000002 0.19894647840131516 0.59584122005796702 0.83192090395480245 3.5000000000000004 0.97400405377317434 4.5000000000000009 806.50000000000011 0.44970315454210746 1523869657.5000002 29.167543859649129 482.47500000000008 2.5000000000000004 337.37000000000006 5774.9500000000007 0.0083175043563876398 11973.6 1.0923295454545456 4.5000000000000009 -23.711309523809518 4.5000000000000009 0.74328248108735928 107.24712074303407 0.9164505419873169 9.5000000000000018 1524259736.5000002 6.0056179775280905 1648.1150000000002 0.83192090395480245 2.367544237676293 4.5000000000000009 10.500000000000002 881.31999999999982
decision_type=2 10 2 2 2 2 2 10 10 10 2 2 2 2 2 10 2 2 2 10 8 2 10 10 10 2 10 10 2 2 2 2 10 2 2 10 2 2 2 10 2 10 2 2 10 2 10 10 10 2 2 2 2 10 2 2 2 10 2 10 10 2
left_child=1 6 4 9 11 15 14 17 18 16 25 28 29 36 21 42 45 32 53 33 40 37 39 55 -13 -8 -19 30 47 35 -14 60 44 -17 -25 -10 -7 -1 -29 61 -16 49 -4 -20 -6 52 -33 -2 -26 -9 -21 -34 -3 -5 -38 -12 -24 -44 -15 -30 -18 -11
right_child=2 3 5 8 7 13 10 41 12 22 23 24 27 58 20 19 31 26 43 50 -22 -23 56 34 48 -27 -28 38 59 -31 -32 46 51 -35 -36 -37 54 -39 -40 -41 -42 -43 57 -45 -46 -47 -48 -49 -50 -51 -52 -53 -54 -55 -56 -57 -58 -59 -60 -61 -62 -63
leaf_value=0.0050398598388135549 0.0016055541438537236 0.0023837636966357661 0.001153007587956605 0.0038981823743263612 0.0011307068190094533 0 0.0037485260569000934 -0.00029644687162101122 0.0024600625653025034 -8.2914642196892221e-05 0.0028312186238725187 0.0024485624979921402 0.0024781565153070007 -0.0031216267389793258 0.0031274127346602974 0.00057938431095818342 0.001171570898745225 0.00048793665047114202 0.0028868398178678928 -0.00070644988612326835 0.0040254796274070597 0.0018186928166931552 0.0014924601342117783 0.0015979842550229134 0.0015457995107484169 0.0016587468718078434 -0.0016701710789171198 -0.00043918589813775967 3.0646009756456477e-05 0.00295401210503177 0.0012423299238015475 -0.0015032495090279143 0.0017283161669650843 -0.0013144406938766973 -0.00027621443678623267 0.0013610160948178812 -0.0028259633840635591 0.0040317426110052287 0.0010887426529154667 -0.0026100446047771886 0.00046720241117385647 -0.0024002069244287759 -0.00064072099107225671 0.0017376989597914993 2.0224942825922177e-05 -0 8.6264972697197283e-05 -0 0.00018158312645862821 -0.0017044292338557444 -0.0031256426134105833 -0.00030640377389768223 0.00015781308212961819 0.0029309757854524355 -0.0013339871718425339 0.0012948578862759322 -0.00030363545712838638 0.00098511474993997431 -0.0045193368944457394 -0.0012185236751979702 -0.00017194684051420676 -0.0025805643096599423
leaf_count=8227 1761 2466 937 6931 1886 458 7304 1435 4835 876 3979 5282 3623 1714 7139 748 3145 1050 5073 377 12090 605 422 2152 3675 1045 1722 892 1553 6888 4335 687 2231 2508 693 3562 1732 4602 4548 1276 349 2192 2635 2524 5640 338 3914 853 1234 2080 1747 251 373 3056 1280 876 1351 414 2260 966 521 216
internal_value=0 0.266088 -0.0319689 0.188981 0.0448373 -0.186975 0.363053 -0.0302502 0.241986 0.0309592 0.281116 0.136022 0.196896 -0.302376 0.402514 -0.0940394 0.0776458 0.0294803 0.314859 -0.161916 0.364613 0.456773 -0.0956304 0.20483 0.186936 0.350043 -0.0818903 0.142146 0.0329193 0.244153 0.181908 0.0338331 0.0613351 -0.0849384 0.110809 0.200715 -0.193005 0.468859 0.0820173 -0.176638 0.301698 -0.16555 -0 0.252007 0.0312278 0.188234 -0.013236 0.10799 0.122342 -0.115911 -0.274599 0.148338 0.212658 0.361456 -0.222932 0.257656 0.00745064 -0.0386269 -0.39485 -0.0412544 0.0954359 -0.068049
internal_count=161534 110913 50621 61852 33811 16810 49061 18487 46267 15585 16049 15324 28683 7444 33012 9366 11444 12780 17584 5380 19578 13434 4141 7700 10191 8349 2772 13398 5133 15285 7958 8267 10008 3256 2845 8397 3470 12829 5440 2368 7488 5707 3986 7597 7526 3177 4601 2614 4909 3515 2124 2482 2839 9987 3012 4855 1773 3049 3974 2519 3666 1092
shrinkage=0.01


Tree=14
num_leaves=59
num_cat=0
split_feature=135 153 135 103 153 76 107 58 90 85 76 118 134 90 107 117 157 110 134 76 58 51 18 107 18 157 107 153 135 76 107 118 157 18 3 157 157 110 122 157 117 76 93 134 157 107 153 153 107 134 18 134 153 134 130 135 153 134
split_gain=3054.43 865.994 588.103 449.571 224.84 171.1 165.59 160.723 146.907 84.91 79.6521 74.8803 68.0547 63.0489 54.1128 49.9223 46.4447 40.1391 40.0174 39.3311 35.6016 32.9777 28.4292 19.2878 18.9306 18.6989 18.2583 18.8438 16.6777 16.6122 16.5333 15.3164 14.9375 14.176 12.4108 22.1079 16.901 11.9963 8.69542 8.39613 8.38815 7.91691 7.65225 6.73472 6.32265 4.89246 4.59017 4.56453 4.46285 3.60012 3.40292 1.87077 1.7896 1.30296 0.656963 0.54557 0.150261 0.0164479
threshold=0.43049543174489435 4968.295000000001 1.0811772321428574 1518887085.0000002 16895.400000000005 1.5000000000000002 -14.981481481481481 17.500000000000004 31.750882352941179 1043.3833333333337 1.5000000000000002 3.1310068649885587 2.4870359570976226 31.750882352941179 -27.298148148148147 2.0436689549961868 0.0032074934463100974 1.7523584905660379 2.0193160165370334 5.5000000000000009 21.500000000000004 102.80479563588993 4.5000000000000009 31.148351648351653 4.5000000000000009 0.0087316104064674074 -21.982142857142854 31367.295000000006 0.18361284920559165 1.5000000000000002 35.148351648351657 7.0944940476190483 0.012490072885435027 3.5000000000000004 867.50000000000011 0.0060749961305916582 0.028252936910535497 1.8136574074074077 806.50000000000011 0.0039874310073702559 1.7509398496240605 1.5000000000000002 8.5000000000000018 1.3807434757243233 0.02318411005984284 -18.982758620689651 92825.525000000009 12366.750000000002 -30.326666666666661 4.1781209739906275 3.5000000000000004 0.9448112151663608 10469.520000000002 0.70144973085953921 1.501655629139073 0.58123139701733317 24344.500000000004 1.0904216440967232
decision_type=2 2 2 2 2 10 10 2 2 10 10 2 2 2 10 2 10 8 2 10 2 2 2 10 2 10 10 2 2 10 10 2 10 2 2 10 10 10 2 10 2 10 10 2 10 10 2 2 10 2 2 2 2 2 10 2 2 2
left_child=1 7 4 9 21 13 18 10 14 22 15 29 38 28 -4 -1 45 51 34 33 23 57 56 -11 46 -20 27 -18 54 43 -24 -19 -15 -16 36 -36 -6 41 -10 -14 -12 -23 -32 -9 -40 -7 -8 -22 -17 -41 -21 -13 -30 -28 -5 -43 -3 -2
right_child=2 3 8 5 6 16 24 11 12 20 40 17 39 32 19 48 26 31 25 50 47 37 30 -25 -26 -27 53 -29 52 -31 42 -33 -34 -35 35 -37 -38 -39 44 49 -42 55 -44 -45 -46 -47 -48 -49 -50 -51 -52 -53 -54 -55 -56 -57 -58 -59
leaf_value=0.0048904942236843128 0.0031687579719323756 0.0028968455435558903 0.00019414599133572556 0.0035328778381506971 0.0017200767298636891 0.0022989071151833019 0 0.0038954928545402376 0.0001431878705701116 -0.00037165369230200462 0.0039996926436661091 0.0013500169950645085 -0.0014590467186213481 0.0021876393292852305 0.00072896904290571456 0.0040600394128119128 0.0017356004332113979 0.0030019501679010427 0.00016887776077753104 -0.001080370427966705 0.0013930041710365174 0.0014121507091881616 0.0013434634912222845 -0.0021302054246043148 -0.0019206628383667346 -0.001808214299208106 0.00067253298635542344 0.00048593565155938837 0.0033702722913177964 0.0021439080298488503 0.00043436777986099795 0.0012434081962205191 0.0004825156606885736 -0.0012401766117358163 0.0011416668153757515 -0.00080802927090024195 0.00051950086417543206 0.0020307143844767897 -0.00033185048667281903 -0.0031103786955819501 0.0028140994239440336 0.00089810760964526709 -0.0012291039653777227 0 -0.0022982153383189828 0.00082773148453871997 -0.0015554832349177613 -0.00011077460584164825 0.0032516321351866396 -0.0045177324120225047 -0.0032608370353036987 -0 0.0023946665833304375 -0.00097474305410894262 -0 -0.00016355059125753969 0.0011778241062977387 0.0019106178756214656
leaf_count=9980 1533 1118 3234 10359 3399 7262 1626 5949 422 1970 2266 3042 495 2783 764 13010 4698 4458 1464 531 852 2678 2168 2127 4710 1304 701 3450 2516 1523 1814 1272 1469 2370 1505 1867 4817 2089 661 2133 8075 1567 939 140 2299 1002 879 2087 4798 2324 1577 690 6573 882 72 1930 868 2443
internal_value=0 0.264902 -0.0318468 0.176058 0.0445577 0.228537 -0.0178024 0.354348 -0.186045 0.0181209 0.392164 0.269184 -0.283904 0.286276 -0.0885036 0.422804 0.151627 0.203215 0.0456155 -0.15685 -0.0626641 0.155185 0.10179 -0.131063 -0.145234 -0.0730301 0.0981039 0.121935 0.3127 0.34961 0.0517517 0.263077 0.162332 -0.0728715 0.0748218 0.00342195 0.102917 0.11178 -0.16114 -0.36539 0.308622 0.0791029 -0.009997 0.381509 -0.189383 0.213322 -0.0529901 0.0295031 0.384926 -0.387286 -0.276363 0.10834 0.267817 -0.0184805 0.350639 0.0285584 0.2202 0.242554
internal_count=161534 110913 50621 55710 33811 41767 21571 55203 16810 13943 38129 17074 8334 23772 8476 27788 17995 9462 14356 5242 7036 12240 6907 4097 7215 2768 9731 8148 19520 7612 4921 5730 4252 3134 11588 3372 8216 8264 3382 4952 10341 6175 2753 6089 2960 8264 2505 2939 17808 4457 2108 3732 9089 1583 10431 3497 1986 3976
shrinkage=0.01


Tree=15
num_leaves=61
num_cat=0
split_feature=153 107 90 76 106 89 89 107 157 117 157 92 117 157 90 131 131 150 107 48 102 90 102 122 58 153 33 98 90 1 48 122 59 131 45 52 157 153 153 33 90 131 33 117 33 141 33 45 90 33 92 45 107 115 102 157 90 90 117 33
split_gain=2999.59 625.716 482.531 425.452 199.83 183.993 178.335 148.18 114.167 91.7863 89.4488 83.7711 80.7216 76.0007 63.4144 57.1667 48.1634 44.3844 42.0856 40.3797 36.1548 33.4705 30.7098 29.9203 27.3982 23.5242 18.5308 17.7306 17.386 19.555 16.3967 16.3504 16.2069 14.8444 14.7172 13.1218 12.0393 9.44834 8.68779 7.43115 7.11602 7.08945 6.37292 6.15509 5.37667 5.04698 4.79902 4.56284 4.27483 4.22141 3.75064 3.63277 2.94622 2.88622 2.683 2.44677 1.99582 1.64263 1.58821 0.240708
threshold=12366.750000000002 -17.987499999999997 57.683447712418314 1.5000000000000002 5.5000000000000009 45208.657175378794 38672.747476984136 -9.1778656126482208 0.0049279365792181534 1.9972527472527475 0.013484564386607523 28.366274509803922 2.5406784335355765 0.029127826112296713 22.222287581699344 14.754751552795033 10.560219780219784 1712476.9000000001 33.026315789473692 10376519.500000002 1524328173.0000002 6.1002380952380966 1523544783.0000002 714.50000000000011 21.500000000000004 43841.470000000008 13196.767376369204 187.4914285714286 146.2679411764706 3.5000000000000004 13022871.000000002 806.50000000000011 19.500000000000004 267.26472749099645 39.997500000000009 -3.4999999999999996 0.0065258260744408799 5786.4500000000016 57601.080000000009 15580.086613834797 134.00176470588238 144.51334133653464 10399.509577372866 2.5628033980582532 4185.1166576979249 115.50000000000001 26403.271060227988 61.502500000000005 6.1767647058823529 7143.5049556436716 157.28513071895426 99.027500000000018 35.148351648351657 11.500000000000002 1524163638.0000002 0.0029049735422685559 180.37091503267976 25.209969040247685 6.0056179775280905 40894.982280168821
decision_type=2 10 2 10 10 8 8 10 10 2 10 10 2 10 2 10 10 2 10 2 2 2 2 2 2 2 10 2 2 2 2 2 2 10 2 2 10 2 2 10 2 10 10 2 10 2 10 2 2 8 10 2 10 2 2 10 2 2 2 10
left_child=3 2 5 4 12 14 11 16 47 45 31 18 21 30 26 43 -5 42 44 33 34 -1 36 50 52 -22 55 32 29 -25 59 56 -14 -15 -10 51 -18 53 39 -32 46 -21 -16 -9 -3 48 -33 54 -6 -13 -12 -20 -17 -11 -7 -2 -4 -23 -34 -8
right_child=1 6 10 7 9 8 13 15 20 37 23 49 27 19 17 24 22 -19 35 41 25 57 -24 28 -26 -27 -28 -29 -30 -31 38 40 58 -35 -36 -37 -38 -39 -40 -41 -42 -43 -44 -45 -46 -47 -48 -49 -50 -51 -52 -53 -54 -55 -56 -57 -58 -59 -60 -61
leaf_value=0.004438117579464277 0.0030621412296852209 0.00041608268636436581 0.0030894225645698875 0.0034823087435637192 0.0040055217833301106 0.00053515992115027498 -0.00027359412007559757 0.0023857294350151568 -0.0013889615923626925 0.0017729323072831801 0.0009276958218295703 -0.0030061720009495804 0.0034835438866861784 -0.00024901556901892101 -0.00019921568922634614 -1.4130700618016697e-05 0.001900179355198986 0.0021781270655086872 -0.0011001966028611251 -0.0017164981297553294 0.0012134720038802403 0.0035436359580007949 0.0025468699133525769 -0.0030116862058201521 0.0013777186802511826 -3.0375568027251103e-05 0.0032590226038778647 0.0014265553959589132 -0.0038334875162656596 -0.001004700535597374 -0.0011568465460886452 -0.00045965462996105526 0.0025782306536791546 -0.0022585649051928328 1.2636003724111926e-05 0.00071282882314025505 0.00054539685023750428 6.1783940939463296e-05 -0.0020996076130244509 0.00065849756852939107 -0.0015703435068819952 -0.0037480624848334082 0.0010936173253466919 0.00076736715714808201 0.0017751030446085925 0.0015200913127551262 0.0011430970477348237 0.0024677113917422316 0.0023484838412632957 -0.0011494899947226858 -0.0015827326600708061 0.00035786055058063793 -0.00133563886672354 2.1660707928593391e-05 0.0017356759421791592 0.0019550004082002936 -0 0.0014346947822961662 0.00054194097631152455 0.0020054993556051486
leaf_count=19952 1692 1537 376 4595 2604 1513 1759 2204 2362 3226 520 730 17014 1102 1989 2019 4040 3277 2453 727 4042 6405 10515 1444 1401 4293 4293 986 1160 1913 3755 1350 1606 1800 2358 1604 2026 1367 2289 531 721 2976 1714 1143 2553 628 933 2264 1141 1665 352 728 1294 605 3537 7190 108 450 494 209
internal_value=0 0.0257988 0.092847 0.299445 0.350956 0.139679 -0.0992035 0.199536 0.0701277 0.213435 -0.119787 -0.000487504 0.378768 -0.171969 0.209432 0.0785058 0.245103 0.123655 0.0460159 -0.258539 0.0109102 0.418281 0.215782 -0.204845 0 0.0561833 0.254036 0.32544 -0.242547 -0.1902 -0.103722 0.00903667 0.334298 -0.153156 -0.0669505 -0.0229849 0.146497 0.115741 -0.134003 -0.0908589 -0.0230246 -0.337997 0.037424 0.186513 0.128985 0.326915 0.01549 0.174375 0.35327 -0.176402 -0 -0.0736124 -0.056144 0.15222 0.139657 0.217943 0.224724 0.342117 0.214908 -0
internal_count=161534 75819 49401 85715 56478 40524 26418 29237 20369 9571 8877 11270 46907 15148 20155 8061 21176 6980 8875 6605 13055 26807 16581 5389 4714 8335 13175 20100 4517 3357 8543 3488 19114 2902 4720 4785 6066 5198 6575 4286 3004 3703 3703 3347 4090 4373 2283 7314 3745 2395 872 3181 3313 3831 5050 8882 484 6855 2100 1968
shrinkage=0.01


Tree=16
num_leaves=63
num_cat=0
split_feature=153 134 106 76 157 106 134 107 76 134 76 51 134 84 131 134 134 141 157 58 157 106 84 49 58 134 153 137 134 14 131 107 131 106 157 47 157 130 50 107 157 137 157 50 157 153 157 134 102 153 137 137 18 134 116 137 122 134 157 157 76 107
split_gain=2977.2 1013.57 423.445 422.651 247.363 197.623 157.222 146.365 133.247 98.683 83.8046 76.6877 66.6403 64.3364 56.7451 52.4201 51.6684 52.8804 50.1884 41.7275 35.5437 31.906 30.932 29.2596 27.0773 22.4167 21.9608 21.9122 21.7351 20.3931 19.3365 19.0606 12.7469 10.9644 10.744 13.4418 10.6472 9.74954 9.39211 8.002 7.94064 7.84576 7.68379 7.25249 7.23593 6.60779 6.28668 5.63608 5.16077 5.10076 4.85291 4.19419 3.64722 3.13558 4.96626 3.12139 2.50707 2.33213 2.27272 2.12052 1.65143 1.01361
threshold=12366.750000000002 1.4341932836140858 1.0000000180025095e-35 1.5000000000000002 0.0073633927574764451 5.5000000000000009 2.4870359570976226 -9.1778656126482208 1.5000000000000002 1.2962374555071963 2.5000000000000004 117.62534916201119 0.70709845850771924 11764.510000000002 14.754751552795033 3.7682393389127022 2.3808641114032354 63.500000000000007 0.01054683023976408 18.500000000000004 0.013140554957097277 1.0000000180025095e-35 24993.695000000003 149.50000000000003 21.500000000000004 4.1781209739906275 33298.100000000013 -0.40707964601769908 0.93757396445721131 16.500000000000004 339.61011312217204 -27.986486486486481 10.171366459627331 -27.499999999999996 0.00096767212239737461 1492038521.0000002 0.039565461252942323 0.080361219830397942 190.50000000000003 33.026315789473692 0.10444139429957743 -0.94060952970297007 0.013807562555727931 234.50000000000003 0.0055291020027467786 60480.540000000008 0.0015787449200490402 0.9957301500586071 1524836174.0000002 48822.555000000008 -0.79993990384615377 -0.24439972755851466 5.5000000000000009 0.56889196328128477 1.6471224853577795 -0.3845786846741045 714.50000000000011 1.2628973740169009 0.022566612546354808 0.016479165242866679 6.5000000000000009 -36.298148148148137
decision_type=2 2 10 10 10 10 2 10 10 2 10 2 2 2 10 2 2 2 10 2 10 10 2 2 2 2 2 10 2 2 10 10 10 10 10 2 10 10 2 10 10 10 10 2 10 2 10 2 2 2 10 10 2 2 2 10 2 2 10 10 10 10
left_child=3 2 8 5 15 9 11 12 13 19 26 36 32 28 55 21 17 53 51 33 -15 34 38 39 47 -11 50 40 -2 -21 -13 44 -5 -1 -3 -36 -6 -19 -8 -12 -20 -28 -30 -17 -14 -25 -45 -16 -29 -38 -4 60 -39 54 -7 -9 -22 -46 -33 -32 -10 -40
right_child=1 4 10 7 6 16 22 14 18 25 23 30 31 20 24 43 -18 37 27 29 56 -23 -24 45 -26 -27 41 48 42 -31 59 58 -34 -35 35 -37 49 52 61 -41 -42 -43 -44 46 57 -47 -48 -49 -50 -51 -52 -53 -54 -55 -56 -57 -58 -59 -60 -61 -62 -63
leaf_value=0.0043019376310833822 0.0028590792805575456 0.0023162821785203875 0.0020897348781913796 0.0038391246481057047 0.00048910520437267535 0.0039073557337101997 -0.0015509091373788442 0.0024345827398543074 0.0025826055990141711 0.0026435714281907796 -0.0011979064521967567 -0.0012031256035653069 0.0027342316140299143 0.0021831549788590681 -0 0.0003016549548702805 -0.00065294975956594627 0.0020164467194510589 0.0010876199475809457 0.0034116240416833623 0.0016202080991034875 -0.00095445581006908906 -0.0042255025948169222 4.2360121064847669e-05 0.0013717160664882769 5.9257260168781997e-05 0.0006441557843140114 -0.0013424159617706011 0.0023911967994425603 0.0014404211699888456 -0.0014888475148524232 0.0013935030283232176 0.0026965997223181706 0.0037252750419499718 0 0.0015401853811610842 8.3898971546001353e-05 0.0018958061096265267 -0.0014291064287428805 -0.0028828198380589959 -4.2851627211072664e-05 -0.00058253390694881172 0.0010008103921448513 -0.00036175261601040969 0.0021676461715010183 -0.0014700413585231678 -0.0030882427959480238 -0.0014005080664047148 0.00032746844384381145 -0.0013340599382659002 0.00055590574911259139 0.00083134964830869286 -0 0.0024045577434291011 0.00032539088942024996 0.0010060607312523322 -0.00024432509958237375 0.00061950815600640805 0 -0.0032265220924962124 0.00147099128988223 -0.0034393505741053369
leaf_count=22226 11344 951 1056 3211 2069 2468 1617 1922 1891 4520 1513 2419 3720 1874 2004 253 681 2316 4065 2995 420 1416 2805 1960 1401 627 1713 1346 2379 1348 811 3481 7350 15191 2544 1655 1029 505 529 1602 1866 3480 2016 418 1462 1030 800 1309 757 1858 2180 2221 1275 2141 185 1425 1922 1117 835 2148 3593 2269
internal_value=0 0.0255582 0.108589 0.298184 -0.137013 0.349531 -0.204845 0.198596 0.167892 0.377198 -0.0364 -0.121643 0.243903 0.224477 0.0782511 0.00999982 0.212719 0.235143 0.0954552 0.394466 0.102539 0.0528223 -0.322321 -0.130928 0 0.234811 0.0309804 0.0333957 0.256455 0.282591 -0.209619 0.181434 0.305585 0.407127 0.0955509 0.0620396 -0.0240373 0.13954 -0.255786 -0.210072 0.0716106 -0.0158918 0.177845 -0.173836 0.226269 -0.0448994 -0.224014 -0.0559067 -0.0696588 -0.0796465 0.109029 0.158806 0.0527685 0.314433 0.36957 0.185917 0.0053418 0.153862 0.113456 -0.278831 0.187521 -0.309906
internal_count=161534 75819 50228 85715 25591 56478 17554 29237 35694 46907 14534 10334 21176 19955 8061 8037 9571 8890 15739 41760 4216 6566 7220 6105 4714 5147 8429 8034 15739 4343 5378 10615 10561 37417 5150 4199 4956 4096 4415 3115 5931 5193 4395 1471 6299 2990 1218 3313 2103 2887 3236 7705 1780 4794 2653 3347 2342 2579 4316 2959 5484 2798
shrinkage=0.01


Tree=17
num_leaves=63
num_cat=0
split_feature=136 84 153 106 76 136 47 107 87 57 47 118 118 76 131 101 136 92 118 153 136 47 118 48 136 48 136 116 106 102 136 118 132 47 105 107 47 48 107 54 136 155 118 121 54 89 48 54 102 123 136 98 121 85 107 107 48 136 131 92 110 136
split_gain=3123.51 683.892 673.685 398.343 276.67 201.337 157.298 141.784 131.126 131.023 122.626 61.7858 61.5537 59.0107 52.629 51.1479 41.044 40.1202 38.1386 33.0983 31.3923 30.6799 27.794 25.5775 24.3727 21.5027 21.1273 20.5935 17.8186 16.3723 16.2272 13.4293 12.903 12.7013 12.5558 11.8019 11.7323 10.6614 20.4022 10.3196 17.3819 8.95123 8.08787 8.03896 7.99256 7.61507 6.59765 6.57615 6.4633 6.35991 6.0769 5.65441 4.8611 4.13257 4.13078 3.77235 3.48095 2.91147 2.23488 1.47801 1.25853 1.2237
threshold=0.09966601223627275 7768.9750000000013 3600.1550000000007 10.500000000000002 4.5000000000000009 0.40050181865896178 1499454355.0000002 -23.493902439024385 549.0200000000001 18.208497375328086 1504161505.5000002 3.1310068649885587 2.835271317829458 1.5000000000000002 125.02256112104952 266543.16195625009 0.055175013598094944 18.571683006535952 2.4494897959183679 27724.500000000004 0.17207636019808084 1506166660.5000002 2.8027777777777785 17534282.500000004 0.2300569668504919 13482651.500000002 0.49476931124454654 1.2759057180270625 14.500000000000002 1522930286.5000002 0.22582739379187236 2.753378378378379 4578.6303380158042 1509126386.5000002 -59.499999999999993 -35.985074626865661 1501845899.0000002 23752309.500000004 33.026315789473692 -4.2998637602179821 0.05916747915387665 0.1182685978224783 7.0944940476190483 619.50000000000011 -2.3527000964320153 4184.8402995659408 11171936.000000002 -2.4685522151898729 1524772431.0000002 684.00000000000011 0.22166942328522363 96.601111111111109 607.50000000000011 816.38333333333355 -32.327956989247305 -39.193749999999994 5618193.5000000009 0.16642148856758604 19.188542521192236 4.6176470588235299 1.7165178571428574 0.070463247801611242
