tree
version=v2
num_class=1
num_tree_per_iteration=1
label_index=0
max_feature_idx=157
objective=huber
feature_names=Unnamed:_0 feature_1 month elapsed_time hist_authorized_flag_mean hist_card_id_count hist_category_1_sum hist_category_1_mean hist_category_1_std hist_category_2_1.0_sum hist_category_2_4.0_sum hist_category_2_4.0_mean hist_category_3_A_sum hist_category_3_A_mean hist_category_3_B_sum hist_category_3_B_mean hist_category_3_C_sum hist_category_3_C_mean hist_month_nunique hist_hour_mean hist_weekofyear_mean hist_weekofyear_nunique hist_day_nunique hist_day_mean hist_dayofweek_mean hist_weekend_sum hist_weekend_mean hist_duration_min hist_duration_max hist_price_sum hist_price_mean hist_price_max hist_price_min hist_price_var hist_amount_month_ratio_max hist_amount_month_ratio_min hist_installments_sum hist_installments_max hist_installments_var hist_installments_mean hist_merchant_category_id_nunique hist_merchant_id_nunique hist_purchase_amount_mean hist_purchase_amount_max hist_purchase_amount_min hist_purchase_amount_median hist_purchase_date_max hist_purchase_date_min hist_purchase_date_ptp hist_time_since_purchase_date_min hist_time_since_purchase_date_max hist_time_since_purchase_date_mean hist_month_lag_min hist_month_lag_max hist_month_lag_mean hist_month_lag_var hist_month_lag_ptp hist_month_diff_mean hist_month_diff_min hist_month_diff_max hist_month_diff_var hist_store_size_min hist_store_size_mean hist_city_size_min hist_city_size_mean hist_state_size_mean hist_subsector_size_min hist_subsector_size_max hist_subsector_size_mean hist_category_size_min hist_category_size_max hist_category_size_mean new_card_id_count new_category_1_sum new_category_1_mean new_category_2_1.0_mean new_category_3_A_sum new_category_3_B_mean new_month_nunique new_weekofyear_nunique new_day_nunique new_day_ptp new_day_mean new_duration_min new_duration_max new_price_sum new_price_mean new_price_max new_price_min new_price_var new_amount_month_ratio_max new_amount_month_ratio_min new_amount_month_ratio_ptp new_installments_sum new_installments_mean new_merchant_category_id_nunique new_merchant_id_nunique new_purchase_amount_sum new_purchase_amount_mean new_purchase_amount_max new_purchase_amount_min new_purchase_amount_var new_purchase_date_max new_purchase_date_min new_purchase_date_ptp new_time_since_purchase_date_min new_time_since_purchase_date_max new_time_since_purchase_date_mean new_month_lag_min new_month_lag_max new_month_lag_mean new_month_lag_var new_month_lag_ptp new_month_diff_mean new_month_diff_max max_repeat_purchases mean_repeat_purchases mean_merchant_purchases mean_category_purchases mean_monthly_purchases hist_purchase_date_uptonow new_purchase_date_uptonow days_feature1 days_feature2 days_feature3 days_feature1_ratio days_feature2_ratio days_feature3_ratio first_month first_year category_1_mean new_CLV hist_CLV transactions_ratio mean_purchase_ratio max_purchase_ratio sum_purchase_amount_ratio mean_month_lag_ratio mean_month_diff_ratio sum_installments_ratio mean_installments_ratio transactions_product mean_purchase_product sum_purchase_amount_product mean_month_lag_product mean_month_diff_product sum_installments_product mean_installments_product min_duration_product hist_min_duration_weighted hist_max_duration_weighted hist_time_since_purchase_date_min_weighted new_min_duration_weighted new_max_duration_weighted new_time_since_purchase_date_min_weighted sum_price_ratio mean_price_ratio CLV_Ratio
feature_infos=[0:201916] [1:5] [1:12] [546:2830] [0.03048780487804878:1] [2:2912] [0:1786] [0:1] [0:0.70710678118654757] [0:2065] [0:1381] [0:1] [0:2910] [0:1] [0:1748] [0:1] [0:514] [0:1] [2:12] [1.1538461538461535:22.75] [2.2999999999999998:51.200000000000003] [1:52] [1:31] [1:30.333333333333329] [0:6] [0:659] [0:1] [0:331500] [21.200000000000006:95999999978.639999] [-121002.47333333336:inf] [-2791.1500000000001:inf] [1.0600000000000001:inf] [-90000:inf] [0:574480373352910.38] [0.053000000000000005:166666666.62958333] [0:1147.0588235294115] [-9:2075] [0:12] [0:60.5] [-0.69230769230769229:11.705882352941178] [1:95] [1:398] [1.0228571428571429:333333349.94750005] [1.0600000000000001:3999999999.1100001] [0:19500] [0.01:20000] [1485935216:1519862391] [1483228808:1514761726] [166130:36626924] [-1:391] [58:422] [8.2547169811320753:409.03636363636366] [-13:-1] [-11:0] [-12.452380952380953:-0.022222222222222227] [0.02222222222222222:49] [1:13] [17:30] [17:30] [17:30] [0:0.5] [3.43496702311434e-08:0.038303214225737306] [1.1449890077047801e-07:0.038303214225737334] [1.5457351604014531e-06:0.2512357207991478] [2.6037050035206689e-05:0.25123572079915674] [0.00024845116478186021:0.45416258063027959] [4.2593591086617823e-06:0.19223442578223046] [0.00046110997318286895:0.19223442578223046] [0.00046110997318286895:0.19223442578223071] [3.43496702311434e-08:0.19085573306816306] [4.5101117013491277e-05:0.19085573306816306] [4.5101117013491277e-05:0.1908557330681632] [0:104] [0:16] [0:1] [0:1] [0:92] [0:1] [1:2] [1:10] [1:30] [0:30] [1:31] [0:538200] [0:1030576] [-49718.589999999997:inf] [-22624:inf] [-22624:inf] [-50000:inf] [0:208876360.5] [0:2941.1764705882347] [0:1661.1111111111111] [0:2940.8786928104573] [-6:139] [-1:12] [1:40] [0:104] [0:75285.689999999988] [0:29900] [0:51528.800000000003] [0.01:29900] [0:992008244.64499998] [-9223372036.8547764:1525132799] [-9223372036.8547764:1525131828] [-9223372036.8547764:5330524] [-62:361] [-62:363] [-62:361] [1:2] [1:2] [1:2] [0:0.5] [0:1] [17:30] [17:30] [1:1458] [1:63.399999999999999] [1:494] [1:494] [1:1456] [518:911] [457:880] [546:10495] [577:8490] [0:2830] [0.0005977286312014345:0.0086655112651646445] [0.00035335689045936394:0.0051993067590987863] [0:0.0017331022530329286] [1:12] [2011:2018] [0:2] [0.00050000000000000001:160919.40344638948] [1.9214285714285717:2606234843.2771249] [0:15.25] [0:430.6524696982936] [0:347.99283154121866] [0:66.955298472929186] [-62.999999999999993:-0.085190039318479696] [0.94444444444444442:1.0588235294117647] [-inf:inf] [-inf:inf] [0:105248] [0:16564762730.391052] [0:1391440069352.8484] [-24.869565217391305:-0.031111111111111114] [289:896.25] [-1190:141480] [-8.375:116.57142857142857] [0:2048547600] [0:3857546] [296.80000000000007:1151999999743.6799] [-2066:259168] [0:538200] [0:31372800] [-6448:19926] [-inf:inf] [-inf:inf] [5.4925531952057342e-10:397.49381246076837]
tree_sizes=4984 5157 5199 4982 5114 5214 4934 4902 4882 5222 4974 4798 4740 4975 5104 5190 4869 4704 5165 4594 4617 4738 4886 5187 5045 4797 4901 4961 4980 4732 4587 4836 4815 4767 4532 4321 5146 4613 4912 5007 4810 4784 5241 4650 4288 5242 4598 4405 5156 4002 4864 4866 4482 4620 4787 4726 4400 4387 4690 4632 4416 4593 4251 4410 4696 4552 4548 4544 4579 4333 4190 4633 4360 4129 4214 4275 3997 4673 4332 4144 4440 4539 4594 4443 4599 4367 4323 4304 3991 4268 4266 3964 4191 4341 4406 4438 4538 3777 4147 4206 3875 4468 4070 4496 3990 4371 4116 3977 3977 3789 3847 3756 4005 4200 3937 3996 4200 3712 3984 3807 3953 4408 4120 4346 4020 4200 3892 4280 3661 3929 4535 4219 3679 4508 4145 4002 3868 3905 3878 4076 3711 3662 3839 3322 3570 3815 3949 3568 3908 3979 3923 4056 4069 3656 3986 4068 3354 3519 3442 3343 3402 3493 3733 3501 3568 3299 3353 3633 3742 3342 3511 3514 3513 3149 3267 3299 3365 3421 3313 3334 3523 3421 3521 3505 3569 3387 3618 3226 3210 3222 2949 3209 3603 3544 3405 3387 3629 3525 3178 3311 3260 2875 3310 2911 3080 3179 2993 3081 3252 3040 3086 3328 3284 3004 3510 3506 3282 2848 3185 3396 3148 3220 2984 3081 3299 2990 2916 3285 3111 3401 2674 3330 3007 3005 3085 3236 3019 3022 2725 3145 3033 3346 2840 3316 3310 2870 2833 2983 2936 3015 3182 3032 2525 2742 2701 3092 3097 2938 2859 3013 2896 2868 2865 2832 2751 2685 2774 2587 2722 2947 2817 2748 2928 2942 2838 2863 2857 2671 2872 2812 2857 2606 2948 2684 2683 2689 2666 2875 2960 2670 2559 2774 2784 2406 2251 2508 2839 2652 2708 2185 2357 2589 2459 2546 2641 2691 2543 2372 2982 2337 2430 2636 2702 2418 2446 2182 2604 2509 2633 2193 2376 2348 2435 2282 2461 2674 2544 2331 2836 2534 2620 2284 2282 2179 2514 2177 2286 2427 2438 2208 2529 2254 1952 2540 2266 2185 2117 2609 2326 2358 2597 2363 2243 2204 2279 2686 2191 2284 2508 2263 2296 2007 2459 2156 2189 2584 2117 2224 2350 2025 2341 2432 2244 2048 2458 2033 2142 1930 2448 2045 2033 1794 2257 2021 2447 2190 1771 2177 2112 1953 2293 2018 2124 2369 2202 2367 2067 2278 2239 2120 2372 2220 1862 1825 1859 2191 2205 1946 2219 1752 2291 1994 2186 1706 1929 1957 2128 1783 1794 1844 1669 1973 1871 2253 2037 2188 1865 2047 1945 2043 2126 1946 1696 1922 1932 1948 1704 2061 1870 1950 1872 1963 1541 1949 2249 1784 1792 2034 1861 1517 1610 1679 1511 1537 2014 2028 1703 1837 1762 1875 1644 2137 1700 1882 1906 1928 1929 1872 1786 2020 1697 1816 1936 1958 1613 1631 1928 1370 1855 1872 1767 1593 1616 2124 2169 1586 1456 1705 1874 1532 1826 1623 1593 2042 1791 1540 1763 1713 2037 1771 1712 1784 1675 1684 1807 1697 1863 1698 1670 1582 1333 1625 1454 1672 1450 1686 1788 1538 1372 1451 1608 1796 1537 1621 1552 1445 1611 1368 1364 1546 1623 1277 1945 1453 1847 1567 1449 1471 1713 1377 1500 1370 1541 1762 1617 1242 1262 1687 1822 1928 1452 1456 1943 1485 1803 1621 1522 1808 1411 1714 1756 1663 1627 1626 1451 1430 1843 1874 1342 1578 1463 1773 1367 1456 1369 1702 1630 1547 1283 1363 1195 1453 1437 1359 1448 1501 1268 1601 1445 1369 1698 1264 1292 1621 1535 1460 1457 1280 1442 1290 1407 1373 1673 1202 1349 1271 1541 1344 1362 1538 1619 1281 1264 1353 1539 1538 1432 1109 1291 1349 1543 1124 1370 1449 1282 1453 1290 1274 1296 1023 1706 1284 1194 1617 1275 1277 1272 1119 1121 1003 1539 1284 1379 1311 1440 1460 1449 1288 1022 1452 1365 1459 1535 862 1183 1205 1591 1448 1335 1451 1288 1202 1092 1320 1187 1175 1195 1460 1374 1256 1548 1035 1121 1793 1027 1117 1364 1370 1215 1290 1446 1112 1125 1118 1380 1461 1270 1363 1295 1025 1359 1029 861 1286 1288 1194 1431 1290 1421 1092 1128 1458 1032 1194 1034 1274 861 1200 1081 1189 1108 1200 1032 1203 1287 1203 1121 1209 1025 947 1116 1192 1280 950 1037 1034 1374 1287 1131 1290 947 1231 948 1205 1456 1121 1109 863 696 1118 1126 1282 1027 1178 1025 953 1202 1023 1199 1206 1119 1120 865 1026 864 862 925 1031 1039 865 1111 1035 1120 952 1117 1112 1114 1025 1014 858 955 1101 926 953 1206 956 1035 696 864 1032 1027 1036 1034 1113 778 939 862 947 1033 1266 1033 1118 953 1207 866 1029 784 1203 790 870 1100 1030 1112 782 860 792 870 938 1011 867 698 782 943 864 695 858 787 792 857 867 868 924 621 790 700 1123 863 863 859 532 872 1038 787 867 859 952 864 866 701 949 783 1037 873 857 778 953 694 1031 705 1037 698 779 864 1115 699 786 786 620 941 785 953 697 866 871 857 948 784 784 705 778 776 862 789 700 955 865 695 707 696 611 699 784 777 792 871 706 765 869 778 786 788 791 706 696 698 777 791 872 862 704 946 785 1123 621 876 946 698 698 867 863 785 698 768 959 869 868 704 704 529 947 611 867 615 951 867 698 785 789 788 774 449 872 615 695 698 607 623 618 947 527 533 699 705 622 787 861 619 1033 539 709 699 695 869 779 699 609 534 623 618 871 704 622 869 619 698 619 701 609 527 695 951 788 614 620 854 530 451 537 615 619 863 700 1032 701 613 1026 534 774 529 784 621 614 792 615 613 776 697 613 533 698 616 696 536 611 451 694 703 698 610 700 533 531 612 700 536 619 613 792 534 451 781 623 531 874 452 790 506 452 616 514 369 621 512 604 618 708 527 595 516 536 619 597 535 534 591 453 620 533 613 535 624 538 539 532 700 616 532 701 537 452 618 617 535 537 538 513 531 367 533 537 444 615 451 447 536 452 617 533 450 616 609 623 528 367 534 362 620 449 368 367 457 618 622 528 451 369 452 374 449 452 537 450 538 449 534 453 451 364 453 449 368 449 368 448 535 539 368 540 455 532 526 621 458 453 364 453 347 449 453 447 450 347 369 539 281 447 456 281 365 282 535 449 370 453 365 370 283 450 282 282 374 454 283 281 346 283 283

Tree=0
num_leaves=61
num_cat=0
split_feature=84 76 84 33 106 145 103 150 84 117 92 106 92 106 42 57 106 92 90 110 133 141 150 117 42 57 150 133 90 121 137 117 92 84 36 76 110 102 84 47 84 42 139 117 96 110 42 119 45 45 33 42 33 45 102 45 32 137 117 90
split_gain=2845.02 1117.62 635.216 437.246 330.467 288.114 177.712 118.557 111.023 87.7809 81.4096 78.4468 75.8748 72.2657 65.8609 63.0463 62.5395 46.6754 43.157 41.483 41.3517 36.0187 35.8969 29.6177 29.2565 26.6181 26.5564 24.739 22.4601 20.4832 18.5946 17.7279 18.8904 17.4954 17.4431 14.7498 14.6025 14.5407 11.4208 10.9946 10.786 14.5335 10.5842 8.71011 8.58893 6.5049 6.29065 5.51882 5.28342 4.7151 3.63574 3.26763 2.36701 2.35067 2.00698 1.34089 0.728499 0.728002 0.470018 0.442496
threshold=3958.2350000000001 2.5000000000000004 15749.570000000002 4598.3070535203997 5.5000000000000009 325.60136986301376 1518619264.0000002 1022442.5000000001 47490.500000000007 1.8576759061833688 2.0330384107666064 1.0000000180025095e-35 3.5107189542483663 -25.499999999999996 54.539866920152114 19.067424242424245 1.0000000180025095e-35 8.1556209150326833 23.511090686274517 1.1913919413919416 0.054963936407235382 104.50000000000001 762123.50000000012 2.7356732348111663 203.7221407624634 22.007812500000004 4554199.9800000014 0.053592241092241096 2.4336666666666669 607.50000000000011 -0.30757047557159273 2.0670411985018737 5.2533660130718962 7092.2000000000007 101.32102412966563 9.5000000000000018 1.3307291666666667 1518197673.5000002 22002.800000000003 1496243154.5000002 9864.7700000000023 158.42296568627452 0.05886912904696763 5.003731343283583 5.5000000000000009 1.2474489795918371 50.838006535947734 75.750000000000014 157.00500000000002 40.922500000000007 21036.591776194 217.67990898058255 21509.977161077786 124.855 1507743516.5000002 20.377500000000001 -474.96999999999997 -0.55025790327297852 3.3638833992094868 44.11143790849674
decision_type=2 10 2 10 10 10 2 2 2 2 10 10 10 10 2 2 10 10 2 10 2 2 2 2 2 2 2 2 2 10 10 2 10 2 2 10 10 2 2 2 2 2 8 2 10 10 2 2 2 2 10 2 10 2 2 2 2 10 2 2
left_child=1 4 3 6 13 12 17 24 16 21 45 18 36 15 34 23 26 53 50 46 59 -6 51 -1 57 37 39 -21 -11 35 -29 32 -15 -22 47 -19 55 -12 -26 -9 41 -13 -33 -17 -27 -7 -14 -8 56 -28 -5 -20 -24 -2 -31 -3 -18 -4 -30 -16
right_child=2 5 7 11 9 10 14 8 -10 28 25 40 19 31 20 43 48 29 22 27 33 -23 52 -25 38 44 49 30 58 54 -32 42 -34 -35 -36 -37 -38 -39 -40 -41 -42 -43 -44 -45 -46 -47 -48 -49 -50 -51 -52 -53 -54 -55 -56 -57 -58 -59 -60 -61
leaf_value=-0.38679176805296095 -0.3918922010915184 -0.39064398611371071 -0.39464296282948608 -0.38917980914247607 -0.38784120416099227 -0.39159039760195719 -0.39312796196096328 -0.39312516007006576 -0.39457418590108562 -0.38947567211534406 -0.39383965093356166 -0.39156902924073694 -0.39252532260311263 -0.38730582557318227 -0.38966230239425415 -0.38833420435973126 -0.3916140356514069 -0.39356469117309834 -0.39181106796766485 -0.38919268541484986 -0.39071832619850755 -0.3900751983376457 -0.39012182140821167 -0.38767058452562064 -0.39198627632026389 -0.39006491199278542 -0.39212589303605733 -0.39002478889253128 -0.39057090248519277 -0.39320901516836021 -0.39146393338834606 -0.38814056362145161 -0.3884472990291758 -0.39190474272176434 -0.39035217524224208 -0.39563184555428382 -0.38862758722862317 -0.3922331119580052 -0.39422163521278986 -0.39150768088959453 -0.39195109385833959 -0.38975411185778958 -0.38903518653936819 -0.39040601165126687 -0.39201718790488971 -0.38989682863770248 -0.39079921368240295 -0.39156902924073694 -0.39161590856180067 -0.39028058976086299 -0.38807004427227682 -0.39033929852764188 -0.38896852639660784 -0.38953938491492301 -0.39166164565113598 -0.38921811081399749 -0.39424992868500669 -0.39626947942868745 -0.39160643276889584 -0.39156902924073694
leaf_count=16117 1656 1324 1696 3442 3726 616 2449 1321 2452 3183 1924 1291 1010 7337 3512 3472 252 2484 1225 4359 4350 1462 2105 10673 782 694 436 6554 3399 1426 1923 8910 4685 3348 523 976 7196 2318 1376 1715 1371 1753 5474 686 1458 2212 1139 881 432 2340 3001 1044 3091 245 969 1580 1572 1238 1091 258
internal_value=0 0.280905 0.0025503 0.068037 0.353582 0.13183 -0.0241928 -0.170433 -0.105782 0.204756 -0.020914 0.184682 0.188357 0.386752 0.0394503 0.423276 -0.0451549 -0.151066 0.224028 0.138846 0.0806011 0.312026 0.163384 0.443206 -0.301718 -0.0879344 0.0123487 0.162782 0.13071 -0.199638 0.122959 0.343461 0.382885 0.0322354 -0.0804364 -0.261493 0.260683 -0.141849 -0.189189 -0.0612981 0.0583657 0.105015 0.309637 0.29192 0.0140009 0.127022 -0 -0.1153 -0.197074 0.0963093 0.292493 0.0394682 0.21549 -0 -0.105664 0.17385 -0.237135 -0.380436 0.0725405 0.176514
internal_count=161534 104522 57012 41400 70215 34307 23077 15612 10520 12861 9222 18323 25085 57354 15321 30948 8068 7756 13908 14985 11468 5188 7465 26790 5092 6394 5812 12836 7673 5855 8477 26406 12022 7698 3853 3460 10100 4242 2158 3036 4415 3044 14384 4158 2152 2828 2149 3330 2256 2776 6443 2269 5196 1901 2395 2904 1824 2934 4490 3770
shrinkage=1


Tree=1
num_leaves=63
num_cat=0
split_feature=136 135 114 51 76 131 84 131 136 136 84 98 92 57 21 5 21 121 21 47 135 121 131 135 36 89 89 48 12 103 136 48 47 77 76 50 101 77 90 77 131 12 85 55 103 57 50 103 48 136 77 77 130 27 130 135 131 136 54 116 101 124
split_gain=3583.52 986.062 549.07 502.74 303.033 260.553 191.049 179.076 136.933 104.643 77.9133 61.7807 55.5807 46.4634 45.0767 44.8881 42.2221 41.0478 40.0438 37.5608 33.8514 33.6625 38.2726 24.9355 22.4777 18.9942 17.8342 16.875 14.8496 13.8282 13.7405 15.2688 13.3946 11.477 8.68184 8.52234 8.31441 8.14647 8.09991 7.64983 7.57068 9.66311 6.91937 6.3338 6.31979 7.48048 5.91977 5.63925 5.5994 5.46984 3.90338 3.79946 3.07179 3.64987 2.99824 2.39282 2.02204 1.8279 3.10991 1.73178 1.35145 0.699106
threshold=0.073220589464400923 1.1031522322572236 18.500000000000004 124.02063829787235 1.5000000000000002 82.658425381903655 12933.575000000003 12.629548872180452 0.21053793822682768 0.17228202462490727 5580.5500000000011 231.89416666666673 2.7634057971014498 18.22586618876942 9.5000000000000018 26.500000000000004 15.500000000000002 472.50000000000006 18.500000000000004 1508513205.5000002 1.7007481132659779 478.50000000000006 56.301996536368151 0.12418151849928456 67.500000000000014 82407.364028894342 40248.687087117432 10181879.500000002 21.500000000000004 1516798541.5000002 0.033248609302876715 27550158.000000004 1486125625.0000002 0.69883720930232573 3.5000000000000004 130.50000000000003 324880.29920000007 0.62284482758620696 11.73150793650794 0.85839598997493749 25.037314095449506 6.5000000000000009 1039.3800000000003 2.8349575489110372 1519973737.5000002 22.29660746230514 197.50000000000003 1522254083.0000002 12441906.500000002 0.65925131440018736 0.14495798319327732 0.62731481481481499 1.1035815120778001 83.77500000000002 0.14589414790102867 0.24548917329243328 60.385673076923091 0.38946993057793561 -2.1325915908532087 1.5110621634850709 187545.90737462125 714.50000000000011
decision_type=2 2 10 2 10 10 2 10 2 2 2 2 10 2 2 2 2 10 2 2 2 10 10 2 2 8 8 2 2 2 2 2 2 10 10 2 8 10 2 10 10 2 10 2 2 2 2 2 2 2 10 10 10 2 10 2 10 2 2 2 10 2
left_child=2 3 4 8 10 14 21 18 15 17 13 19 47 23 40 35 34 32 52 28 43 38 48 -1 -15 -17 -19 -11 -10 56 -14 -32 -7 -24 -9 60 37 -22 -3 -29 -5 -42 -31 -8 45 -16 -27 -6 -23 -21 -46 -40 53 -4 -20 -12 -18 58 -13 -26 -2 -25
right_child=1 6 7 5 12 9 20 16 11 27 55 57 30 24 44 25 29 26 54 49 36 22 33 61 59 46 -28 39 -30 42 31 -33 -34 -35 -36 -37 -38 -39 51 -41 41 -43 -44 -45 50 -47 -48 -49 -50 -51 -52 -53 -54 -55 -56 -57 -58 -59 -60 -61 -62 -63
leaf_value=0.0044583299240773429 0.0040131799142555189 0.00070274300353493496 0.0025636982354164447 0.0029375942674759897 0.0029254028092389763 -0.00017462411372095476 -0.001183174398531097 0.002269563076304589 0.00074234585228926439 -0.00078709580874979632 0.0031891102730363346 -0.0016512976727786316 0.0025610371379718873 0.0035748775672959938 -0.00060854871165484594 0.0023588680303266263 0.00020006953444463458 -8.3787036061619798e-05 0.0017701622775244267 0.0019310868972378121 -0.0038265347670583157 0.00091456450779661572 -0.0028598768771281769 0.004082592572542296 0.0023053295087839248 0.0016965890382801966 -0.001450256388867703 -0.0025227083616373744 -0.0011621950351030251 0.0017663270466204413 0.0023413355819831626 0.0011176224183037273 0.0011944458916129351 -0.00037565637229145616 4.3347433039191796e-05 0.0024549787685423517 -0.0046437218175767649 -0.0015766681582061715 -0.0011257422675352595 -0.0005845044785656615 0.0022853636946197882 0 -0 -0.0029650912932883706 0.00060566816546082708 0.00097317738234946067 0.00050696832313362273 0.0041162694265523452 -0.0011260852728921659 -0 0.0024284046760018182 0.00027503518647930452 0.00030189000010507971 0.0040114277108154505 -0 0.0020474060992025905 -0.0007773027179175814 -0.0021206805385935389 0.00040034250428454282 9.071194829894476e-05 -0 0.0032605026116251231
leaf_count=27639 2316 1196 1662 1813 7449 2337 1194 1771 2308 1825 3035 472 6219 5495 1671 7019 2002 2812 1912 4433 1392 632 2464 5971 1113 4479 3547 4530 936 1101 3351 4388 2396 512 587 2463 2401 740 2255 675 942 714 957 1423 1720 1162 1839 2002 819 425 661 855 204 2535 398 2518 2781 654 726 418 65 5203
internal_value=0 0.0129591 0.313685 0.076849 0.349976 -0.0217884 -0.207356 0.142359 0.171146 -0.0916033 0.393994 0.0720203 0.252821 0.408843 0.122756 0.224828 0.0479284 -0.027268 0.270141 0.113129 -0.332187 -0.103828 -0.1738 0.424654 0.319727 0.189725 -0.0862071 -0.191587 0.0161536 0.00227124 0.207071 0.16619 0.0498921 -0.246711 0.175832 0.318997 -0.394586 -0.309989 -0.0294543 -0.229123 0.221057 0.134591 0.0929928 -0.21952 0.0552561 0.000712905 0.136672 0.319126 -0.0170844 0.175761 0.11588 -0.0709921 0.334333 0.346728 0.142919 0.26926 -0.0348385 -0.102325 -0.0333583 0.176724 0.38987 0.371113
internal_count=161534 70823 90711 54940 74801 26805 15883 15910 28135 18122 51392 9954 23409 45839 8683 18181 9199 11092 6711 8102 7150 8733 4427 38813 7026 13337 6359 7030 3244 6841 13958 7739 4733 2976 2358 4844 4533 2132 4306 5205 3469 1656 2058 2617 5214 2833 6318 9451 1451 4858 2381 3110 4401 4197 2310 5553 4783 1852 1198 1531 2381 11174
shrinkage=0.01


Tree=2
num_leaves=63
num_cat=0
split_feature=136 134 106 131 99 141 51 131 87 117 51 131 131 134 135 136 131 77 136 51 87 117 48 136 136 102 76 136 57 106 76 48 107 136 77 105 117 99 131 136 76 136 47 110 107 102 57 134 57 134 117 107 99 107 88 116 131 136 21 110 107 48
split_gain=3554.42 839.727 747.011 428.282 273.008 261.093 255.54 137.404 131.391 99.1845 98.1655 87.5644 82.6084 74.1548 62.3739 51.2341 48.7847 48.504 38.9291 37.4271 37.1763 36.0432 35.6794 32.2452 29.6927 26.8978 22.4388 20.3205 27.4209 30.6933 20.3053 19.9831 18.4837 17.9522 16.1179 15.9054 13.0005 12.1348 11.6194 11.3758 8.02272 7.55576 6.75969 6.40081 5.76749 4.83631 4.30939 4.30237 5.55711 4.21267 3.86028 3.33849 2.61672 2.35808 2.18686 1.74262 1.60316 1.51899 1.34976 1.02455 0.989107 0.780881
threshold=0.10536306547734349 1.3934403632741355 10.500000000000002 25.827293800539092 729.03000000000009 80.500000000000014 105.83666666666667 133.01817204301079 595.77500000000009 2.1945673549655855 117.82480818414324 199.79775862068971 63.136786437246975 3.6124325598823179 0.21379570836620196 0.054293810931675394 57.622291021671835 0.62731481481481499 0.37808359170210165 119.859126984127 397.97000000000008 1.9093326885880078 17959843.000000004 0.47458238685748144 0.31416226298102007 1524264989.5000002 1.5000000000000002 0.038500232217774662 18.22586618876942 -30.499999999999996 3.5000000000000004 25133273.500000004 -35.74537037037036 0.41338363101359937 0.81530214424951275 20.500000000000004 2.6383797054009821 709.25000000000011 161.2870349772179 0.19631008060801516 2.5000000000000004 0.18071561662484106 1510877003.5000002 1.5508620689655175 -29.326666666666661 1522664634.5000002 21.53804797353185 1.2518869752530077 19.340463662014795 0.75928838054707881 5.003731343283583 -23.244047619047617 636.17500000000007 -35.74537037037036 389.54000000000002 1.1732063519992963 72.417146356399272 0.072258275580030257 23.500000000000004 1.5794736842105268 -35.984374999999993 10079787.500000002
decision_type=2 2 10 10 2 2 2 10 10 2 2 10 10 2 2 2 10 10 2 2 10 2 2 2 2 2 10 2 2 10 10 2 10 2 10 10 2 2 10 2 10 2 2 10 10 2 2 2 2 2 2 10 2 10 10 2 10 2 2 10 10 2
left_child=2 6 3 9 10 21 11 30 14 26 23 40 61 19 60 32 36 39 34 24 35 57 -17 38 -6 54 47 28 29 -11 49 -16 -10 -15 42 -18 46 -33 -3 -9 -2 -21 -13 -22 -24 -19 -7 48 -1 -8 -30 -36 -20 -41 -14 -37 -51 -4 -23 -32 -5 -12
right_child=1 4 5 8 13 16 7 17 15 27 12 18 25 33 31 22 20 45 52 41 43 58 44 -25 -26 -27 -28 -29 50 -31 59 37 -34 -35 51 55 -38 -39 -40 53 -42 -43 -44 -45 -46 -47 -48 -49 -50 56 -52 -53 -54 -55 -56 -57 -58 -59 -60 -61 -62 -63
leaf_value=0.0050221462512341879 0.0033915867308328702 0.0013167503899033878 0.004099445013956887 0.0041629531775843756 -0 0.00098907008709339769 0.0027582849192215892 -0.00082239162513004279 0.0031548273545347204 0.0042292230840463756 0.0012444429509390331 0.00062337885966702459 -0.001817932645127606 -0.0031369911567902587 0.0030604042040507911 0.0022540475919908039 0.0014203256465577497 -0.00040730584466764128 0.00038565589832689491 -0.0018745754640658039 -0.0015499616043182394 0.0020439380502498277 0.0010808447577124413 -0.0011083590983903605 -0.0023241650324912818 -0.00072564883029283922 0.0036072270387280344 0.0022996207647966831 0.0030524358241324086 0.0032215678436651575 -0.00027166294641387629 0.0021773456774190876 0.0019966888715278975 -0.0052183843623490331 0.0026659292646112232 0.00054798050016733495 0.00034084442122279962 0.00047245273472900354 -0 -3.9422020187646744e-05 0.002066727270632117 -0.003732779989427525 0.0019560482882524607 -0.00010269764048522647 -0 0.00083103460451325773 0.0024214547370477865 0.0031878923955871753 0.0035765185273271237 0.0017224662002347842 0.0014723825840650909 0.00079262469543815912 -0.0011849624930423061 -0.0024077015633528704 -0.0031244434487907148 -0.0010722307826559229 0 0.0021194701947030137 -0 0.0011481226392469207 0.0033288588934079263 -0.00032322692124072755
leaf_count=12895 3208 2543 2576 4018 1383 2208 1229 2689 3575 12172 509 3372 1635 1666 4003 2658 1717 2392 1606 1070 2422 2405 2906 1758 1629 1442 3793 2292 3148 8021 1269 3846 8091 1777 2399 756 3082 1139 2282 331 2370 1986 1521 1359 2197 1556 1356 923 1415 1387 1026 644 712 2412 2814 914 592 616 205 846 8286 2485
internal_value=0 -0.0240504 0.288555 0.328868 -0.160933 0.110428 0.0876227 -0.00849326 0.252688 0.396499 -0.0765795 0.177453 -0.148576 -0.296919 0.309707 0.189592 0.0334145 -0.0844662 0.117832 -0.222224 -0.028244 0.291817 0.118133 0.0191907 -0.127278 -0.221232 0.456351 0.353292 0.364414 0.383523 0.123493 0.237916 0.236186 -0.424916 0.15512 0.0553817 0.101322 0.180859 0.0686752 -0.151688 0.284987 -0.312052 0.105997 -0.105665 0.0600929 0.00570262 0.156545 0.47932 0.48881 0.184996 0.269084 0.230438 -0.00576998 -0.215804 -0.267025 -0.0282062 0.12281 0.375401 0.18504 0.0252962 0.36117 -0.00218161
internal_count=161534 55514 106020 86404 24979 19616 30535 14703 40719 45685 15468 15832 8885 9511 21292 19427 13814 9380 10254 6068 7168 5802 7761 6583 3012 5891 19026 26659 24367 20193 5323 8988 11666 3443 7936 3387 6646 4985 4825 5432 5578 3056 4893 3781 5103 3948 3564 15233 14310 3208 4174 3043 2318 2743 4449 1670 1979 3192 2610 2115 12304 2994
shrinkage=0.01


Tree=3
num_leaves=60
num_cat=0
split_feature=136 134 113 99 51 131 131 21 136 88 131 131 107 136 57 136 134 51 92 131 105 99 77 118 51 107 48 12 107 136 118 134 131 15 136 12 77 107 131 136 56 12 118 50 107 92 118 18 50 99 77 118 139 134 118 107 135 94 110
split_gain=3526.72 1009.3 503.59 316.424 293.13 247.422 184.938 173.837 128.011 124.611 120.346 111.528 129.017 64.4533 57.6968 56.3095 52.1126 51.0932 40.9713 35.8731 33.7065 33.5419 32.6168 32.2774 31.4388 29.5499 28.2093 26.7777 24.0265 21.4491 20.3028 19.6879 18.6168 18.1291 17.7984 17.438 17.3641 16.5938 14.3516 12.984 13.3273 9.15114 9.03155 8.31157 8.06131 7.51723 4.59457 3.76107 3.74451 2.88114 6.15667 2.8454 2.47983 1.74445 2.39088 1.52517 1.27926 1.08665 0.81195
threshold=0.069524879872947462 1.3934403632741355 18.014285714285716 729.03000000000009 124.02063829787235 11.759128745837961 82.658425381903655 16.500000000000004 0.18071561662484106 506.83333333333343 209.09615649867382 58.980653594771248 -19.596296296296291 0.17228202462490727 18.210655314757485 0.37808359170210165 3.6124325598823179 134.46589147286826 2.1357720588235303 7.5148529411764713 -40.499999999999993 327.39500000000004 0.82683658170914553 3.0919661733615231 112.704288251271 -36.097619047619041 27148671.000000004 8.5000000000000018 33.031250000000007 0.28748137159328085 6.9263775971093047 3.0043361373383983 20.228991596638657 0.27622890682318418 0.16678023511100074 7.5000000000000009 0.85565476190476197 -33.431677018633529 579.33010396518409 0.034383548609055105 9.5000000000000018 23.500000000000004 3.2469512195121957 346.50000000000006 -27.747340425531913 91.520019375339075 2.6023255813953496 4.5000000000000009 383.50000000000006 636.17500000000007 0.30151515151515157 2.101724137931035 0.0048134847080630221 2.1601853497592454 8.3366666666666678 -27.747340425531913 0.24875929757154822 2.5590277777777781 1.5961179544606199
decision_type=2 2 10 2 2 10 10 2 2 10 10 10 10 2 2 2 2 2 10 10 10 2 10 2 2 10 2 2 10 2 2 2 10 2 2 2 10 10 10 2 2 2 2 2 10 10 2 2 2 2 10 2 10 2 2 10 2 10 10
left_child=2 4 5 11 10 14 27 19 17 21 35 31 26 20 23 22 24 -5 53 -4 48 46 45 -1 -10 -11 29 51 52 -13 -16 43 -29 47 -28 57 38 -25 -15 -27 -41 -22 -21 -3 -37 -12 -7 -14 -8 50 -17 -6 -20 54 -9 -24 -23 -2 -34
right_child=1 3 7 8 6 9 13 18 16 25 15 12 33 36 30 49 -18 -19 28 42 41 56 55 37 -26 39 34 32 -30 -31 -32 -33 58 -35 -36 44 -38 -39 -40 40 -42 -43 -44 -45 -46 -47 -48 -49 -50 -51 -52 -53 -54 -55 -56 -57 -58 -59 -60
leaf_value=0.004895001333722007 0.0033883172115796796 0.0017300018131949299 0.0036826266720842811 0.0010241076060141224 0.0032227652822276942 0.0045762733789942948 0.0014906310770490744 0.0017854619786845433 -0.0016283940351075343 0.0030082147026604961 0.0012081945644872162 0.00098805069357808329 -0.0017697618585791688 -0.0010520425956815002 0.0034509683217413185 -0.00070736999442740566 -0.0046077986039955478 -0.0018603573785696127 -3.0206256976934403e-06 0.0025465410394485701 0 0.0031008834333718528 0.0028527061235167641 0.0043103697596271603 -0.0036735877930861157 0.0023343284521548107 -0.00026617481234953436 0.0022500096652494105 -0.00078518909734216205 -0.00051500961947461568 0.001432421416531222 -0.00031446170559407366 -0.00030828847314399917 -0.0012648468508537211 -0.0025830211740087657 0.002750892825859949 0 0.0033926979879968827 -0.0027201277751876651 0.0021283470828936989 0.000769227046181785 -0.0013106216885720719 0.00083400173315086523 0.00029921355578025618 0.0013271597190417676 -0.00084272419680671436 0.0035753328414220571 -0.0034252800342681796 0.00024116354512666299 -0.0012483501257951053 0.0011920282820063516 0.0016232515766930603 0.0014130885976554903 -0.00059137111208590635 0 0.0015734373361486111 0.0019759976766179324 0.0009042213321920848 0.0010832708026162429
leaf_count=10245 5346 2469 3106 1046 1586 2855 2007 3130 2357 5170 6710 2994 1100 2493 5929 787 2902 2183 858 1856 2624 3107 2640 12615 2121 6523 1409 1093 3011 2474 1065 1813 1284 2037 918 2365 1021 6318 1652 2535 3140 1831 1317 1672 2045 377 11342 2069 1914 785 917 1263 1386 195 443 1607 2297 302 878
internal_value=0 0.0173414 0.314758 -0.12576 0.114765 0.349707 0.022209 0.146981 -0.266299 0.29 0.190468 -0.046509 -0.100944 -0.0440775 0.410381 0.126081 -0.342121 -0.0895866 0.0541651 0.278574 0.0130489 0.34774 0.158568 0.432591 -0.262363 0.224146 -0.0151023 0.170712 -0.00765877 0.0290581 0.315946 0.0707063 0.0931429 -0.227393 -0.122747 0.27782 -0.138443 0.401086 -0.174423 0.190674 0.139556 -0.0531792 0.187013 0.117735 0.211628 0.108461 0.378597 -0.288715 0.0907112 -0.0180144 0.0259126 0.255426 0.0830673 0.142776 0.156607 0.239536 0.264435 0.32741 0.0214244
internal_count=161534 73091 88443 29564 43527 73141 19646 15302 10609 36969 23881 18955 13001 13542 36172 13823 7380 3229 9023 6279 8376 19601 11334 29178 4478 17368 7795 6104 5255 5468 6994 5954 3255 5206 2327 10058 5166 18933 4145 12198 5675 4455 3173 4141 4410 7087 14197 3169 3921 2489 1704 2849 2244 3768 3573 4247 5404 5648 2162
shrinkage=0.01


Tree=4
num_leaves=62
num_cat=0
split_feature=136 134 106 84 51 76 141 95 136 117 136 76 102 136 51 134 51 84 117 84 136 84 76 136 117 76 102 51 107 84 84 46 77 117 76 117 141 18 136 84 107 136 143 134 84 50 106 18 122 143 51 113 84 82 106 134 137 123 143 136 113
split_gain=3497.2 998.868 550.03 331.635 289.368 281.594 207.478 143.209 126.295 115.705 99.4174 98.0842 59.0687 54.3995 52.5503 48.8033 48.2235 43.5967 43.0936 41.7207 37.7011 37.0321 39.333 36.0472 35.5157 31.4437 29.647 25.428 24.6152 21.8259 20.9626 19.8439 19.3786 16.9749 15.4856 15.1514 13.6982 9.39511 9.33225 9.32311 7.69424 7.55812 6.4692 6.02907 5.78288 5.63259 5.50751 4.75909 4.41865 3.95276 3.44283 3.17825 2.88738 2.08276 1.79584 1.70767 1.18297 0.817934 0.61032 0.376481 0.0678501
threshold=0.069524879872947462 1.3934403632741355 10.500000000000002 12933.575000000003 124.02063829787235 1.5000000000000002 80.500000000000014 4.5000000000000009 0.18071561662484106 2.1005617977528095 0.21053793822682768 5.5000000000000009 1523503393.5000002 0.17519299759070842 138.70521390374338 3.6124325598823179 120.92744360902257 1003.0700000000001 1.5021367521367524 7770.4200000000001 0.042929166788748065 6650.2000000000007 8.5000000000000018 0.23023476497331843 1.9584770114942531 4.5000000000000009 1523707160.0000002 112.704288251271 -36.097619047619041 6120.2700000000004 10200.030000000001 1506810815.5000002 0.85053191489361712 4.7511061946902666 13.500000000000002 3.0546164772727278 21.500000000000004 4.5000000000000009 0.10817478392937176 4505.2550000000001 -31.14039408866995 0.031055190959914953 1982317.7111000004 1.2108443085412708 4760.1550000000016 125.50000000000001 -27.499999999999996 5.5000000000000009 2481.0000000000005 380964.61100000009 79.673163418290855 21.430952380952384 6458.1300000000001 18.462476547842407 4.5000000000000009 2.1998603654510132 -0.80946778711484579 2053.0000000000005 755471.32380000025 0.38946993057793561 18.131884057971018
decision_type=2 2 10 2 2 10 2 10 2 2 2 10 2 2 2 2 2 2 2 2 2 2 10 2 2 10 2 2 10 2 2 2 10 2 10 2 2 2 2 2 10 2 2 2 2 2 10 2 2 2 2 10 2 10 10 2 10 2 2 2 10
left_child=2 4 5 11 10 9 24 19 16 30 18 14 51 26 23 27 -5 40 45 36 33 22 -12 60 -4 35 31 -10 55 37 -1 -9 49 46 44 47 -6 -16 -31 -25 -7 -30 -27 -38 -15 -2 -11 -8 -22 -20 -24 -13 -49 -14 -34 -19 59 -28 -37 -23 -3
right_child=1 3 6 8 7 17 25 13 15 20 21 12 53 34 29 -17 -18 28 32 -21 48 56 50 39 -26 42 57 -29 41 38 -32 -33 54 -35 -36 58 43 -39 -40 -41 -42 -43 -44 -45 -46 -47 -48 52 -50 -51 -52 -53 -54 -55 -56 -57 -58 -59 -60 -61 -62
leaf_value=0.0046780505901044475 0.0042338786656702229 0.0017343012780859676 0.0040653187062961119 0.0013287190639789132 0.0033300369279569493 0.0037649811204700863 0.0023320779906067326 0.0004867543890282579 -0.0016646768357627397 0.0041385363505651914 0.002153770653901019 -0.0033676996108089182 -0.00090401970975038893 -0.00019785293465905636 0.0014015309776714854 -0.0045390273410968792 -0.001692231511537319 0.003045882194322537 0.0025674929134584298 -0.00034554769475887725 0.003110583121297061 0.001011020535815895 0.00056988360836817905 0.00090624319298664342 0.0019634851663627522 0.00034235920835334806 0.0013814973160406303 -0.0035338010487535325 0.0022991645029790233 0 0.0023681317287853258 -0.0010951348677417324 0.0030182377713981168 0.0029995487579480146 -0.0028357605191574337 0.00079367198142554524 0.0017476313661979981 -0.0003704491648005942 -0.0019696799551757725 -0.00075058609471480883 0.0026858030599068079 0.0013745039982931116 -0.0012425231501303239 0 -0.0015403210934095165 0.0027258221709303004 0.0034652366297970045 0.0012120374983437842 0.0017384748386423438 0.0014019815387873657 -0.0015341883116839691 -0.0015710108273430895 -0.00015411734614042508 0.00045151296599047315 0.00067892375594431442 0 -0.00086831837286239339 3.0645741504217899e-05 -0.00050957931908043332 -0.00035828717124998749 -0
leaf_count=18064 1762 3145 2589 817 979 3871 1162 1916 2309 12557 3679 1683 2301 1835 735 2977 2442 4066 1570 1246 2002 1190 1182 1092 2158 1011 2192 2356 4400 639 802 2858 3192 6028 954 1076 3924 3379 1910 1837 4594 5597 1480 714 2030 2340 9151 3471 2107 6337 391 893 694 788 351 180 1032 998 1383 855 261
internal_value=0 0.0172035 0.313377 -0.125163 0.114128 0.349454 0.136338 0.0221448 -0.265881 0.391999 0.18936 -0.0423704 -0.157516 -0.041941 0.00713891 -0.33928 -0.0903869 0.253909 0.239267 0.142825 0.352127 0.094869 0.152222 0.0787892 0.313522 0.0533698 0.012103 -0.263392 0.21415 -0.0595479 0.458606 -0.0440293 0.201961 0.367788 -0.133127 0.0896745 0.183885 -0.00282409 -0.147012 -0.00991488 0.31939 0.17927 -0.0561583 0.149792 -0.0929698 0.340433 0.386058 0.128164 0.243538 0.164806 0 -0.278928 0.0961374 -0.0526722 0.281583 0.293494 -3.57906e-05 0.0990284 0.00222461 0.0392287 0.157742
internal_count=161534 73091 88443 29564 43527 73419 15024 19646 10901 50711 23881 18663 5665 12783 12998 7642 3259 22708 15552 6863 31845 8329 5252 6335 4747 10277 7964 4665 14243 6663 18866 4774 11450 27736 4819 7786 5617 4114 2549 2929 8465 9997 2491 4638 3865 4102 21708 5327 4109 7907 1573 2576 4165 3089 3543 4246 3077 3190 2459 2045 3406
shrinkage=0.01


Tree=5
num_leaves=63
num_cat=0
split_feature=136 106 99 51 92 5 136 51 87 12 136 92 12 92 136 90 136 92 106 57 137 51 47 12 136 87 99 136 110 92 136 136 137 136 154 110 90 105 137 88 57 92 124 116 137 99 137 133 92 121 115 137 116 115 92 136 155 110 136 121 121 92
split_gain=3469.14 724.832 692.005 391.226 386.315 204.94 167.066 153.188 148.163 112.718 110.98 63.6578 60.054 53.7799 49.4566 48.8189 47.4126 42.2581 39.2497 56.6653 37.934 32.9329 25.8596 22.387 19.0106 18.775 18.4738 15.7803 13.6073 13.3682 13.3368 13.0606 12.5035 17.3126 11.6246 10.9534 9.88654 9.80605 9.59922 9.48599 8.1815 8.04614 7.36674 7.3338 5.66413 5.35546 4.84649 4.72689 4.69553 4.55946 4.17316 3.91881 3.69913 3.61936 3.28169 2.99856 2.6737 2.08923 1.51419 1.48025 1.3919 0.927774
threshold=0.10536306547734349 10.500000000000002 650.06500000000017 117.82480818414324 2.5002173913043486 54.500000000000007 0.4009501181702364 120.92744360902257 595.77500000000009 18.500000000000004 0.30062050175505756 6.0909284016636969 24.500000000000004 0.88235294117647101 0.048229903883976952 19.444722222222225 0.21053793822682768 2.0833333333333339 -21.499999999999996 19.067424242424245 -0.42343193855481182 56.253205128205131 1508513205.5000002 13.500000000000002 0.17228202462490727 450.01000000000005 266.50500000000005 0.17228202462490727 1.3732142857142859 4.4108146591970128 0.21053793822682768 0.53839762027689708 -0.28818088897091176 0.059189996537303488 100.50000000000001 1.3307291666666667 44.11143790849674 -33.499999999999993 -0.69228613314936172 109.90500000000002 21.53804797353185 10.868297213622293 926.50000000000011 1.2424696062420615 -1.5311066513761464 214.94500000000002 -0.55025790327297852 0.24531231688737842 20.500500000000002 461.50000000000006 4.5000000000000009 -0.24539265333598512 2.002109704641351 4.5000000000000009 8.4600475341651826 0.17228202462490727 0.11255393024545546 1.3854895104895106 0.020091512739665123 481.50000000000006 546.50000000000011 1.8772263993316627
decision_type=2 10 2 2 10 2 2 2 10 2 2 10 2 10 2 2 2 10 10 2 10 2 2 2 2 10 2 2 10 10 2 2 10 2 10 10 2 10 10 10 2 10 2 2 10 2 10 2 10 10 2 10 2 2 10 2 10 10 2 10 10 10
left_child=1 4 3 10 18 13 7 30 15 11 12 31 22 52 59 43 35 57 19 36 -16 -8 55 26 50 34 -12 56 -14 -18 -4 53 -17 -34 -19 -11 -1 54 -32 -20 60 -24 -26 -6 -28 -30 -29 -23 -15 -31 -13 -22 -3 -5 -25 -2 -9 -7 -41 -10 -27 -37
right_child=2 5 6 9 8 17 21 27 14 16 23 24 28 48 20 32 29 25 39 -21 51 47 41 37 42 40 44 46 45 49 38 -33 33 -35 -36 61 -38 -39 -40 58 -42 -43 -44 -45 -46 -47 -48 -49 -50 -51 -52 -53 -54 -55 -56 -57 -58 -59 -60 -61 -62 -63
leaf_value=0.004338935559857207 0.0022946659000535738 0.0032891972050853335 0.000805139576596764 0.0016547209781532736 0.0037957532278200547 0.00058036762484562135 -0.0018043497072577053 -0.0020034262236242094 0.0025444945773907025 -0.0017549070036833639 0.001714798011258005 0.0008568983333698604 -0 0.0015577726143078028 0.0021280003441954218 0.0027865117952970832 -0.00074449576521609163 0.0011675580690075074 0.0039497502047401789 0.0028651783485050398 0.00098005824692419031 -0.0048895868497045537 0.0037177048319769076 0.0007764309650409387 -0.00064705171484528122 -0.00071644651290163873 0.0014659548899597905 -0.001450134532135119 0.0019272760728841595 -0.00070142669054527721 2.6704517211785011e-05 -0.00051906918646606854 0.0023187025468161303 0.00015711593814337967 -0.00037265723220912859 0.001304611185025176 0.00042228064606987428 -0.0027041319343491625 -0.0017118084440160524 0.0034788470620185593 0 0.0022389619359406022 -0.0022498526083731159 0.0029622482625715277 -0.00049802956209940639 0.00023084777745301994 -0.0035141930460496282 -0.0033370147029197625 -0.00057129600437290373 -0.0031285940483255776 -0.00059396826324365566 -2.4718435101673047e-05 -0 -0 -0.0008109105493065451 0.0011239848741772449 -7.3553363997246886e-05 0.0018534790686340389 0.0026372801386692389 0.0015491210806232022 -0.002196990835672305 -0.0004783455567403316
leaf_count=26644 2724 4049 2225 3303 8831 1962 1259 1726 8176 1403 1936 1583 1642 4015 3405 3704 824 1733 5200 4158 3206 1862 2637 810 2908 1587 539 629 2017 395 1625 643 1543 1093 1744 349 186 369 953 5063 1519 1957 1008 5996 1493 903 2395 2088 274 2508 1067 2044 102 556 1318 2154 549 1584 5104 2051 1047 3157
internal_value=0 0.284822 -0.0240188 0.0451773 0.324542 0.109312 -0.206269 -0.127417 0.250907 -0.0563332 0.143206 0.0125337 0.195405 0.22973 0.18301 0.310923 -0.14564 0.0174066 0.387895 0.412485 0.119618 -0.356892 0.244977 0.0282947 -0.0539256 -0.02812 0.0852203 -0.248247 0.0901088 -0.240096 0.0040783 0.111527 0.225378 0.146227 0.0368215 -0.0716788 0.431552 -0.0582892 -0.0581986 0.337485 -0.0847798 0.311393 -0.108813 0.346704 0 0.143781 -0.312187 -0.410198 0.139842 -0.283448 0.0236312 0.057105 0.31982 0.141313 -0.0160775 0.180028 -0.158201 0.117926 0.306835 0.235573 -0.134657 -0.0270701
internal_count=161534 106020 55514 40203 86404 19616 15311 10102 40049 19704 20499 11068 14034 8440 18882 21167 8636 11176 46355 30988 8655 5209 9472 6465 6566 7630 3968 5299 4562 3727 4803 4502 6340 2636 3477 4909 26830 2497 2578 15367 4153 4594 3916 14827 2032 2920 3024 3950 4289 2903 2650 5250 4151 3859 2128 4878 2275 3546 10167 10227 2634 3506
shrinkage=0.01


Tree=6
num_leaves=59
num_cat=0
split_feature=135 106 97 135 103 141 97 120 76 103 76 134 135 97 97 76 101 97 157 141 77 77 76 157 120 106 157 77 135 3 137 110 48 101 134 134 76 97 106 154 101 134 137 35 134 123 110 134 77 103 35 101 97 110 97 137 135 154
split_gain=3310.89 870.175 622.353 326.784 273.351 276.765 182.782 143.936 114.953 109.232 94.2066 66.6008 64.7352 61.2079 55.2607 49.0725 43.4156 37.6333 35.5726 33.9047 33.4097 26.4004 23.0572 22.0752 21.7746 20.7104 19.2294 17.2875 15.0797 12.8128 12.3401 11.7483 11.4672 10.6755 9.82266 9.06495 8.43482 8.10839 6.98696 6.44873 6.24483 6.13349 6.02106 5.71782 5.53563 5.34267 4.143 4.06067 3.33642 3.32441 5.44332 2.92039 2.7324 2.70395 2.37226 1.84605 1.06797 0.0199638
threshold=0.43604737334244048 -10.499999999999998 591.65500000000009 1.633317199096483 1518427054.5000002 138.50000000000003 413.62000000000006 540.50000000000011 1.5000000000000002 1519899823.5000002 2.5000000000000004 1.6904622246349859 1.3297063082347018 229.24000000000004 583.58499999999992 6.5000000000000009 324880.29920000007 360.26500000000004 0.0053944255939216796 42.500000000000007 0.81016731016731025 0.7231800766283526 2.5000000000000004 0.0025328933481005411 668.50000000000011 134.50000000000003 0.032859028054898744 0.62284482758620696 0.18542074789824278 776.00000000000011 -0.31764202256244961 1.3732142857142859 6261918.0000000009 13941.532228571428 2.4381673711639755 2.28961064260641 2.5000000000000004 1531.3100000000002 51.500000000000007 90.500000000000014 14848.957251964284 1.2954428456839546 -0.31764202256244961 0.4316228070175438 0.7299661384670656 2373.5000000000005 1.3469899665551843 1.0902968280098564 0.82683658170914553 1522757148.5000002 0.052679425837320583 99494.693532222227 401.83500000000004 1.3307291666666667 174.45500000000001 -1.1562030780780779 0.58810401474162943 166.50000000000003
decision_type=2 10 2 2 2 2 2 2 10 2 10 2 2 2 2 10 8 2 10 2 10 10 10 10 2 10 10 10 2 2 10 10 2 10 2 2 10 2 10 10 8 2 10 2 2 2 10 2 10 2 2 10 2 10 2 10 2 10
left_child=1 6 9 7 5 19 10 11 14 17 29 26 22 44 41 31 27 24 -13 52 32 37 35 -15 38 57 45 46 -16 -1 -24 39 -9 36 -20 -11 -21 -8 56 -7 -33 -6 -14 55 -10 -4 -5 -25 -28 50 -31 -30 -3 -12 -26 -19 -2 -17
right_child=2 4 3 16 8 15 21 20 13 12 53 18 42 23 28 25 -18 43 34 33 -22 -23 30 47 54 -27 48 -29 51 49 -32 40 -34 -35 -36 -37 -38 -39 -40 -41 -42 -43 -44 -45 -46 -47 -48 -49 -50 -51 -52 -53 -54 -55 -56 -57 -58 -59
leaf_value=0.0045049742315169594 0.0015330414858667259 0.0033960385185659372 0.0013247913076425005 -0.0042027272125319615 0.0036359230195757764 0.00062825790377166028 0.0019886291739768681 -7.8007496303698538e-05 0.0029146275949422352 0.002605000237682707 0.0016022997607074844 0.00027476007862114928 0.00023248105922700054 0.0019707569331216062 0.0029004802506505055 -0.0011244476486924294 -0.004471379901989374 0 -0.00089866521022075778 0.0022195239075743188 -0.00027491632484308743 0.0030765258962628804 0.0016236629009563853 0.00098115124453720492 0.0023871349582243067 -4.1206259466099429e-05 -0.0003995959834670098 -0.0011263152945314662 0.0018951431401563106 0.002720756885929973 0.00024235971165828714 0.0010474304624403918 -0.0023752251883035974 -4.4769512314921163e-05 -0.0024740241453041385 0.0011520907048653969 0.00054607352754963364 0.00032675996124080427 -0.001187199376506053 -0.00069248759076367202 -0.00024837236942611607 0.0018998708700249448 -0.0016930529859323453 0 0.0017370232672875457 -0.00068724780302726761 -0.0024439430437663092 -9.8417804716062954e-05 0.00087503481330580271 0.0044627675167570836 0.0038517220834440608 0.00024273815481316358 0.0010238877623253595 0.0029332149847935119 0.00067421580708086376 -0.0019679339040177884 -0.000119640174405181 -0.002904588704457747
leaf_count=12798 569 3279 3726 981 9830 1427 4605 528 4632 4830 1266 1790 1508 3413 3344 878 2573 367 2103 3688 1576 3806 3892 4692 864 1408 3034 1214 3250 2037 1912 4343 5837 513 1638 1455 999 928 1049 2485 1079 848 560 791 2209 345 2030 1384 1084 5394 19415 710 379 5495 1241 1609 1001 893
internal_value=0 0.273942 -0.0358463 -0.133933 0.184627 0.0934744 0.362946 -0.0723741 0.241083 0.0926563 0.389643 -0.0075149 0.146613 0.176191 0.299368 -0.003221 -0.328337 -0.0080737 -0.0988596 0.231035 -0.183093 0.22903 0.176715 0.118109 0.0514233 -0.121298 0.0530387 -0.252972 0.222445 0.409733 0.118625 0.0360304 -0.220018 0.16763 -0.161816 0.228596 0.188502 0.172825 -0.0186874 -0.0185738 0.0771767 0.350868 -0.0247021 -0.112986 0.255104 0.112953 -0.305891 0.0719552 -0.00395551 0.389808 0.374992 0.162437 0.31795 0.270054 0.142962 -0.160267 0.0422938 -0.208571
internal_count=161534 111427 50107 28459 55683 21371 55744 21661 34312 21648 46405 13720 14157 16330 17982 12513 6798 7491 5531 8858 7941 9339 12089 9489 4724 3179 8189 4225 7304 39644 5804 9334 6365 5200 3741 6285 4687 5533 2619 3912 5422 10678 2068 2767 6841 4071 3011 6076 4118 26846 21452 3960 3658 6761 2105 1976 1570 1771
shrinkage=0.01


Tree=7
num_leaves=59
num_cat=0
split_feature=136 134 114 153 153 153 51 21 134 86 47 117 107 136 136 51 13 153 136 117 153 57 107 117 47 136 55 136 101 107 153 117 137 136 117 107 56 153 117 136 56 136 102 13 15 56 136 107 97 57 46 51 110 101 117 135 107 51
split_gain=3417.7 973.037 482.038 350.221 289.282 240.562 173.484 170.447 156.418 127.42 113.753 87.4137 86.6188 51.8116 45.5646 45.1783 41.9416 43.8124 41.1035 41.0568 39.7079 38.4214 35.6869 32.0414 26.9555 25.2879 22.5828 20.9777 18.6381 17.6847 17.2348 16.2056 15.9789 15.8856 14.1534 13.1608 12.7281 12.2094 10.9545 10.6178 15.749 10.3849 10.192 9.9766 9.63291 7.78788 7.78663 7.62453 6.09951 4.01363 2.96623 2.70813 2.39635 1.4968 1.12036 0.789111 0.734654 0.469693
threshold=0.069524879872947462 1.3934403632741355 18.500000000000004 26180.170000000002 27723.500000000004 1996.2800000000002 125.04754687901364 16.500000000000004 3.6124325598823179 411.79922727272736 1503151977.5000002 2.1115555555555559 -13.390476190476187 0.21053793822682768 0.17228202462490727 129.33433133732538 0.25227272727272732 4687.4100000000017 0.21821400738182414 1.9584770114942531 13600.170000000002 18.591229193341871 -36.097619047619041 1.6130553864881316 1492003308.5000002 0.21821400738182414 2.5279657752833731 0.25828193021619522 34601.608520000016 -20.982142857142854 3736.8550000000005 1.7147186147186149 -0.80946778711484579 0.034383548609055105 3.3202564102564107 33.031250000000007 9.5000000000000018 2822.2000000000003 1.423303167420815 0.11423286264530559 5.5000000000000009 0.10817478392937176 1523900048.0000002 0.0039564826047822181 0.44499449944994507 3.5000000000000004 0.457963392709277 -26.244047619047617 500.01000000000005 18.210655314757485 1506810815.5000002 179.73395721925138 1.6195238095238098 80.264449999999997 4.9236596736596736 1.2220795357092999 -30.122023809523807 69.556847545219654
decision_type=2 2 10 2 2 2 2 2 2 10 2 2 10 2 2 2 2 2 2 2 2 2 10 2 2 2 2 2 10 10 2 2 10 2 2 10 2 2 2 2 2 2 2 2 2 2 2 10 2 2 2 2 10 10 2 2 10 2
left_child=2 4 5 15 10 11 13 23 12 19 16 49 18 44 29 25 38 -18 24 -7 34 54 -11 53 -5 -3 -20 -10 -21 51 -17 55 46 -24 52 -22 -35 -25 -2 -14 -41 -32 -19 -16 56 -43 -15 -33 -27 -1 -31 -8 -9 -4 -13 -12 -6 -50
right_child=1 3 7 8 6 9 14 20 27 22 31 21 39 32 43 30 17 42 26 28 35 -23 33 37 -26 48 -28 -29 -30 50 41 47 -34 36 -36 -37 -38 -39 -40 40 -42 45 -44 -45 -46 -47 -48 -49 57 -51 -52 -53 -54 -55 -56 -57 -58 -59
leaf_value=0.0050014477410456051 0.0031019479061660054 0.0017831204574843176 0.0048768276685541151 -0.0011997396908783094 0.0015459614372522934 0.004236841977440362 0.001315899995374619 0.0010189686916833938 -0.0024075554151989122 0.0030200645391731981 0.0033804210076844132 0.0039862953895397693 -0.00072386398866786388 0.0012443212940543981 -0.00075986392987592956 0.0010279029215388997 0.002109790964148281 -0.00029983619145191757 -0.0009424560060563202 0.0032717866110451598 0.00051134182680837329 0.0023127436064084455 0.0023146183265384964 0.0028712997069574122 0.00061350666435053942 0.0005967832227269747 -0.0026731509750728441 -0.0045174005145902927 0.0018219699940379877 0 0.00021522585192378327 0.0027218494475342975 -0.00066317468322654391 0.0020548555448031132 4.4472773149591905e-05 -0.0011456683096877675 0.00074349009082328148 0.001309962947881721 0.0015529839232123796 -0.002230345919203115 -0.0039845720486210009 0.00051629005858242654 0.0010393382026262735 -0.0022896182652334665 0.0021173964580774134 -0.0013704806059812009 -0.00016349796744813798 0.0012995764953455983 0 0.0039086204161014925 -0.0012902424372637829 -2.4082496098772852e-05 0.0022932565795433443 0.002811196032377465 0.0032105284022273723 0 2.9337866588945613e-05 -0.00234893038187615
leaf_count=10070 1499 2555 1089 1984 1092 6338 1391 2527 1285 5465 5171 14943 581 2588 1776 1010 1893 3403 2930 12028 1381 2823 6842 2284 2488 1603 2010 2824 1936 1373 1486 2655 1777 2658 1705 1916 3271 2067 3395 2533 1754 493 1621 2212 4699 3391 1177 1829 274 2629 1728 1120 1494 839 4138 107 1021 363
internal_value=0 0.016604 0.309402 -0.123926 0.112281 0.343612 0.0295684 0.145156 -0.209963 0.287169 0.195963 0.406112 -0.157654 0.110399 -0.0734495 0.0168374 0.125522 0.0676043 -0.0968093 0.344673 0.0531909 0.363509 0.222493 0.275529 -0.0170083 0.0982902 -0.166947 -0.388723 0.30789 -0.00755311 -0.042914 0.280021 0.0298987 0.187538 0.109831 -0.0422803 0.134971 0.215563 0.205157 -0.272948 -0.297686 -0.0722319 0.011403 -0.163554 0.174358 -0.110556 0.0779191 0.216669 0.00239479 0.47855 -0.0719982 0.0681712 0.152016 0.404368 0.382458 0.331591 0.0861681 -0.125692
internal_count=161534 73091 88443 29564 43527 73141 21954 15302 18389 38538 21573 34603 14280 12354 9600 11175 11811 6917 9412 20302 9023 21904 18236 6279 4472 4795 4940 4109 13964 5612 6380 9762 5542 12771 5726 3297 5929 4351 4894 4868 4287 5370 5024 3988 6812 3884 3765 4484 2240 12699 3101 2511 4021 1928 19081 5278 2113 637
shrinkage=0.01


Tree=8
num_leaves=59
num_cat=0
split_feature=136 134 153 103 153 153 49 134 76 87 57 103 105 141 89 119 3 136 76 3 137 136 76 97 48 99 48 153 99 136 102 153 102 110 48 134 123 116 58 136 48 134 48 89 116 134 134 58 137 48 103 103 134 80 102 97 110 136
split_gain=3389.13 962.925 455.188 357.46 346.646 286.632 155.487 155.154 130.073 127.766 120.469 85.8293 58.1713 57.2246 51.2818 45.8709 43.7636 40.8638 40.1776 34.2218 28.8225 28.16 26.1726 24.7502 24.3878 22.9896 21.6726 21.5372 21.318 20.8624 19.1097 15.5021 13.9928 12.4843 12.0834 11.8116 10.7741 10.1403 9.211 7.11981 15.1199 6.40257 6.34171 5.85563 4.90119 4.81758 4.79948 4.24894 3.80946 3.65146 9.71794 3.54959 3.28534 3.13507 1.39724 0.891946 0.521708 0.306354
threshold=0.069524879872947462 1.3934403632741355 2423.4350000000009 1518785422.5000002 26180.170000000002 27723.500000000004 23.500000000000004 3.6124325598823179 2.5000000000000004 630.05500000000018 18.210655314757485 1519130082.0000002 -31.499999999999996 140.50000000000003 97147.489823611118 28.750000000000004 867.50000000000011 0.21821400738182414 2.5000000000000004 684.00000000000011 -0.29562512900380905 0.20296973690489814 1.5000000000000002 180.23500000000004 17959843.000000004 327.39500000000004 14713491.500000002 14700.035000000003 850.10000000000014 0.25828193021619522 1524329335.0000002 8301.970000000003 1524820120.0000002 1.3854895104895106 10181879.500000002 7.5313176893693621 1808.5000000000002 1.2589463574274333 21.500000000000004 0.11423286264530559 15665040.000000004 2.3889124989265844 21622850.000000004 25986.002630185187 1.4094863142107237 0.62356944203751119 0.95077450004112751 21.500000000000004 -0.21707983889163593 12558607.000000002 1520701210.5000002 1518785422.5000002 0.87639729803034994 8.5000000000000018 1523707160.0000002 467.96500000000009 1.4714052287581703 0.18364988051440631
decision_type=2 2 2 2 2 2 2 2 10 10 2 2 10 2 8 2 2 2 10 2 10 2 10 2 2 2 2 2 2 2 2 2 2 10 2 2 2 2 2 2 2 2 2 8 2 2 2 2 10 2 2 2 2 10 2 2 10 2
left_child=2 5 10 13 16 8 14 11 19 25 22 39 24 -4 28 -12 21 20 34 -2 -13 51 -1 42 -10 37 -19 30 46 -9 -11 -21 36 43 -8 49 -16 -5 -25 -6 -41 -23 -14 -15 -17 -33 -7 56 -29 -18 -51 -3 -36 -35 -26 -43 -20 -34
right_child=1 4 3 9 7 6 18 29 12 27 15 17 23 33 32 44 35 26 47 31 -22 41 -24 38 54 -27 -28 48 -30 -31 -32 45 57 53 52 -37 -38 -39 -40 40 -42 55 -44 -45 -46 -47 -48 -49 -50 50 -52 -53 -54 -55 -56 -57 -58 -59
leaf_value=0.0043891146813278296 0.003596076563857028 0 0.0020430908111417436 0.0040402406942316796 -0.00079038860230840307 0.0021569455254826647 0.00063920072511742631 -0.0023934829621295233 0.0022999283976324575 0.0020726950504669655 0.0034208586832815196 0.00046576169554221332 0.0018051085109475238 0.00025848871042215689 -0 0.0023913114876774008 0.00097922462813148617 -0.0010067638512715124 -0.0033188014723285397 0.0030225253999265149 -0.0014143528422977784 0.00062333636082317987 0.0033858618441105354 -0.0014212546948122087 -0.00030009907544284572 0.0026379638677524399 -0.0027133205758154318 0.0018215866163253866 0.00010342756979235102 -0.0044990815109859136 0.0032202361055880574 0.00260219965455942 0.0014655906135302172 0.00088389060605474927 -3.7980504307000279e-05 -0.0033842822295255897 -0.0020564149687585811 0.0031274386032119068 0.00038360143867220172 -0.002262830394080042 -0.0040607689701647812 -0 -0.00055112815823152978 -0.0011240600485773094 0.0009611833531281089 0.0012717317885725448 0.0010650213383300903 -0.00093636405016675299 0.00053808525611836468 -0.0011971533084525171 0.0002149055856441413 0.0017948408821146778 -0.0013945538205502451 -0.00058245597242293683 0.0011349691406880734 -0.0018934376408917047 -0.0014637873278206229 9.3425572794919278e-05
leaf_count=24409 4010 546 2500 8782 523 4486 1952 1285 3873 6761 8315 2924 1125 1356 2215 2467 531 3128 847 2787 1705 1736 5552 1508 650 4807 1936 5258 1434 2824 4231 1494 1299 3399 1694 271 634 5504 832 2472 1592 852 312 1759 1435 3235 2332 1485 1265 2476 1446 2763 1451 643 1747 554 932 1193
internal_value=0 0.0164751 0.308051 0.238186 -0.123329 0.111659 0.029312 -0.208938 0.194969 0.284018 0.384396 -0.156825 0.106986 0.0633511 0.0976675 0.294247 0.0167294 -0.0988218 -0.080649 0.270693 -0.0207172 0.0766251 0.420741 0 0.170768 0.343694 -0.168161 0.218282 0.151676 -0.38702 0.252528 0.221628 0.0123094 0.0125852 -0.0165841 -0.0630105 -0.0479363 0.369734 -0.0739255 -0.276893 -0.299769 -0 0.122639 -0.0492164 0.189323 0.171627 0.179937 -0.177442 0.158848 -0.0434868 -0.065258 0.151268 -0.0696537 0.0626038 0.070592 -0.0817231 -0.241233 0.0849843
internal_count=161534 73091 88443 46265 29564 43527 21954 18389 21573 36608 42178 14280 10047 9657 13593 12217 11175 9693 8361 11526 4629 6451 29961 3777 6270 19093 5064 17515 8252 4109 10992 7516 5341 7157 5097 4724 2849 14286 2340 4587 4064 3142 1437 3115 3902 4729 6818 3264 6523 4453 3922 3309 3145 4042 2397 1406 1779 2492
shrinkage=0.01


Tree=9
num_leaves=63
num_cat=0
split_feature=135 153 135 106 153 106 120 89 99 72 87 118 134 134 157 57 103 135 102 137 131 57 13 48 118 118 105 118 157 137 72 107 131 97 107 97 157 137 153 107 131 137 48 106 134 134 107 107 102 102 98 15 121 48 118 134 97 105 135 107 153 97
split_gain=3231 921.185 605.796 405.955 291.484 243.158 155.332 147.701 146.732 71.9827 66.3859 64.8975 50.7379 50.4357 49.5737 44.3556 40.8766 40.3272 34.7887 33.5871 30.8008 30.1461 27.8108 24.7286 24.4682 22.3055 21.0242 20.9931 20.2565 18.3717 16.8491 16.6645 16.6095 16.184 13.9087 13.5244 13.3697 18.6331 12.4077 11.0669 8.64764 8.60944 6.41965 6.37499 5.96479 5.88559 5.82206 4.67739 4.66299 4.53183 3.96298 3.24734 3.00654 2.43793 2.30966 2.15719 1.85507 1.68513 1.61557 1.23861 1.06825 0.936134
threshold=0.43604737334244048 7800.3900000000021 1.2220795357092999 12.500000000000002 21600.720000000005 6.5000000000000009 540.50000000000011 45206.942933333346 699.93500000000006 2.5000000000000004 440.0266666666667 3.1445993031358892 1.6904622246349859 3.6124325598823179 0.0024692049551358415 18.210655314757485 1519899823.5000002 0.20826638374063314 1523282819.0000002 -0.40129347303260349 58.980653594771248 21.441518467852266 0.85791925465838526 13035492.500000002 3.0919661733615231 6.9263775971093047 88.500000000000014 2.9298029556650254 0.0053944255939216796 -0.39285714285714279 2.5000000000000004 -33.109126984126981 6.2283205456095478 750.02500000000009 29.160256410256416 521.7600000000001 0.027413480032317087 -0.50373173556105078 24342.810000000001 40.211111111111116 46.63107466063348 -0.27199467731204252 12684421.000000002 53.500000000000007 1.3430423643961531 1.2414977054941023 -30.74642857142857 -31.14039408866995 1523887438.5000002 1524264989.5000002 360.67208333333343 0.96157731157731174 523.50000000000011 31800469.500000007 6.4553429027113234 1.0647393719901397 2709.6600000000012 88.500000000000014 0.58810401474162943 -35.984374999999993 49864.740000000013 1343.0800000000002
decision_type=2 2 2 10 2 10 2 8 2 2 10 2 2 2 10 2 2 2 2 10 10 2 2 2 2 2 10 2 10 10 2 10 10 2 10 2 10 10 2 10 10 10 2 10 2 2 10 10 2 2 2 2 10 2 2 2 2 10 2 10 2 2
left_child=1 5 4 7 16 9 12 17 18 15 27 30 36 49 59 24 26 61 20 46 42 34 -11 60 55 -17 43 38 -14 45 44 -26 -13 -19 -12 -20 41 -38 -5 -29 -31 -6 -4 58 53 -18 -16 -24 -21 -10 -30 -22 -25 -7 -34 -1 -35 -54 -2 -9 -8 -3
right_child=2 3 8 10 6 11 23 14 13 22 21 32 28 -15 19 25 29 33 35 48 51 -23 47 52 31 -27 -28 39 50 40 -32 -33 54 56 -36 -37 37 -39 -40 -41 -42 -43 -44 -45 -46 -47 -48 -49 -50 -51 -52 -53 57 -55 -56 -57 -58 -59 -60 -61 -62 -63
leaf_value=0.0047817728990175497 0.001322993105817514 0.0034577176990633878 0.00082293367483467173 0.0023947095487039461 0.001647587118687433 0.003794061463364768 -0 0.0029229050353047556 -0.0030308029168025826 0.0037892321933024682 -0.00060749720236226836 0.0020572703035591851 0.00034753099682920021 -0.0044093148083535223 0.0020231034685097957 0.0034590988027103659 0.0029417712646293199 0.0027165298782829022 0.00069644634371023506 -0.00060712825914416844 -0.0028067381707493557 0 0.0031410568044994169 -0.0014365384024992306 0.0042063630802307867 0.0013972140227216862 0.0015839768021324019 0.00094538420289448405 -0.00078633074563185608 0.0018395632388857068 0.0018051279847314861 0.0033110212530502322 0.0009881980418619059 0.0017076229034871865 -0.0025576617603090858 -0.00094865139305895757 0.00060845950983288554 -0.0013375215753775357 0.00049824926118256405 -0.00062553838634903081 0.00052874185458420852 0.00011223094326839722 -0.0013542572270183811 -0.0011228982314198345 0.0002098235492643082 0.0017265421972118878 0.00086809571256274973 0.0022004409588872319 0.00059184144444368049 -0.0015801051074486932 -0.002444252061173241 -1.615995216247685e-05 -0.0033913945143064159 -0 -0.000364075492567199 0.0030928589260769131 0 -0.0017393331316323869 -0.00015337257800272384 0.0018502351387966348 -0.0012311264754018632 0.0023946078950139145
leaf_count=11294 831 8579 574 1438 3133 3131 1321 1963 1894 5629 1318 2592 1511 2854 3065 6100 2558 4488 1382 1492 2398 2518 4350 1919 12957 1073 1711 1534 1835 2380 1662 6659 2567 3319 1545 2129 3584 926 1361 1839 2464 1229 742 1008 198 3039 2579 4793 2859 1770 885 256 1400 76 766 852 475 1140 1146 4415 2088 1941
internal_value=0 0.270358 -0.0356795 0.162368 0.0331127 0.348172 -0.0441425 0.216419 -0.213723 0.376701 -0.00139834 0.207722 0.0239928 -0.32774 0.143368 0.401714 0.140747 0.279427 -0.11284 0.0934326 -0.185799 -0.0891244 0.309931 -0.158746 0.420543 0.316609 0.0514152 0.073537 -0.0732381 0.179928 0.298328 0.390887 0.1283 0.217213 -0.16979 -0.0273516 0.0714755 0.0185793 0.151119 0.0060863 0.119475 0.123815 -0.0332398 -0.00694408 0.352426 0.23027 0.151447 0.266096 0.015815 -0.236146 -0.136697 -0.257477 -0.217921 0.369776 0.0648342 0.467344 0.149821 -0.26959 0.0421404 0.219887 -0.0781752 0.327278
internal_count=161534 111427 50107 46728 36108 64699 20971 35175 13999 53707 11553 10992 13103 6518 16373 38935 15137 18802 7481 9995 3970 5381 14772 7868 31762 7173 4696 6172 4231 10441 5067 19616 5925 8282 2863 3511 8872 4510 2799 3373 4844 4362 1316 2985 3405 5597 5644 9143 4351 3664 2720 2654 4459 3207 3333 12146 3794 2540 1977 6378 3409 10520
shrinkage=0.01


Tree=10
num_leaves=60
num_cat=0
split_feature=135 153 135 106 153 106 84 107 89 76 117 85 118 157 101 57 135 102 131 135 57 57 117 107 48 131 107 107 95 157 131 99 48 47 157 157 157 58 153 153 101 84 107 48 131 57 106 48 117 131 122 48 107 154 131 131 117 117 76
split_gain=3202.51 916.882 599.535 401.051 288.46 240.56 151.249 150.658 145.943 125.581 97.5934 69.0448 64.5022 48.8095 47.032 40.0677 39.8853 31.2398 27.3588 26.6857 25.1392 24.7992 22.709 21.8827 20.6524 19.2013 18.7533 18.2865 17.2741 16.6983 16.44 14.6358 13.4469 13.441 21.8114 11.0594 10.4422 10.0295 9.94771 9.83795 8.38474 8.20834 7.34254 6.8735 6.1786 4.17031 4.13814 3.59634 3.31524 2.83241 1.81422 1.76951 1.09406 0.877032 0.580087 0.535808 0.526528 0.332749 0.217389
threshold=0.43604737334244048 7800.3900000000021 1.2220795357092999 12.500000000000002 21600.720000000005 6.5000000000000009 12933.575000000003 -21.405882352941173 45206.942933333346 1.5000000000000002 2.4566559312936129 1039.3800000000003 3.1445993031358892 0.0024692049551358415 149923.72966666665 17.538591038591044 0.20826638374063314 1523375148.0000002 58.980653594771248 1.7007481132659779 18.22586618876942 21.441518467852266 1.9004950495049506 -25.54195804195804 13035492.500000002 12.159705882352943 -31.14039408866995 33.031250000000007 2.5000000000000004 0.0068555219975011423 6.2283205456095478 460.01500000000004 15303275.500000004 1492003308.5000002 0.0060753434044868134 0.026625905751590476 0.010770009669983009 21.500000000000004 31358.540000000005 41113.000000000007 324880.29920000007 9864.7700000000023 40.211111111111116 12684421.000000002 48.868328173374621 19.340463662014795 53.500000000000007 7861598.5000000019 3.1675438596491232 10.520526315789475 1823.0000000000002 31800469.500000007 -35.984374999999993 -478.49999999999994 64.584078822412181 579.33010396518409 5.003731343283583 2.6844476055002375 13.500000000000002
decision_type=2 2 2 10 2 10 2 10 8 10 2 10 2 10 8 2 2 2 10 2 2 2 2 10 2 10 10 10 10 10 10 2 2 2 10 10 10 2 2 2 8 2 10 2 10 2 10 2 2 10 2 2 10 10 10 10 2 2 10
left_child=1 5 4 8 15 9 17 14 16 10 45 22 28 52 33 32 55 18 43 47 -12 27 41 38 58 -17 -11 -13 51 -26 57 -18 -2 34 -6 -35 -16 46 -15 -19 53 -5 -24 -4 -34 -1 -27 -8 -32 -28 -20 -7 -10 -21 -23 -3 -22 -14 -9
right_child=2 3 6 11 7 12 19 24 13 26 20 21 30 23 36 25 31 39 50 40 56 54 42 -25 29 37 49 -29 -30 -31 48 -33 44 35 -36 -37 -38 -39 -40 -41 -42 -43 -44 -45 -46 -47 -48 -49 -50 -51 -52 -53 -54 -55 -56 -57 -58 -59 -60
leaf_value=0.0046690981355412822 0.0024683566728833759 0.0034997914734296105 0.0008023567312295545 0.0019431644179353806 0.000992622117896918 0.0035593138764890286 -0 -0.00048918673809774087 0.0029051338631559116 0.003410427350419912 0.0037012177550231535 -0.00056769999991090111 0.0028789433938156317 0.0018300115951030568 0 0.0019583567685099476 0.0024735507124540078 0.00036166770403219049 -0.00077725423974585306 -0.0017226158130401253 0.0028664118377589292 0.001174133046981433 0.00093550779106168786 1.8840613684716844e-06 -0.00082053082346553803 0.00018268725729168054 0.0030898766706048161 -0.002545199246429374 0.0016785975397249184 -0.0025513950988989681 0.0011190210661121108 0.0010820804908060588 0.0019623809007238593 0.0016633991357175981 -0.001056201081804782 0.00047700647554009215 -0.0016558898029417554 0.0012939019751144673 0.00071234243466680009 -0.0010912780917973937 -0.0044943400529000336 -0 -0.00061548718460455187 -0.0013947284859296423 0.0008150110495411001 0.003420762608356396 -0.0012840466473261103 -0.0023819913584274487 -0.00012313792534371262 0.0020639784748114785 -0.0028825184046105002 -0 0.0018384898161972129 -0.0035741403302872112 -0.00032593324135905301 0.0025963256011209794 0.0013834496200447472 0.0013731008797281672 -0.0020841211542521353
leaf_count=19058 3912 7530 572 2335 1395 3513 316 2975 1963 6598 15356 1680 1089 3560 1186 1249 6329 1898 463 771 2364 584 1255 2848 1472 2198 2518 1508 1465 3355 2138 1953 2762 2663 1601 4105 1693 1197 3587 1707 2408 484 1611 755 2947 1709 872 1667 1195 5104 2068 89 4415 1374 2096 2990 1000 1503 526
internal_value=0 0.26915 -0.0355393 0.161409 0.0329011 0.346784 -0.212675 -0.0439638 0.21514 0.375167 0.405984 -0.00138332 0.207044 0.142492 0.0263887 0.139995 0.277798 -0.110144 -0.182264 -0.327984 0.348428 -0.0834672 0.0816425 0.0928675 -0.151849 0.0613855 0.288728 -0.153751 0.297412 -0.204587 0.127826 0.215849 0.183969 0.0633969 -0.00699325 0.0959543 -0.0955963 0.0194666 0.128405 -0.0300473 -0.380061 0.157855 0.00307741 -0.0376154 0.138905 0.457242 -0.0204833 -0.202477 0.0645517 0.241854 -0.253926 0.346921 0.218525 -0.296269 0 0.325443 0.245872 0.205008 -0.0760706
internal_count=161534 111427 50107 46728 36108 64699 13999 20971 35175 53707 39487 11553 10992 16373 12643 15137 18802 7463 3858 6536 18720 5868 5685 9995 8328 5516 14220 3188 5067 4827 5925 8282 9621 9764 2996 6768 2879 4267 7147 3605 4553 2819 2866 1327 5709 20767 3070 1983 3333 7622 2531 3602 6378 2145 2680 10520 3364 2592 3501
shrinkage=0.01


Tree=11
num_leaves=57
num_cat=0
split_feature=136 136 106 51 101 76 141 5 50 136 118 76 118 97 48 136 97 136 136 136 90 21 107 76 92 118 120 77 107 121 21 77 50 48 107 5 76 21 90 136 107 48 136 118 97 101 101 145 39 90 101 76 136 119 110 107
split_gain=3312.51 720.093 510.481 487.793 303.608 273.296 200.476 195.13 165.075 106.178 85.3922 73.9854 70.8445 54.645 51.0663 42.3416 39.1192 36.8264 35.8241 35.7649 32.8567 31.2819 30.8078 29.2727 28.7775 22.5681 18.115 17.0725 16.6391 16.2194 15.0681 14.2074 12.8384 12.6988 12.0809 11.8374 10.4426 10.3113 9.80926 9.70674 9.46426 8.59093 7.75748 7.25878 7.22112 6.22574 5.6128 3.34475 2.91023 2.74457 2.44803 2.0721 1.35405 1.18541 0.690645 0.685715
threshold=0.069524879872947462 0.25828193021619522 10.500000000000002 125.04754687901364 57269.579429166668 1.5000000000000002 80.500000000000014 28.500000000000004 149.50000000000003 0.11918973113875916 3.2022727272727276 6.5000000000000009 2.6711711711711716 195.99500000000003 12337055.000000002 0.41338363101359937 726.96000000000015 0.02737113776174729 0.18364988051440631 0.49512304431915793 21.501437908496737 19.500000000000004 -21.138095238095236 4.5000000000000009 4.8237091503267981 2.858803986710964 669.50000000000011 0.81322674418604668 -36.097619047619041 473.50000000000006 7.5000000000000009 0.85839598997493749 143.50000000000003 31637232.500000007 -33.283882783882781 35.500000000000007 2.5000000000000004 19.500000000000004 36.4801797385621 0.44175753314720823 -24.02272727272727 10375939.500000002 0.13724261021493395 8.3366666666666678 321.99500000000006 324880.29920000007 23241.78281666667 332.71894290123458 2.0916083916083923 29.168921568627457 11926.801563157898 7.5000000000000009 0.17228202462490727 5.2500000000000009 1.1913919413919416 -29.13961038961039
decision_type=2 2 10 2 8 10 2 2 2 2 2 10 2 2 2 2 2 2 2 2 2 2 10 10 10 2 2 10 10 10 2 10 2 2 10 2 10 2 2 2 10 2 2 2 2 10 10 10 2 2 10 10 2 2 10 10
left_child=2 3 5 12 8 10 25 16 19 22 38 24 20 40 15 -6 30 43 31 35 36 52 33 37 -10 -4 -24 -26 -15 -23 -5 47 -20 -9 -13 -3 -2 -8 -1 49 -7 -36 -32 48 -25 -17 -19 -14 -12 -16 -39 -21 -11 -18 -30 -33
right_child=1 4 6 7 14 13 23 9 11 21 17 34 18 28 39 45 53 46 32 51 -22 29 26 44 27 -27 -28 -29 54 -31 42 55 -34 -35 41 -37 -38 50 -40 -41 -42 -43 -44 -45 -46 -47 -48 -49 -50 -51 -52 -53 -54 -55 -56 -57
leaf_value=0.0044577788511327796 0.0034236148781022504 0.0021189230480378844 0.0038404220148859458 0.0028734279370120418 -0.00031678300939009927 0.0033027910356486514 0.0015722274016267469 0.0014759415845103851 0.00095901191439983391 -6.139030909675189e-05 0.0039474367099509317 -0.00059618597622376074 0.0014959454635728906 0.0026773893594224801 -6.5874521148628036e-05 -0.0020152641516219282 0.0021437651662647196 0.0030173166296161274 0.0011523870823436332 0.00026895917861578122 0.001391923968089046 -0.001210146639301852 -0.0010404440331945946 0.00022914746297111562 -0.0015317708524661003 0.0020111784107687374 0.00050357638046100454 0.00022781002221467666 0.00067790815299868736 -0.0027330582602600019 0.0019362221504069771 0.00316055758516632 -0.00053125845599774038 0.000115307560481591 -0.0015187846459244372 0.00045614193575237432 0.0020760782450464314 0.00070479896871939915 0.0020758103062356852 -0.0046344060649504918 0.0023124671895913694 -0.003423015026704012 0.00046163702815209452 0.0030223858360975729 -0.0013674103994283319 -0.0038473004339376333 0.0017925908663450224 -7.4448742827846546e-05 0.0026864508419465285 -0.0032230540389798106 -0.00053774828205092667 -0.0011821149346316351 -0.0011919399739310039 -0.00072521187463325668 0.0017191379813409533 0.0016742866402612686
leaf_count=18231 4877 2380 2702 1688 1389 7768 2760 2235 1295 2015 17553 640 7832 3208 203 1650 133 6649 1568 1486 2404 2465 3538 1222 2795 2045 1648 1127 1568 2760 2078 1590 1531 3038 990 1425 2114 4139 531 1913 3959 2094 1669 4489 1269 1077 1808 447 1450 1897 887 845 1855 1101 6205 1299
internal_value=0 0.0158957 0.304168 0.0841689 -0.13043 0.338952 0.133451 -0.0103609 -0.0442809 -0.0623345 0.380883 -0.133875 0.189306 0.244782 -0.288816 -0.197687 0.14047 0.345967 0.140314 0.0847009 0.262486 -0.144937 0.00862916 0.0518146 -0.0496069 0.307758 -0.053115 -0.100213 0.187042 -0.203611 0.181531 0.170285 0.0290292 0.0711737 -0.248966 0.152389 0.303288 0.0871652 0.439646 -0.379282 0.297856 -0.284869 0.130762 0.370316 -0.0547331 -0.278358 0.276891 0.13995 0.385751 -0.296518 0.0465781 -0.0218039 -0.0629611 -0.0325969 0.152247 0.253232
internal_count=161534 73091 88443 49885 23206 73419 15024 26223 15077 19554 50711 8941 23662 22708 8129 4116 6669 31949 14267 6136 9395 9095 10459 10277 5217 4747 5186 3922 10981 5225 5435 11168 3099 5273 3724 3805 6991 7786 18762 4013 11727 3084 3747 23492 2491 2727 8457 8279 19003 2100 5026 2331 3870 1234 7773 2889
shrinkage=0.01


Tree=12
num_leaves=57
num_cat=0
split_feature=136 134 106 153 153 76 21 51 134 76 118 106 51 153 136 131 136 51 136 136 51 77 52 136 153 131 102 136 52 131 107 107 77 153 99 107 76 136 118 118 136 52 92 99 154 105 120 120 51 134 51 155 77 105 136 118
split_gain=3284.76 931.256 504.885 333.931 277.528 271.975 167.628 164.533 151.104 125.9 85.7608 83.1195 57.4911 57.3566 48.8469 44.3847 43.5277 42.8422 39.0983 36.9032 28.52 26.642 25.6148 23.7968 22.4516 21.9677 22.6557 20.4145 19.1525 18.8338 17.1755 16.0151 15.3714 13.8436 11.0451 10.9618 10.0956 9.46206 7.37913 7.36911 6.24207 12.3827 5.12691 4.61201 4.05467 3.24596 2.74259 2.47876 2.34648 1.90481 1.60455 1.1819 0.909672 0.684388 0.517641 0.428669
threshold=0.069524879872947462 1.3934403632741355 10.500000000000002 26180.170000000002 27723.500000000004 1.5000000000000002 18.500000000000004 125.04754687901364 3.6124325598823179 2.5000000000000004 3.2022727272727276 7.5000000000000009 101.00480769230772 6798.6950000000006 0.37808359170210165 12.629548872180452 0.17228202462490727 129.33433133732538 0.21821400738182414 0.02737113776174729 127.13914095583789 0.82683658170914553 -10.499999999999998 0.21821400738182414 11921.310000000001 20.228991596638657 1523707160.0000002 0.25828193021619522 -6.4999999999999991 20.228991596638657 -36.097619047619041 -20.982142857142854 0.85565476190476197 8301.970000000003 650.06500000000017 -24.246951219512194 3.5000000000000004 0.16678023511100074 8.3366666666666678 2.7788888888888894 0.11423286264530559 -5.4999999999999991 91.520019375339075 327.39500000000004 100.50000000000001 -19.499999999999996 659.50000000000011 668.50000000000011 179.73395721925138 0.92331891003687272 68.63085796683491 0.085908056738754096 0.84698996655518399 88.500000000000014 0.031055190959914953 3.2469512195121957
decision_type=2 2 10 2 2 10 2 2 2 10 2 10 2 2 2 10 2 2 2 2 2 10 2 2 2 10 2 2 2 10 10 10 10 2 2 10 10 2 2 2 2 2 10 2 10 10 2 2 2 2 2 10 10 10 2 2
left_child=2 4 5 17 9 10 15 14 11 20 34 18 45 35 21 39 31 23 22 38 -2 42 -5 -3 -8 -14 -27 -10 -20 -19 -15 48 46 -22 -1 -7 55 51 -12 -4 -13 -42 -6 -21 -26 -11 -18 -33 -9 -35 -25 -31 -16 -39 -32 -17
right_child=1 3 6 8 7 13 24 16 27 12 19 40 25 30 52 36 32 29 28 43 33 -23 -24 50 44 26 -28 -29 -30 37 54 47 -34 49 -36 -37 -38 53 -40 -41 41 -43 -44 -45 -46 -47 -48 -49 -50 -51 -52 -53 -54 -55 -56 -57
leaf_value=0.0044428768882174051 0.0031825881395484454 0.0017379241150330526 0.0039904327848046843 -0.00123548201464819 0.0010343595294373732 0.0033113832697373915 0.00083445055499003758 0.0012844682319224387 -0.0023512604163857362 0.0021398167488314917 0.0038410399220233293 -0.0007883475845400288 0.0022659064782504091 0.0026654557885636455 -0.00077708354061260614 0.0024926087909085326 -0.0026403216672264865 0.0006813941281355254 -0.0028301043244457246 0.0030746902601960406 0.0028315814676596785 0.0021893548316308485 0.00052040218467152373 0.00083808892718713313 0.00023103732635828167 -0.00053294986748805026 0.0011599217822265192 -0.0044411801800873099 -0.0011003828847459467 -0.00052443131453099197 0.0020059860968555153 -0.0012627891038063499 -0 0.0018163510513735442 0.0019822663730701016 0.0022942137211825714 0 -0.0018557870544028575 0.0030046328642475734 0.002468279226028935 -0.0039207187992710965 -0.0022192171746294276 -0.00087771445785344714 0.0020245051120131884 -0.0010264654426465352 -0 -0.0011819739657982443 0 -3.625866775754852e-05 0.00039102560633993695 -0.00058680595391997202 0.0011421491280143227 0.00074628384397057662 -3.1809152419705912e-05 0.0011558469489534766 0.00084056898262864206
leaf_count=18245 6610 2555 1994 1966 5903 7740 4556 1391 1285 4025 19003 521 727 3179 1692 1284 1722 1633 1553 5747 1956 3810 2667 1014 1452 3345 1699 2824 3516 1977 3015 1717 829 1817 517 3983 827 1786 4489 2184 1675 2382 378 2710 1872 251 1437 1384 1120 1143 1226 467 571 517 4791 855
internal_value=0 0.0157604 0.302827 -0.121747 0.109385 0.337424 0.133023 0.0283054 -0.205815 0.191406 0.379256 -0.154333 0.104725 0.243474 0.107148 0.247246 -0.0721535 0.0157742 -0.0972186 0.344286 0.265996 0.139959 -0.0204739 0.0955021 0.0280924 0.0321697 0.00190929 -0.381711 -0.16531 -0.0426789 0.184665 -0.00744584 -0.160588 0.193345 0.438113 0.297589 0.13749 -0.0828868 0.368644 0.322428 -0.272874 -0.295203 0.0902912 0.275189 -0.0448928 0.200139 -0.201227 -0.069948 0.0658801 0.130116 0.00159107 -0.0163776 -0.0348817 -0.148974 0.149835 0.188306
internal_count=161534 73091 88443 29564 43527 73419 15024 21954 18389 21573 50711 14280 10047 22708 12354 7144 9600 11175 9702 31949 11526 10091 4633 4795 7880 5771 5044 4109 5069 6380 10985 5612 3988 4916 18762 11723 2966 4747 23492 4178 4578 4057 6281 8457 3324 4276 3159 3101 2511 2960 2240 2444 2263 2303 7806 2139
shrinkage=0.01


Tree=13
num_leaves=60
num_cat=0
split_feature=135 96 97 103 135 76 58 102 103 76 21 135 97 117 134 97 134 134 135 134 157 58 90 102 76 49 76 76 157 134 77 157 134 117 56 99 102 97 97 124 107 117 107 107 110 55 97 103 56 84 93 135 97 97 90 97 135 93 135
split_gain=3125.94 841.242 584.716 520.573 291.463 143.771 132.967 125.073 113.45 76.0259 72.8656 69.5989 67.4128 54.77 52.1751 45.9528 41.9843 38.0759 36.629 35.9619 25.7183 25.2394 23.4308 22.2869 27.7549 21.5594 20.7818 20.5742 18.2171 18.3824 17.6253 19.9538 17.1581 15.3387 13.3356 12.9772 11.4126 11.3811 10.913 10.1313 8.84548 8.69364 8.3186 7.95879 7.34814 6.01702 5.93502 5.44553 3.5429 2.75455 2.61253 2.25032 2.13627 1.49644 1.45808 1.0001 0.345532 0.271749 0.156663
threshold=0.43604737334244048 2.5000000000000004 673.61500000000012 1518785422.5000002 1.7007481132659779 1.0000000180025095e-35 17.500000000000004 1522873174.0000002 1519899823.5000002 5.5000000000000009 16.500000000000004 1.3297063082347018 430.84500000000008 2.6006535947712428 1.9277652315104328 360.26500000000004 0.66791404853873815 0.39239458947279754 0.20826638374063314 3.6124325598823179 0.0047940410340619978 21.500000000000004 16.458099415204682 1524395947.0000002 4.5000000000000009 148.50000000000003 1.5000000000000002 3.5000000000000004 0.0031059379034347611 0.95760190214762619 0.82683658170914553 0.0237619398319459 0.92331891003687272 3.2069836293974232 3.5000000000000004 1300.0100000000002 1523638785.5000002 494.41500000000008 1565.7300000000002 653.50000000000011 29.160256410256416 3.0027173913043486 -33.431677018633529 -27.282857142857139 1.2012658227848103 0.34370725034199734 838.01500000000021 1515354830.5000002 9.5000000000000018 7648.3850000000002 11.500000000000002 0.6685494828763372 174.45500000000001 989.77500000000009 107.44411764705883 275.00500000000005 0.62115222655016333 14.500000000000002 0.58810401474162943
decision_type=2 10 2 2 2 10 2 2 2 10 2 2 2 2 2 2 2 2 2 2 10 2 2 2 10 2 10 10 10 2 10 10 2 2 2 2 2 2 2 2 10 2 10 10 10 2 2 2 2 2 10 2 2 2 2 2 2 10 2
left_child=1 6 8 9 7 18 13 26 15 16 32 27 23 17 30 25 34 -1 57 36 -16 40 42 24 -7 47 35 37 -14 -30 31 -9 41 49 -3 -4 45 51 -19 -17 53 -8 -15 -29 -18 -6 -20 -2 -13 -12 -36 -10 -27 -11 -32 -23 -41 -5 -49
right_child=2 3 4 5 19 12 10 14 11 21 33 48 28 22 20 39 44 38 46 -21 -22 55 -24 -25 -26 52 -28 43 29 -31 54 -33 -34 -35 50 -37 -38 -39 -40 56 -42 -43 -44 -45 -46 -47 -48 58 -50 -51 -52 -53 -54 -55 -56 -57 -58 -59 -60
leaf_value=0.0048992199924598051 -0.0011441046199354027 0.0023315620436612835 -0.0007763344614392728 0.0036858559922449598 0 0.0025727152949372727 0.0038840818525604165 0.00076219963851767534 0.0027112803432236326 -5.7745396811629471e-05 0.0025015584139354455 4.9044096802599601e-05 0.0020478830005549922 0.0038751966207868282 0.00025586372882351906 -0.00016455647941862925 -0.0012326910322548459 0.003832750586586262 0.0028070273522321325 -0.0043567974054619001 -0.0018321049627923153 0.0012547733559568582 0.0009564830757010877 0.0029691127653435861 0.0012430567565010343 0.0023608722286499644 -0.0026931473785718365 0.0014140953261306641 0.0013862393622095252 0.00013203976783287142 0.0015048804686797841 -0.00060251799625318195 0.0017635421652546788 0.0009480098241260469 0.0011279680088089675 -0.0024331344905240051 -0.001675085112838422 0.00089836657238517045 -0 -0.00049349107076751889 -0.0026992323313592853 0.0025423950275275638 0.0029374924302673776 0.00014097995797341642 0.00021746565791805155 -0.0037349812541933982 0.0016351157465335955 0.0014544465229559384 -0.0016001630341979781 -0 -0.00017497636617706138 0.0016733981461326325 0.00066402095653227036 -0.0030798926530149445 -0.00030580591019491746 -0.00046755269919972051 -0.0022536081515750553 0.0025638744241614818 -0.00013287237012404813
leaf_count=10884 1059 1684 3077 9776 101 5338 7021 2685 3604 806 3793 1730 4167 9270 1044 1433 1021 7857 4235 2734 2765 499 612 6692 4222 865 2960 3376 6177 2779 2003 3901 1126 2180 3570 1315 1912 1676 95 629 1247 1860 4361 1892 3767 1375 2358 565 627 161 764 2761 1241 157 310 1288 1473 1660 994
internal_value=0 0.265647 -0.035387 0.187545 -0.139627 0.239158 0.364111 -0.0796634 0.0782909 0.0215714 0.284607 0.130469 0.193589 0.402533 -0.0164214 -0.0195446 0.0684176 0.44318 0.312745 -0.334159 -0.123517 -0.102545 0.347874 0.240464 0.199718 0.0500968 -0.187523 0.160553 0.134687 0.100833 0.0284046 -0.00312241 0.341936 0.189172 0.130207 -0.1298 -0.248529 0.200445 0.377547 -0.115239 -0.186525 0.361658 0.358424 0.0976119 -0.00731947 -0.345453 0.240511 -0.0198174 -0.0352839 0.238457 0.0876119 0.227899 0.14132 -0.0671991 0.122032 0 -0.177673 0.353341 0.0385318
internal_count=161534 111427 50107 62207 26182 47404 49220 20060 23925 14803 16141 15666 29375 33079 12708 8259 10806 18836 18029 6122 3809 3997 14243 16252 9560 4724 7352 13309 13123 8956 8899 6586 10007 6134 6018 4392 3388 8041 7952 3535 2210 8881 13631 5268 4788 1476 6593 2618 2357 3954 4334 6365 2106 963 2313 1787 2102 11436 1559
shrinkage=0.01


Tree=14
num_leaves=61
num_cat=0
split_feature=153 135 107 76 134 134 58 135 107 107 85 89 117 36 153 90 134 49 90 76 134 153 134 117 153 58 107 107 116 153 107 134 107 103 134 157 143 52 154 157 157 153 56 154 157 123 110 117 49 94 134 117 123 146 107 157 110 153 134 153
split_gain=3102.65 1099.06 433.298 429.216 247.496 187.178 153.412 140.97 132.885 101.332 73.4723 69.7252 66.7261 63.9533 45.2194 45.1771 45.1126 38.2315 36.7418 35.9174 32.8416 32.0427 28.4525 26.1782 25.6439 24.7597 22.9094 18.4342 17.5871 17.3443 16.91 14.6482 13.933 13.0442 11.9016 11.3818 10.6825 10.2889 9.6901 9.07928 8.73954 7.65919 7.5291 5.98485 5.86731 10.3936 5.19269 5.07736 4.65582 4.1411 3.93006 3.52281 3.51873 2.79176 2.70751 2.65286 2.57015 1.34276 0.573031 0.572535
threshold=12393.540000000003 0.70985075550644205 -7.9761904761904754 1.5000000000000002 2.7524709832716976 1.3934403632741355 18.500000000000004 0.23635402657800603 -19.596296296296291 -18.544444444444441 2349.0743333333339 385537.38456654514 2.1541289592760182 64.321024129665645 3945.7600000000007 54.121323529411775 0.64569940652324676 148.50000000000003 57.885620915032689 1.5000000000000002 2.6809247996997612 58416.80000000001 0.66791404853873815 2.5542823467784186 38000.80000000001 21.500000000000004 -30.440972222222218 -34.245689655172406 1.3572717895822592 4347.2200000000003 -4.9642857142857135 1.5083894801525561 -25.394444444444442 1521264445.5000002 1.2308184032172278 0.01776785089342325 266159.88885000005 -1.4999999999999998 100.50000000000001 0.0071808927729437623 0.031869742479029857 73151.000000000015 4.5000000000000009 1.0000000180025095e-35 0.0065270914208559088 776.00000000000011 1.4433760683760686 4.7511061946902666 275.50000000000006 1.9344086021505378 7.5313176893693621 2.5643093465674118 2083.0000000000005 148.50000000000003 25.034482758620694 0.030889940107115488 1.4558441558441559 1380.5700000000004 0.8831224948727735 81588.780000000013
decision_type=2 2 10 10 2 2 2 2 10 10 10 8 2 2 2 2 2 2 2 10 2 2 2 2 2 2 10 10 2 2 10 2 10 2 2 10 2 2 10 10 10 2 2 10 10 2 10 2 2 10 2 2 2 10 10 10 10 2 2 2
left_child=3 2 7 5 9 6 12 11 16 21 22 -2 29 23 51 19 57 54 27 34 33 52 41 53 42 30 47 -6 -15 -1 58 46 -21 -7 -9 -20 -25 39 59 -26 -23 -4 -11 50 -17 -46 -18 -14 -40 -42 -22 -10 -3 -8 -12 -29 -13 -5 -16 -24
right_child=1 4 10 8 18 20 13 15 14 24 17 56 26 28 25 44 31 -19 35 32 43 40 38 36 37 -27 -28 55 -30 -31 -32 -33 -34 -35 -36 -37 -38 -39 48 -41 49 -43 -44 -45 45 -47 -48 -49 -50 -51 -52 -53 -54 -55 -56 -57 -58 -59 -60 -61
leaf_value=0.0048387985959643994 0.0029058807567500355 0.00075558774101653118 0.0015493586169321269 0.0040312611035363977 -0.00050241693613393686 0.0016651034769867351 0.0037909783835800713 0.0021457065143544968 0.0022445052891946972 0.0002089476141775348 -0.0012320451795639295 0.00076738834860456961 0.0041267145120932568 0.00185676659584262 0.0015879669012131138 0.00083726436392077221 0.0016144954169349372 -0.00037803486637813793 -0.002746223454604152 0.0010876875314200548 0.0015413526356739622 -0 0.00079775047697255798 0.0024070276079648425 -3.8205054697238584e-05 0.0016913309251212841 0.0029817375026952222 -0.0018082080932756708 -0.00018874856804532367 0.0038230677560733379 -0.00074361051911392114 0.0010077240445513593 -4.924438273433544e-05 0.0033001261071439977 0.00099832077602087302 -0.0045821156637011378 -0 0.00045719925165374286 -0.0011989486153147074 -0.0027238713353260782 -0.00090806051673821345 -6.230257975256662e-05 -0.0015383952187864825 -0.00074354280379655842 0.00041718227293920026 -0.0014203406588073576 0.0026810122815593561 0.0031883206388888109 0.00089750894618891887 -0.0029026224571902033 -0.0010901178607511273 0.0011051027796783563 -0.00056557584479183741 0.001721626347201776 -0.0027706435895522579 -0.0034210225344997892 0.0018416071446258021 0.0029304670246343783 1.1700618795368068e-05 -0.00071102928967757887
leaf_count=12771 10422 3906 2250 2026 884 2381 4822 6484 3553 936 1164 2503 11284 1729 942 1263 2679 2895 1449 6706 1290 2132 1579 2384 360 1583 6916 1315 921 5105 2373 2103 2310 1853 2751 2270 355 180 2342 3878 3209 798 1164 563 1030 1241 5033 3528 323 463 184 2094 858 527 1900 1487 2734 5799 977 573
internal_value=0 0.0235933 0.107319 0.301893 -0.151255 0.353481 0.3745 0.163854 0.20134 -0.0829245 -0.045121 0.239223 0.404653 0.262162 0.11316 0.109164 0.25831 -0.134438 -0.307344 0.131279 0.182943 -0.0185217 0.021393 0.310296 -0.185707 0.043136 0.362134 -0.220604 0.11111 0.455603 -0.00132153 0.205382 0.0785899 0.240849 0.181557 -0.390042 0.207336 -0.237529 -0.0325555 -0.251903 -0.0761586 0.109674 -0.0715942 0.0573689 -0.00235581 -0.0546022 0.232517 0.391163 -0.0906698 -0.119177 0.114339 0.184132 0.0496816 0.360811 -0.222249 -0.270606 0.134864 0.323177 0.083912 0.0350072
internal_count=161534 75759 51268 85775 24491 56613 50342 37444 29162 17086 13824 15659 39604 10738 11522 21785 17640 5959 7405 18251 6271 10568 7865 8088 6518 5875 21728 3686 2650 17876 4292 9815 9016 4234 9235 3719 2739 4418 4817 4238 5804 3048 2100 2037 3534 2271 7712 14812 2665 3672 1474 5647 4764 5349 3064 2802 5237 7825 1919 2152
shrinkage=0.01


Tree=15
num_leaves=63
num_cat=0
split_feature=153 107 90 76 156 106 89 107 157 157 117 92 117 153 157 131 48 90 90 131 107 157 98 102 58 33 90 33 45 59 157 33 48 107 157 115 90 33 83 52 153 124 157 105 106 117 49 58 105 56 132 147 33 153 106 33 45 132 105 105 122 157
split_gain=3079.31 617.044 503.43 426.319 207.545 187.465 158.965 131.273 97.6072 95.5095 87.747 74.8377 72.2405 69.2947 63.4208 56.8342 56.0818 50.0093 40.6959 36.2007 32.1268 30.805 30.4903 29.352 28.5527 26.3875 22.0556 27.922 17.1125 16.6094 21.7541 16.0882 14.2672 13.5118 11.4593 11.2955 10.0814 9.86774 9.03314 8.08462 7.51667 7.47677 7.36076 6.89265 6.79391 6.03476 5.91538 15.6711 5.55713 4.87185 4.2663 3.77914 3.70217 2.84941 2.73063 2.19122 1.36027 0.654234 0.396553 0.315822 0.0606748 0.0588165
threshold=12393.540000000003 -13.390476190476187 54.121323529411775 1.5000000000000002 -0.68302346125878988 13.500000000000002 38713.904913160768 -19.596296296296291 0.023127447384895861 0.0052694064195527883 2.4566559312936129 27.021988393058376 1.8576759061833688 53279.850000000006 0.0060753434044868134 20.865544871794878 13631965.500000002 22.222287581699344 9.6897368421052636 10.073500000000001 33.031250000000007 0.16237901406186564 730.02750000000003 1524329335.0000002 21.500000000000004 15834.697775853412 115.14780701754388 15511.809717364586 37.237500000000004 19.500000000000004 0.00093850965671250103 18384.901393425818 13987949.000000002 -30.985714285714284 0.034955561666680138 13.500000000000002 2.4996130952380953 12139.182396371778 3960.0900000000006 -3.4999999999999996 3533.0400000000004 776.00000000000011 0.031869742479029857 4.5000000000000009 -11.499999999999998 4.8339895013123373 21.500000000000004 21.500000000000004 -47.499999999999993 3.5000000000000004 135051.57826555884 5.6670682730923714 24382.996888467431 21600.720000000005 -30.499999999999996 6886.9592463246217 29.427500000000006 454176.80561869795 126.50000000000001 29.500000000000004 897.00000000000011 0.019192639017147881
decision_type=2 10 2 10 10 10 8 10 10 10 2 10 2 2 10 10 2 2 2 10 10 10 2 2 2 10 2 10 2 2 10 10 2 10 10 2 2 8 2 2 2 2 10 10 10 2 2 2 10 2 2 10 10 2 10 10 2 2 10 10 2 10
left_child=3 2 4 5 9 10 11 19 26 48 18 20 40 24 41 45 21 37 44 -5 -3 -11 28 -18 25 43 27 50 -10 30 54 -19 53 56 49 36 -14 -16 -32 -36 -7 51 -20 -8 -1 -9 -17 59 -2 -15 -4 -6 -30 -22 -12 -13 -21 -28 -26 -48 -29 -35
right_child=1 6 8 7 14 12 13 15 22 16 29 55 35 34 17 46 23 31 42 33 32 -23 -24 -25 58 -27 57 60 52 -31 38 -33 -34 61 39 -37 -38 -39 -40 -41 -42 -43 -44 -45 -46 -47 47 -49 -50 -51 -52 -53 -54 -55 -56 -57 -58 -59 -60 -61 -62 -63
leaf_value=0.0045645531456660138 0.0018105873352619636 0.0012306919232550797 -0.0016585145465699857 0.0036615172236357614 0.0033006850808842358 0.0040627438567799167 -0.0012112537309923366 0.0019997858203183749 -0.0038161538638667664 0.0013406256387424663 0.0038554220051873053 -0.0029587002837135152 0.0022647695955178276 -0 0.0017248661770365875 0.0011229053308070263 -0.0015444635930465884 0.00018259966693502601 0.0032431215079493513 0.0022160379700905263 0.0016677328000797452 -0.00059853280576914112 -0.0040587251285739883 -0 0.00083581040473729314 0.00062026091816845758 -0.0019876052982138971 0.0028522495994496157 -0.0019237733297993371 0.0021239197688978197 0.0026957352072770504 0.0015655564801801461 -0.0010197771878292226 0.0019671455802052142 -0.0040130127242368049 -0.00044346137045266624 0.00084922354379696435 0.0028531766747428777 0 -0.0022337399278859267 0.0023988318189999873 0.0020645616004221204 0.0006054563731312712 -0.0026473974885596473 0.0037360029640284894 -0 -8.0367059940016178e-05 0.0012849453965382901 0.00064487702180612979 -0.0022530450377292806 0.00010139111598662316 0 -0.00054025750399139694 0 0.0030822211597536149 -0.0011904930233933545 0.0031150846482999313 -0.00020452929500761426 -0.00053019473815460146 -0.001441600782013584 0.0008805335827432925 0.00073021617130656453
leaf_count=17598 5354 3208 774 3435 4871 1840 1891 5583 564 4090 10318 774 2043 392 5635 1668 2803 3461 3244 4340 591 1383 1018 4245 711 538 946 412 1842 2353 3545 2437 2180 4772 1868 550 2587 2847 327 1368 1699 2833 372 2162 4979 415 1947 1047 1818 2583 863 188 1550 1957 5158 1431 4018 710 2027 862 1434 1075
internal_value=0 0.0233788 0.0848209 0.300634 0.133659 0.352052 -0.111316 0.200411 -0.116828 0.056403 0.377518 -0.012713 0.210831 -0.184399 0.20149 0.11272 0.0002568 0.157296 0.420075 0.257061 0.03446 0.0832805 -0.221596 -0.0628653 -0.111555 -0.167575 -0.0133528 0.0388477 -0.170991 0.325567 0.338735 0.0771786 -0.0237303 0.229804 -0.268538 0.127249 0.14976 0.211738 0.248369 -0.329824 0.329863 0.280542 0.300045 -0.200497 0.438754 0.18598 0.0312679 -0.00144277 0.152964 -0.197907 -0.0676089 0.319718 -0.132285 0.0395462 0.360575 -0.186358 0.266245 -0.128603 -0.0138816 -0.0535412 0.138347 0.175759
internal_count=161534 75759 52078 85775 41965 56613 23681 29162 10113 19693 47894 10141 8719 13540 22272 11522 12521 14380 26193 17640 7936 5473 4974 7048 7329 4591 5139 3483 3956 21701 19348 5898 4728 14205 6211 5180 4630 8482 3872 3236 3539 7892 3616 4053 22577 5998 5524 3856 7172 2975 1637 5059 3392 2548 15476 2205 8358 1656 2738 2809 1846 5847
shrinkage=0.01


Tree=16
num_leaves=58
num_cat=0
split_feature=153 134 106 76 157 134 59 134 107 76 76 51 84 14 131 157 134 134 157 134 134 106 137 116 134 99 157 102 131 102 51 49 134 106 153 157 153 134 153 131 51 121 39 157 110 134 102 137 134 122 157 134 153 124 141 157 51
split_gain=3056.61 1007.69 432.8 423.457 246.139 185.676 151.686 136.128 129.694 127.403 84.6331 79.9071 74.4332 69.0956 56.3769 49.7271 46.2024 44.7162 33.37 32.4349 32.045 31.3169 25.8082 25.7151 23.6801 22.2298 21.8987 21.7979 21.5427 24.0897 19.2004 19.0207 14.3781 12.7091 12.0147 11.5365 11.0889 10.577 9.00753 8.79978 6.67588 6.32822 6.1292 5.53886 4.9981 4.90739 4.80367 4.68124 4.45205 4.24138 4.23104 3.84565 3.23983 3.10909 2.26491 1.7658 1.1418
threshold=12393.540000000003 1.477816919550466 1.0000000180025095e-35 1.5000000000000002 0.0068555219975011423 1.3934403632741355 19.500000000000004 3.0043361373383983 -19.596296296296291 1.5000000000000002 5.5000000000000009 113.73123827392122 11501.000000000002 19.500000000000004 20.865544871794878 0.028254416551625871 2.7524709832716976 0.64569940652324676 0.0093566327810519524 2.6809247996997612 0.66791404853873815 -27.499999999999996 -0.78912015734675822 1.4255864702673215 0.94374785196997124 970.1350000000001 0.057796594753153657 1524311704.0000002 138.57310324367091 1524497077.0000002 198.41510745891281 148.50000000000003 1.5083894801525561 -17.499999999999996 73151.000000000015 0.0052694064195527883 35752.030000000006 1.2414977054941023 21600.720000000005 10.073500000000001 130.29579915485962 520.50000000000011 1.8896499238964994 0.0031059379034347611 1.4433760683760686 0.30135233819753332 1521979470.5000002 -0.88130296610169478 1.6696068946605027 1338.5000000000002 0.0016105841903119194 7.5313176893693621 30600.510000000006 897.00000000000011 42.500000000000007 0.0093566327810519524 67.669540229885072
decision_type=2 2 10 10 10 2 2 2 10 10 10 2 2 2 10 10 2 2 10 2 2 10 10 2 2 2 10 2 10 2 2 2 2 10 2 10 2 2 2 10 2 10 2 10 10 2 2 10 2 2 10 2 2 2 2 10 2
left_child=3 2 9 5 16 6 21 11 17 12 20 26 24 -8 48 27 30 39 -14 33 34 -1 -17 -15 55 56 -6 43 -13 -30 -3 46 44 -7 47 -26 -28 53 -22 -5 -18 51 -20 -11 -19 -23 -12 -4 -10 -40 -42 54 -24 -16 -21 -2 -9
right_child=1 4 10 8 7 19 13 25 14 15 31 28 18 23 37 22 40 32 42 41 38 45 52 -25 35 -27 36 -29 29 -31 -32 -33 -34 -35 -36 -37 -38 -39 49 -41 50 -43 -44 -45 -46 -47 -48 -49 -50 -51 -52 -53 -54 -55 -56 -57 -58
leaf_value=0.0043198014424295833 0.0032348339297589208 0.0014093817868065549 0.0025978683894281431 0.0040644012705388826 0.00019066464206427884 0.0032683482874415904 0.0032601938503176958 -0.00060563244725316489 0.0019991400811624413 0.0013034732756169057 -0.0026161399403061992 -0.00078156120560439067 0.0022042875555629404 0.001986935483273292 0.0011139451527616762 0.00085327028592475582 0.00039165436543145096 0.0015943974220065116 0.00067471476461708772 0.00016183736000877186 0.00065017768598932615 0.0041763946387639323 0.00016237251226791649 -8.3514909787783657e-05 0.0027465874273471698 -0.0042222494646292014 0.00012406205090285035 0.0017551410039207988 -0.0031398990694567219 -0.0011140423331927876 -0.000118493515374786 -0.00071206627494897886 0.0009905993243383769 0.0016449491419583753 -0.00014562006372384522 0.001171288764292484 -0.0018213329404813223 -0.00067805715454644035 0.00040364683765736135 0.0028152224730026184 -0.00018122611978266975 -0.000781570239217843 -0.00092285751621291781 0 0.0026541713826245951 0.0033666086923318469 -0.00029122888982944834 0.00087569870231965898 7.9798719865105019e-06 -0.00094985396733887422 -0.0021449623099952532 -0.0010952231212103707 -0.0012669898527063659 -0 0.002346176277662921 0.0024442108956220523 -0.0028148073706199457
leaf_count=22588 5313 2804 867 2336 2841 1854 6705 394 5508 1661 2156 1295 1658 2873 2573 2739 483 2679 1912 532 1332 4822 823 1040 1504 3047 640 7057 3795 1284 2032 2632 2103 2380 1049 2978 1975 1437 852 5489 669 560 894 2183 5033 12314 422 1801 490 3678 1283 184 1771 1514 761 6040 1895
internal_value=0 0.0231413 0.103217 0.299376 -0.144614 0.350625 0.371562 -0.211224 0.199481 0.162348 -0.0422098 -0.147701 0.217511 0.259017 0.112273 0.0927013 0.0113797 0.255816 0.0924784 0.180743 0.0158348 0.401341 0.00420926 0.141297 0.252082 -0.349803 -0.0511522 0.135071 -0.228656 -0.26494 0.0748326 -0.150639 0.203086 0.238358 0.0994345 0.172551 -0.130946 0.0310937 -0.0355924 0.320437 -0.110509 0.0557802 0.0130149 0.0580971 0.230065 0.360202 -0.22751 0.147776 0.185281 -0.0673709 -0.152487 0.113225 -0.0777258 0.0682948 0.152848 0.28248 -0.248018
internal_count=161534 75759 51322 85775 24437 56613 50342 17166 29162 36533 14789 11830 20299 10618 11522 16234 7271 17640 4464 6271 9579 39724 5333 3913 15835 5336 5456 10901 6374 5079 4836 5210 9815 4234 3717 4482 2615 5524 5862 7825 2435 2037 2806 3844 7712 17136 2578 2668 5998 4530 1952 1477 2594 4087 1293 11353 2289
shrinkage=0.01


Tree=17
num_leaves=56
num_cat=0
split_feature=136 84 106 76 136 103 141 121 47 47 76 101 136 131 118 153 136 136 47 119 136 118 57 136 118 76 153 48 118 118 47 47 84 57 54 136 48 136 105 47 48 48 155 154 90 136 131 84 136 113 103 102 101 107 102
split_gain=3165.9 810.454 486.61 358.868 290.682 197.547 183.693 162.014 153.934 125.865 104.519 63.2547 60.9896 60.6732 59.5041 45.9529 45.3209 43.3861 34.9274 32.78 29.907 29.8459 27.9687 43.8428 26.1856 25.5919 25.3189 21.4423 21.0894 19.4311 17.184 13.8976 13.5278 13.3502 12.5668 12.5441 11.8052 11.4651 11.3127 8.0627 7.0264 7.01282 6.51103 6.12848 5.77326 4.53017 4.02253 2.5044 2.10973 2.04709 1.91691 0.883905 0.718893 0.504986 0.112887
threshold=0.069524879872947462 7770.4200000000001 -18.499999999999996 4.5000000000000009 0.34924162588609869 1518427054.5000002 80.500000000000014 475.50000000000006 1499286505.0000002 1501889627.0000002 1.5000000000000002 324880.29920000007 0.17228202462490727 122.33827956989246 3.3294573643410854 30600.510000000006 0.20296973690489814 0.12791980109744808 1507161637.0000002 14.250000000000002 0.19303344125938177 2.9298029556650254 18.591229193341871 0.023881226191624364 2.6485294117647062 4.5000000000000009 7028.3100000000013 12558607.000000002 2.0128205128205132 2.858803986710964 1507590558.0000002 1487440576.5000002 5580.5500000000011 18.144832189168579 -3.757464349376114 0.20296973690489814 14353143.000000002 0.18666768327538732 -59.499999999999993 1510531560.5000002 12684421.000000002 11291228.000000002 0.30445982184696535 100.50000000000001 72.605555555555569 0.30062050175505756 66.143184024713165 22002.800000000003 0.029933539382874821 18.252272727272729 1519913723.0000002 1522757120.0000002 5640.9983444703466 -43.976190476190474 1524740992.5000002
decision_type=2 2 10 10 2 2 2 10 2 2 10 8 2 10 2 2 2 2 2 2 2 2 2 2 2 10 2 2 2 2 2 2 2 2 2 2 2 2 10 2 2 2 10 10 2 2 10 2 2 10 2 2 8 10 2
left_child=2 3 14 9 8 6 29 15 12 17 24 18 31 34 -1 36 28 19 42 -2 50 40 23 -16 -7 41 -12 35 -11 -4 -22 47 -26 -21 -9 -15 -5 -29 -17 52 -19 -8 53 -43 -14 -40 -27 -3 -28 -30 -10 -33 -18 -6 -38
right_child=1 4 5 7 11 10 25 13 20 16 26 -13 44 27 22 38 39 21 -20 33 30 -23 -24 -25 32 46 48 37 49 -31 -32 51 -34 -35 -36 -37 54 -39 45 -41 -42 43 -44 -45 -46 -47 -48 -49 -50 -51 -52 -53 -54 -55 -56
