tree
version=v2
num_class=1
num_tree_per_iteration=1
label_index=0
max_feature_idx=157
objective=huber
feature_names=Unnamed:_0 feature_1 month elapsed_time hist_authorized_flag_mean hist_card_id_count hist_category_1_sum hist_category_1_mean hist_category_1_std hist_category_2_1.0_sum hist_category_2_4.0_sum hist_category_2_4.0_mean hist_category_3_A_sum hist_category_3_A_mean hist_category_3_B_sum hist_category_3_B_mean hist_category_3_C_sum hist_category_3_C_mean hist_month_nunique hist_hour_mean hist_weekofyear_mean hist_weekofyear_nunique hist_day_nunique hist_day_mean hist_dayofweek_mean hist_weekend_sum hist_weekend_mean hist_duration_min hist_duration_max hist_price_sum hist_price_mean hist_price_max hist_price_min hist_price_var hist_amount_month_ratio_max hist_amount_month_ratio_min hist_installments_sum hist_installments_max hist_installments_var hist_installments_mean hist_merchant_category_id_nunique hist_merchant_id_nunique hist_purchase_amount_mean hist_purchase_amount_max hist_purchase_amount_min hist_purchase_amount_median hist_purchase_date_max hist_purchase_date_min hist_purchase_date_ptp hist_time_since_purchase_date_min hist_time_since_purchase_date_max hist_time_since_purchase_date_mean hist_month_lag_min hist_month_lag_max hist_month_lag_mean hist_month_lag_var hist_month_lag_ptp hist_month_diff_mean hist_month_diff_min hist_month_diff_max hist_month_diff_var hist_store_size_min hist_store_size_mean hist_city_size_min hist_city_size_mean hist_state_size_mean hist_subsector_size_min hist_subsector_size_max hist_subsector_size_mean hist_category_size_min hist_category_size_max hist_category_size_mean new_card_id_count new_category_1_sum new_category_1_mean new_category_2_1.0_mean new_category_3_A_sum new_category_3_B_mean new_month_nunique new_weekofyear_nunique new_day_nunique new_day_ptp new_day_mean new_duration_min new_duration_max new_price_sum new_price_mean new_price_max new_price_min new_price_var new_amount_month_ratio_max new_amount_month_ratio_min new_amount_month_ratio_ptp new_installments_sum new_installments_mean new_merchant_category_id_nunique new_merchant_id_nunique new_purchase_amount_sum new_purchase_amount_mean new_purchase_amount_max new_purchase_amount_min new_purchase_amount_var new_purchase_date_max new_purchase_date_min new_purchase_date_ptp new_time_since_purchase_date_min new_time_since_purchase_date_max new_time_since_purchase_date_mean new_month_lag_min new_month_lag_max new_month_lag_mean new_month_lag_var new_month_lag_ptp new_month_diff_mean new_month_diff_max max_repeat_purchases mean_repeat_purchases mean_merchant_purchases mean_category_purchases mean_monthly_purchases hist_purchase_date_uptonow new_purchase_date_uptonow days_feature1 days_feature2 days_feature3 days_feature1_ratio days_feature2_ratio days_feature3_ratio first_month first_year category_1_mean new_CLV hist_CLV transactions_ratio mean_purchase_ratio max_purchase_ratio sum_purchase_amount_ratio mean_month_lag_ratio mean_month_diff_ratio sum_installments_ratio mean_installments_ratio transactions_product mean_purchase_product sum_purchase_amount_product mean_month_lag_product mean_month_diff_product sum_installments_product mean_installments_product min_duration_product hist_min_duration_weighted hist_max_duration_weighted hist_time_since_purchase_date_min_weighted new_min_duration_weighted new_max_duration_weighted new_time_since_purchase_date_min_weighted sum_price_ratio mean_price_ratio CLV_Ratio
feature_infos=[0:201916] [1:5] [1:12] [577:2830] [0.03048780487804878:1] [2:2912] [0:1786] [0:1] [0:0.70710678118654757] [0:2140] [0:1381] [0:1] [0:2910] [0:1] [0:1748] [0:1] [0:514] [0:1] [2:12] [0.59999999999999998:22.5] [1.875:51.039999999999999] [1:52] [1:31] [1:30.333333333333329] [0:6] [0:652] [0:1] [0:331500] [21.200000000000006:2200104653.1999998] [-147974.91766666668:inf] [-2791.1500000000001:inf] [1.0600000000000001:inf] [-106700.49000000001:inf] [0:574480373352910.38] [0.053000000000000005:5764764.9482352948] [0:1147.0588235294115] [-5:2075] [0:12] [0:49] [-0.42857142857142855:11.800000000000001] [1:95] [1:398] [1.0228571428571429:6406137.3664285727] [1.0600000000000001:110005232.66] [0:19500] [0.01:20000] [1485935216:1519862391] [1483228808:1514761726] [152065:36625306] [-1:391] [58:422] [9.8888888888888911:413.125] [-13:-1] [-11:0] [-12.452380952380953:-0.01492537313432836] [0.014925373134328353:49] [1:13] [17:30] [17:30] [17:30] [0:0.5] [3.43496702311434e-08:0.038303214225737306] [1.0991894473965886e-07:0.038303214225737334] [1.5457351604014531e-06:0.2512357207991478] [7.6737163296374355e-05:0.25123572079915674] [0.00024845116478186021:0.45416258063027959] [4.2593591086617823e-06:0.19223442578223046] [0.00046110997318286895:0.19223442578223046] [0.00046110997318286895:0.1922344257822306] [3.43496702311434e-08:0.19085573306816306] [4.5101117013491277e-05:0.19085573306816306] [4.5101117013491277e-05:0.1908557330681632] [0:109] [0:16] [0:1] [0:1] [0:90] [0:1] [1:2] [1:10] [1:30] [0:30] [1:31] [0:538200] [0:1030576] [-49718.589999999997:inf] [-12000:inf] [-12000:inf] [-50000:inf] [0:211770330.74240232] [0:2941.1764705882347] [0:1661.1111111111111] [0:2940.8786928104573] [-6:152] [-1:12] [1:37] [0:109] [0:78560.550000000003] [0:29900] [0:51528.800000000003] [0.01:29900] [0:992008244.64499998] [-9223372036.8547764:1525132778] [-9223372036.8547764:1525131828] [-9223372036.8547764:5343723] [-62:361] [-62:363] [-62:361] [1:2] [1:2] [1:2] [0:0.5] [0:1] [17:30] [17:30] [1:1458] [1:89.5] [1:494] [1:494] [1:1456] [518:911] [457:880] [577:10495] [577:8490] [0:2830] [0.0005977286312014345:0.0086655112651646445] [0.00035335689045936394:0.0051993067590987863] [0:0.0017331022530329286] [1:12] [2011:2018] [0:2] [0.00047619047619047619:156493.86439655171] [1.8551724137931036:2309386377.5539236] [0:15.25] [0:430.6524696982936] [0:347.99283154121866] [0:66.955298472929186] [-91.480769230769241:-0.082018927444794956] [0.94444444444444442:1.0588235294117647] [-inf:inf] [-inf:inf] [0:105248] [0:1697711264.448468] [0:192685132210.37164] [-24.5625:-0.0203788748564868] [289:900] [-1190:141480] [-7:116.57142857142857] [0:10084564657.440001] [0:3857546] [296.80000000000007:679338165394.20007] [-2143:259168] [0:538200] [0:31372800] [-6758:21760] [-inf:inf] [-inf:inf] [3.0763431955009533e-11:397.49381246076837]
tree_sizes=5155 5127 5181 4931 5245 4975 4689 5078 5105 4600 5116 4969 4901 5209 5101 4656 4676 4944 4923 4633 4694 4504 4756 5113 4990 4366 5126 4813 4780 4454 4806 4818 4497 4814 4734 4607 4894 4738 4950 4476 4844 5089 4371 4516 4382 4452 4711 4580 4698 4216 4621 5038 4721 4616 4661 4756 4404 4748 4773 4722 4432 4761 4428 4658 4372 4627 4469 4510 4529 4540 4384 4529 4298 4407 4691 4615 4602 4105 4056 4333 4689 4510 4733 4369 4794 4076 4337 4379 4720 4511 4496 4503 4762 4376 4907 4417 4308 4195 4065 4107 4373 4320 4461 4172 4259 4003 4121 4041 4457 4281 4017 4130 3687 4050 4178 4006 4338 3739 3977 3655 3857 3897 3583 4620 3742 3579 3538 4150 3741 4082 4012 3732 3789 4350 4108 3516 3437 3855 3639 4131 4077 4076 3531 3901 4034 3413 4006 4071 3348 3682 3897 3408 3819 3875 3701 3829 3528 3809 3494 3419 3632 3470 3484 3022 3603 3368 3391 3593 3643 3470 3499 3253 3256 3400 3475 3234 3329 3442 3266 3184 3084 3541 3772 3091 3359 3831 3178 3415 3186 3346 3560 3581 3142 3484 3458 3650 3064 3416 3475 3330 3404 2831 2892 2961 3521 3140 3102 3159 3338 3043 2919 3427 3361 3116 3167 3541 3286 2929 2960 3021 2811 3117 3075 2982 3643 3082 2898 2934 2825 2907 3074 3154 2840 3015 3089 3015 2620 3078 2613 2529 3085 2917 2539 2998 2796 3024 2835 2760 3357 2781 3086 2625 2907 2495 2563 3005 3019 2697 2991 2717 2823 2855 2613 2578 2933 2285 2720 2686 3438 2762 2631 2652 2851 2765 3031 2657 2922 2398 2674 2583 2609 2552 2711 2964 2373 2423 3035 2539 2625 3107 2538 2514 2665 2827 2257 2358 2532 2176 2519 2245 2113 2341 2535 2439 2124 2671 2453 2751 2429 2356 2625 2511 2370 2350 2433 2180 2844 2242 2296 2329 2267 2360 2438 2097 2043 2080 2355 2509 2728 2172 2437 2273 2206 1992 2915 2286 2519 2357 2199 2257 2290 2443 2025 2513 2185 2121 2444 2508 2086 2320 2293 2370 2116 2526 2264 2508 2209 2044 2432 2177 2448 2230 2288 2029 2099 2060 2127 2438 2207 1872 2104 2448 2124 2037 2275 2261 2093 1842 2272 2062 2348 2202 2209 2287 2276 2346 2279 2086 1957 1961 2128 2330 1923 2206 1786 1956 2329 1935 1971 2036 1933 2206 1952 1794 2105 2206 1961 2023 2018 1872 1592 1929 2288 2221 1951 2033 1787 1947 1901 2115 1605 1939 2094 1845 1779 1950 2207 1955 1859 1959 1705 1958 2018 2012 1992 1960 1756 2100 1953 1843 2118 2086 1955 1853 2204 2023 1740 1610 2012 1697 1762 1686 1541 1796 2126 1521 1872 1744 1767 1961 1780 1796 1619 1857 1869 1771 1757 2101 1773 2116 1615 1704 1871 1536 1619 1682 1622 1546 1697 1618 2078 1779 1752 1876 1956 1865 1945 1956 2043 1508 1780 1837 1454 1706 1617 1529 1428 1938 1783 1614 1865 1614 1792 1790 1866 1879 1854 1527 1706 1937 1770 1800 1428 1624 1483 1711 1541 1371 1273 1625 1740 1771 1765 1689 1408 1376 1598 1603 1708 1626 1436 1459 1706 1443 1620 1437 1587 1453 1623 1596 1379 1590 1713 1765 1532 1454 1460 1287 1637 1353 1370 1630 1540 1526 1616 1624 1879 1877 1348 1626 1370 1619 1451 1353 1362 1268 1620 1195 1697 1702 1540 1213 1537 1533 1328 1783 1845 1436 1451 1372 1290 1268 1438 1797 1764 1523 1451 1635 1366 1546 1695 1206 1048 1280 1711 1253 2038 1284 1351 1338 1596 1371 1445 1360 1363 1369 1531 1437 1212 1201 1916 1292 1430 1293 1533 1360 1533 1203 1181 1032 1602 1096 1703 1364 1599 1282 1587 1376 1022 1186 1456 1626 1451 1350 1354 1108 1361 1209 1344 950 1033 1610 1207 1115 1361 1115 1360 1113 1189 1375 1456 1339 1787 1203 1205 1124 1026 1203 1159 1350 1375 1366 1033 1191 1117 1119 1027 1026 1498 1356 1036 1504 1367 1544 1117 949 1202 868 1210 1287 1450 1093 1035 1284 1120 1116 1029 1534 1206 1203 1361 1038 1217 1036 1123 1181 1284 1094 1033 1025 1108 1528 1115 1113 703 1379 1115 1186 947 1265 1439 1270 948 1204 1259 1115 1114 1008 1119 1290 779 1168 943 1033 864 945 951 1120 1455 1193 1032 1194 1125 1117 1195 1286 1174 1040 866 1035 1009 1115 1284 1179 1111 1281 1364 1029 859 1290 856 1040 950 954 1110 946 1115 864 1200 863 951 1110 1037 1200 1537 1033 1038 943 947 1033 1026 1295 1110 1038 1102 868 1462 1213 1119 1130 1117 1019 863 947 705 942 1041 951 1018 1628 694 1098 1030 779 1030 1026 779 1206 949 948 1211 762 785 701 860 843 949 865 850 781 855 1026 1030 941 692 950 1198 955 781 1037 1040 858 864 948 870 1286 861 694 865 775 1116 951 703 703 856 949 844 865 778 698 947 701 944 779 862 1034 1024 691 865 950 1215 853 856 775 783 946 871 616 775 614 763 779 762 698 699 675 859 783 862 784 861 784 947 1026 785 1116 608 866 844 696 948 763 692 929 1013 767 707 865 929 617 870 766 787 693 778 696 701 782 843 788 950 781 704 843 778 776 864 781 949 841 694 531 916 762 699 698 700 1016 1124 679 787 926 1103 695 1024 777 782 867 770 1027 533 700 699 861 701 619 949 703 753 872 781 699 693 622 700 776 614 863 701 697 693 614 779 619 611 625 1045 539 955 781 861 866 775 699 864 702 778 705 866 1029 699 615 865 705 769 702 777 612 450 534 703 700 529 611 697 778 860 533 697 611 787 615 530 777 698 621 615 776 862 697 694 620 530 708 537 615 693 584 621 779 615 528 621 617 698 613 698 619 613 539 529 623 696 611 537 622 617 617 451 705 532 534 535 539 706 539 611 508 619 619 445 617 784 613 446 449 534 449 452 614 612 532 597 448 626 783 699 695 448 533 533 614 455 535 523 790 448 452 680 538 534 698 451 532 695 535 451 533 365 447 540 530 450 455 450 541 535 520 449 363 367 446 452 429 439 620 614 450 453 536 454 368 620 530 451 536 527 451 365 701 447 536 370 447 537 535 452 449 367 530 455 535 366 455 530 454 540 454 281 368 537 455 533 453 369 367 371 532 280 598 452 450 455 447 367 281 282 452 534 367 599 540 282 369 366 282 451 529 362 368 281 445 368 451 281 451 282 454 448 370 283 452 366 282 284 284

Tree=0
num_leaves=63
num_cat=0
split_feature=84 76 84 33 106 102 106 34 84 95 117 95 117 42 106 93 32 133 84 84 92 92 84 57 105 34 90 57 110 92 114 84 150 84 76 105 133 76 45 94 41 34 92 139 133 133 34 57 57 121 84 72 90 84 150 95 117 110 94 14 84 117
split_gain=2745.74 1153.12 676.968 452.448 324.701 299.821 176.847 150.471 133.28 111.253 92.3845 76.8805 75.4043 68.6188 67.6637 44.7165 43.7761 41.9257 41.6313 36.7834 31.698 30.3274 28.9678 27.3994 27.1135 27.109 26.4268 23.4008 26.1152 22.1046 21.9461 19.8494 17.2815 15.1296 14.2089 14.1631 13.8941 12.9342 12.0272 10.6133 10.1619 9.34061 8.41081 7.47161 6.67988 6.10294 5.40321 4.9741 12.5285 3.9762 3.94705 2.98927 2.96651 2.89637 2.86022 2.17503 2.16449 2.10078 1.89116 1.22389 1.05426 0.412486
threshold=3959.5500000000006 2.5000000000000004 14403.690000000001 4585.0625670736081 10.500000000000002 1522776326.0000002 2.5000000000000004 70.470882352941189 40500.580000000009 4.5000000000000009 1.9792740549828178 6.5000000000000009 2.1004587155963308 55.07198428961749 53.500000000000007 6.5000000000000009 -499.99499999999995 0.049114974937343368 2210.0350000000003 6771.4750000000013 8.1823039215686286 0.58823529411764752 33642.500000000007 21.835585585585587 -52.499999999999993 58.823235294117652 26.765686274509807 18.145643939393942 1.7280431432973808 1.1407486631016044 18.500000000000004 1003.0700000000001 4702690.0000000009 924.15000000000009 5.5000000000000009 11.500000000000002 0.050044722719141337 1.5000000000000002 49.002500000000005 0.34166666666666673 40.500000000000007 47.699473684210538 8.0732906799083306 0.10533428165007112 0.053595365760245123 0.099913941480206561 166.67196969696974 21.835585585585587 17.537364199411112 478.50000000000006 2340.0250000000005 7.5000000000000009 28.4314705882353 1660.3100000000002 2904906.1200000006 10.500000000000002 5.003731343283583 1.4122315592903829 2.0801282051282053 22.500000000000004 1700.0850000000003 2.6502032520325209
decision_type=2 10 2 10 10 2 10 2 2 10 2 10 2 2 10 10 2 2 2 2 10 10 2 2 10 2 2 2 8 10 10 2 2 2 10 10 2 10 2 10 2 2 10 10 2 2 2 2 2 10 2 2 2 2 2 10 2 10 10 2 2 2
left_child=1 4 3 6 12 9 13 22 16 33 21 31 15 39 19 37 54 -15 27 41 -8 -6 38 35 50 58 -19 28 -14 61 32 -7 -18 -3 57 51 -33 60 59 45 -40 -5 -16 -27 -36 -2 -10 48 -35 -38 55 -11 -41 -25 -9 -13 -29 -22 -21 -4 -1 -12
right_child=2 5 7 14 10 11 20 8 46 23 29 24 18 17 42 -17 30 26 -20 25 34 -23 -24 53 -26 43 -28 56 -30 -31 -32 36 -34 47 44 -37 49 -39 40 52 -42 -43 -44 -45 -46 -47 -48 -49 -50 -51 -52 -53 -54 -55 -56 -57 -58 -59 -60 -61 -62 -63
leaf_value=-0.39117837557988222 -0.3964741288974335 -0.39420484895366231 -0.40014902892938409 -0.39412294343879023 -0.3919731194522087 -0.39291997321772343 -0.39613771149862853 -0.39606975487226953 -0.39969664850846109 -0.396136135776128 -0.39354861688695281 -0.39368733299058672 -0.39270835627783912 -0.39405048440069185 -0.39432079677724191 -0.39289725803148445 -0.3969875270859145 -0.3950980885329623 -0.39351029393712844 -0.39509579768302522 -0.39796435727352203 -0.3938321090795 -0.40051412974878742 -0.39473410197146919 -0.39600792546346197 -0.39343270275663317 -0.39654562006234134 -0.3929291448318582 -0.39182004034140172 -0.39568170467871583 -0.39802335300607383 -0.39329788931826382 -0.39527224320960658 -0.39487593625147266 -0.39632640823437709 -0.39856338585839007 -0.39426318242668618 -0.39258478482333758 -0.39828050301350193 -0.39498139163306895 -0.39606975487226953 -0.39279290223984958 -0.39639337316905254 -0.39464837615520559 -0.39892936126445683 -0.39812290588436422 -0.39804229152332238 -0.39457296511259454 -0.39665777429378068 -0.39603989664486666 -0.39515724587599499 -0.3976110791561569 -0.39749522285846195 -0.39643104708077703 -0.39450992308659799 -0.3952198603105046 -0.39441949676963856 -0.39663594214091114 -0.39678190345864439 -0.39808590132905747 -0.39196349520456869 -0.39484861582471537
leaf_count=13263 1482 2262 1108 2042 2273 5054 1931 916 1224 1316 1482 2608 10077 3212 555 4097 2215 5073 5517 1918 1416 3308 1409 624 2341 3550 2515 3727 12873 3216 1487 3554 1526 1151 367 1585 4489 2612 2368 791 587 4805 1577 2514 2322 1219 1990 1086 1743 608 2340 1327 239 1349 1666 927 1035 1862 450 695 4798 1861
internal_value=0 0.280135 0.00667564 0.078922 0.35405 0.128939 -0.0155915 -0.16015 -0.0865624 0.00214916 0.201212 0.20044 0.385841 0.0511772 0.20118 0.432217 -0.0120937 0.0947342 0.350881 0.226149 -0.139583 0.3017 -0.289837 -0.0959574 0.116801 0.173156 0.0479164 0.36935 0.386523 0.113964 -0.0713864 0.249774 -0.019208 0.101156 -0.180868 -0.149008 0.210301 0.454399 -0.241335 -0.0722503 -0.180137 0.289712 0.0175393 0.21516 -0.254207 -0.118817 -0.264025 0.0499474 0.00887123 0.161397 0.159165 -0.0845887 0.0405227 0.0129919 0.104073 0.201075 0.284037 -0.117277 0.0611486 -0.33502 0.469013 0.183109
internal_count=161534 104503 57031 39840 70139 34364 22429 17191 11024 12443 12140 21921 57999 14531 17411 24770 7810 10800 33229 15279 7898 5581 6167 6201 8216 8432 7588 27712 22950 6559 5228 13705 3741 6242 5967 4228 8651 20673 4758 3731 2955 6847 2132 6064 2689 2701 3214 3980 2894 5097 5875 2643 1030 1973 2582 3535 4762 3278 2368 1803 18061 3343
shrinkage=1


Tree=1
num_leaves=63
num_cat=0
split_feature=136 135 114 51 76 131 84 131 135 84 76 136 136 5 51 135 84 57 136 21 48 21 133 101 89 131 21 51 95 121 76 51 131 121 50 101 86 51 84 121 77 51 130 121 84 84 116 76 123 121 131 56 135 77 55 151 48 91 77 131 145 145
split_gain=3487.69 844.282 639.276 436.801 364.522 244.813 208.062 199.644 143.17 98.5016 84.2118 60.9156 57.9854 52.9134 52.7895 51.0014 49.1678 50.6203 43.3765 39.1882 32.594 31.5904 26.698 24.8254 23.0739 22.2352 21.5232 17.1414 14.3022 12.3033 12.0272 11.3155 10.4949 10.279 10.1862 10.0004 9.91847 9.8817 8.24523 8.12109 7.0985 6.85791 6.37207 6.25483 5.31014 4.87187 4.33114 4.24568 3.89087 3.76194 7.76192 3.42538 3.40367 3.22319 2.99325 2.22529 1.69226 1.5334 1.4069 1.17994 1.09232 0.909521
threshold=0.090827556240274984 0.99859700905155457 18.500000000000004 114.76059701492538 2.5000000000000004 14.150833333333335 9300.0600000000031 82.472385143838565 0.34622010183458246 6771.4750000000013 3.5000000000000004 0.040496095026811139 0.17183391985401364 65.500000000000014 125.04625668449201 1.7080580827291405 2310.0750000000003 18.16704374057316 0.25341264925740309 9.5000000000000018 26774374.000000004 13.500000000000002 0.12770643921642141 325592.30896954704 7664.7931666666673 63.088380341880359 17.500000000000004 179.60477313384291 8.5000000000000018 459.50000000000006 4.5000000000000009 115.78619047619048 255.94816576086961 524.50000000000011 130.50000000000003 150577.06052476194 409.83850000000001 77.978492136910276 9100.5000000000018 606.50000000000011 0.56385869565217395 65.956984273820552 1.5033333333333336 478.50000000000006 2763.9450000000006 18816.440000000006 2.0539087474571347 1.5000000000000002 684.00000000000011 483.50000000000006 164.38133102852206 10.500000000000002 0.38609057913096528 0.92637759710930456 0.38066348973607034 1321.5000000000002 12445302.500000002 0.17656862745098043 0.57321428571428579 14.703137254901963 302.03330649490073 302.30213054918949
decision_type=2 2 10 2 10 10 2 10 2 2 10 2 2 2 2 2 2 2 2 2 2 2 2 8 8 10 2 2 10 10 10 2 10 10 2 8 10 2 2 10 10 2 10 10 2 2 2 10 2 10 10 2 2 10 2 2 2 2 10 10 10 10
left_child=2 3 4 9 8 21 14 19 16 10 34 49 22 36 32 31 17 47 48 59 -13 -4 27 37 52 56 -19 -9 44 -27 33 -8 41 -15 -2 -20 55 -17 -10 -32 -21 -3 51 -22 -12 -26 -23 -1 -11 50 -6 -18 -14 -31 -39 -7 -16 -57 -34 -5 -30 -24
right_child=1 6 5 7 11 13 15 12 38 18 28 20 24 30 25 23 42 26 35 40 43 46 61 -25 45 29 -28 -29 60 53 39 -33 58 -35 -36 -37 -38 54 -40 -41 -42 -43 -44 -45 -46 -47 -48 -49 -50 -51 -52 -53 -54 -55 -56 57 -58 -59 -60 -61 -62 -63
leaf_value=0.0044162215356462475 0.0033554301476978621 0.0017081625603696526 0.003560919051233187 0.0031296031595231823 0.0031962084992200263 0.0036110359995530869 -0.0010414759758533873 -0 0.0026290086716917521 0.0022195447948052866 0.0020912645444931526 0.0021670022255053504 0.0006149975050731112 0.0011157426330804477 0.0009786887487665541 -0.0013673094396384851 0.0037259762418761877 0.0037841940889700443 5.6517017919680911e-05 0 0.0010634168666867323 0.002087955081899533 0.0011012410843799429 -0.0045847425792619129 -0.0017393231460125817 0.00027982689571524189 0.0022767799533831407 -0.0015477956136195215 0.00071056772176342263 -0.0026410833173960103 -0.0016171981158785154 -0.0025935213696176864 -0.001189451345139159 -0.00031976043535893102 0.0022768374678842312 -0.0018414863701413742 0.00031958309393605438 0 0.0013060826385201596 0 0.0017266556261983687 0 0.0002881574170676875 -0.0003699867492368923 0.00047510597686542652 -0.0032141354232159158 -0.00044182248781922905 0.0035709187219522269 0.00089874499407023134 0.0017870913964960556 0.0020346609247951638 0.0029359189223475547 -0.0011048297642891488 0 -0.003545303381214102 -0.00077248683082580569 -0.0008878849641319657 0.0016766912753091881 0.0004940161366704136 0.0016021668122805752 -0.00095159622731529579 -0
leaf_count=30040 4749 1059 3400 988 6713 399 1826 2044 4965 1358 2738 4692 647 1482 435 910 7164 4578 1750 2881 3534 3813 1413 2442 4042 259 2675 2718 1782 2378 1658 2426 1198 2678 4266 739 1535 77 1770 1099 731 1420 244 884 955 1109 166 3768 3013 1874 2394 6154 1145 126 1937 148 1062 1948 488 1984 460 2204
internal_value=0 -0.00404381 0.298594 0.0713475 0.336926 0.127625 -0.187193 -0.0291291 0.375952 0.172682 0.220693 0.217154 -0.0935726 0.029797 -0.0681738 -0.290296 0.393762 0.413786 0.0665061 0.119303 0.149395 0.271253 -0.0315318 -0.363356 -0.166928 -0.153528 0.324478 -0.0896635 0.119867 -0.217827 -0.0268406 -0.195301 0.0169414 0.0169634 0.285829 -0.0472512 0.129259 -0.279552 0.22977 -0.0962864 0.0376106 0.0762539 0.332209 0.0754604 0.170145 -0.208022 0.195747 0.432576 0.133459 0.272334 0.290359 0.337021 -0.04302 -0.247109 -0.338482 0.184956 -0.0278861 0.145545 -0.0645076 0.214965 0.0324323 0.0423645
internal_count=161534 61759 99775 43716 81449 18326 18043 21906 61358 21810 14950 20091 15322 10947 8425 9618 54623 41061 6860 6584 9110 7379 8379 5366 6943 4260 7253 4762 5935 2763 6917 4252 4165 4160 9015 2489 4030 2924 6735 2757 3612 2479 13562 4418 3693 5151 3979 33808 4371 10981 9107 13318 1792 2504 2014 2495 1497 2096 1686 2972 2242 3617
shrinkage=0.01


Tree=2
num_leaves=63
num_cat=0
split_feature=136 134 106 76 99 51 141 131 135 117 51 131 136 131 136 51 117 107 77 156 99 134 57 137 102 136 136 76 12 131 99 76 117 136 136 99 131 136 136 57 99 117 122 131 107 135 117 131 51 76 48 135 135 90 107 131 117 103 110 21 107 110
split_gain=3457.11 930.893 696.1 364.922 285.347 270.302 243.307 148.743 139.33 108.313 103.692 99.2562 92.2581 81.1581 64.3204 63.6957 52.2786 51.9234 49.0257 43.4585 34.7311 34.6939 32.2242 32.0238 31.0522 29.0542 28.5978 27.963 20.812 17.1824 15.3918 13.4926 13.2846 12.4237 12.2069 10.8033 10.2828 9.5744 9.53725 8.84634 8.48959 7.01868 6.45706 6.08265 5.49604 5.29635 4.72791 4.64869 4.29485 4.14565 3.66326 7.68643 3.38736 3.2326 3.21944 3.20235 2.99109 2.81635 1.14544 0.910543 0.890205 0.159605
threshold=0.090827556240274984 1.3939974769004893 10.500000000000002 2.5000000000000004 720.00500000000011 110.76631205673762 154.50000000000003 75.512254304160692 0.34622010183458246 1.9502066115702481 117.80713507130531 209.25786945943091 0.34901380316432951 61.725448916408688 0.040496095026811139 121.92450142450143 1.7696728558797525 -33.987179487179482 0.81698564593301448 -0.1084623060567005 128.48500000000004 3.6106044618238342 18.16704374057316 -0.28275077471496873 1524382926.0000002 0.31381653263581971 0.4754748953879358 5.5000000000000009 12.500000000000002 43.272112299465249 590.0350000000002 3.5000000000000004 1.9792740549828178 0.15663709268698847 0.17731968443915139 500.00500000000005 20.946768848384426 0.17183391985401364 0.17183391985401364 21.527692569870492 1349.0200000000002 2.2508992805755406 837.00000000000011 13.657179023508141 -22.983870967741932 0.09831132799184962 2.6385078776645048 164.38133102852206 67.876275510204081 2.5000000000000004 9948655.5000000019 1.3733549783549786 1.1047397367680887 61.621388888888895 -24.010204081632647 17.397770897832817 2.3079342041606199 1504622156.0000002 1.6405128205128208 9.5000000000000018 -10.240384615384613 1.2236111111111114
decision_type=2 2 10 10 2 2 2 10 2 2 2 10 2 10 2 2 2 10 10 10 2 2 2 10 2 2 2 10 2 10 2 10 2 2 2 2 10 2 2 2 2 2 2 10 10 2 2 10 2 10 2 2 2 2 10 10 2 2 10 2 10 10
left_child=2 5 3 8 10 11 16 28 9 29 25 31 15 50 47 34 43 -9 26 38 22 42 -11 41 33 49 40 32 -7 -1 -21 -2 -8 -15 -6 -10 46 -17 -19 58 -13 60 -14 -4 -33 -34 -18 54 -27 -3 -12 -52 -20 -31 -5 -30 -25 -41 -29 -45 -16 -47
right_child=1 4 6 14 12 7 27 17 35 20 13 18 21 24 23 37 36 19 52 30 -22 -23 -24 56 -26 48 -28 39 55 53 -32 44 45 -35 -36 -37 -38 -39 -40 57 -42 -43 -44 59 -46 61 -48 -49 -50 -51 51 -53 -54 -55 -56 -57 -58 -59 -60 -61 -62 -63
leaf_value=0.0048858814571592765 0.0033560119693832931 0.001495047880491471 0.0041700584578050776 0.0032568434811716049 0.0010175932852840349 0.0024900138670843697 0.0014703818295926639 0.00099007081547457807 0.0026740127333114657 0.0039974646790180753 0.001494743940844992 0.0011874137288559986 -0.000681134331386279 -0.0012347912388474332 0.0027022998175619752 -0.0018523045036232769 0.0025807031632013129 -0.00084413306827855485 0.0023655802692918635 0.00035108442890469804 0.002918885075819192 -0.0051448122942363873 0.0028981936245290572 0.0012474493586081873 -0.0005071423914634615 7.8313430044229699e-05 -0.00096700849180331964 -0.0020919341291211484 0.0022827041063688135 0.0039756138163339807 -0.0011657916632247978 0.0025272503861550385 0.000916032031979737 -0.00289244272697791 -0.0011071512250686766 0.0012966762763330652 0.00019677434878604937 -0.0035749471731948606 -0.002194994947035039 -0.00074770649499776186 -0.00067006317751696048 0.0014040077325757816 -0.0033115202814768354 0.0038490481778299052 0.00063152999026526674 -0.0010430215216890909 0.0011928772655597016 0.00193708847390555 -0.0012547771698044297 0.0001992995420549648 0.00015905679981542738 -0.0016109495232913508 0 0.00095708706136033014 0.0022057752355766022 0.00015850288751555465 -0 0.0014350199146009211 -0 0.0013997284948034355 -0 8.2274782487138458e-05
leaf_count=13235 4424 2340 2117 5940 716 2465 1764 2263 4923 23081 511 5574 379 1373 2704 1654 2304 2385 3907 3592 8831 1998 5105 1305 1545 1592 1110 1181 400 4417 1550 1845 1725 3610 1357 1842 853 1749 2549 693 512 3233 2108 397 759 1033 1676 2522 1364 1587 2130 718 271 243 2496 1422 1811 415 362 726 93 2748
internal_value=0 -0.00406029 0.297251 0.336769 -0.145466 0.103583 0.117036 0.00887604 0.375648 0.393189 -0.063676 0.188583 -0.282027 -0.13248 0.216907 -0.186576 0.248468 -0.0480858 0.126387 -0.0821348 0.359516 -0.395859 0.38027 0.147878 -0.20122 0.033794 0.069474 0.00899388 0.174855 0.462105 -0.00885206 0.2876 0.0471407 -0.245787 -0.0325692 0.23153 0.172253 -0.277252 -0.156408 -0.0918039 0.101459 0.197027 -0.2953 0.358451 0.201545 0.0132101 0.20242 0.273485 -0.0505979 0.0997492 0 -0.0256682 0.221771 0.384089 0.295977 0.068587 0.0494016 0 -0.162729 0.237284 0.258429 -0.0201247
internal_count=161534 61759 99775 81781 26731 35028 17994 16626 61677 54912 16770 18402 9961 9887 20104 5476 8073 12339 11374 10076 37017 4485 28186 9146 6528 6883 7196 9921 4287 17895 5142 7028 7270 4983 2073 6765 4833 3403 4934 2651 6086 6030 2487 3240 2604 5506 3980 10958 2956 3927 3359 2848 4178 4660 8436 1822 3116 1108 1543 1123 2797 3781
shrinkage=0.01


Tree=3
num_leaves=59
num_cat=0
split_feature=136 134 113 131 99 51 131 77 131 51 131 136 131 136 118 118 51 107 118 136 48 155 57 136 102 92 107 77 134 12 107 57 99 136 139 136 12 136 18 135 124 99 136 107 90 135 110 21 107 105 131 135 118 51 110 107 88 51
split_gain=3428.09 921.413 625.391 348.642 282.74 266.876 241.991 149.038 147.354 109.134 98.3804 84.0119 79.9329 60.1858 57.5992 56.6897 54.5097 51.251 51.1342 48.339 42.8534 42.3995 40.4308 35.2737 33.034 32.5303 32.3856 30.9166 28.8297 20.499 15.0158 33.4032 14.1585 13.3035 12.0054 11.3656 9.709 9.555 9.45522 10.3316 8.71911 8.26943 7.09661 6.20107 6.18898 5.81088 3.93243 3.43287 3.20202 3.11169 3.1096 3.00532 2.77857 2.51446 2.42766 2.35118 2.1533 1.12788
threshold=0.090827556240274984 1.3939974769004893 18.014285714285716 17.965045248868783 799.90500000000009 110.76631205673762 17.397770897832817 0.47213622291021679 75.512254304160692 117.80713507130531 209.25786945943091 0.34901380316432951 61.725448916408688 0.042360863068300163 3.3647450110864749 2.6264534883720931 121.92450142450143 -33.987179487179482 2.8393548387096779 0.4754748953879358 27362313.000000004 -0.017421671750368583 18.145643939393942 0.31381653263581971 1524397922.5000002 18.855898692810459 -38.982758620689651 0.81698564593301448 3.6106044618238342 12.500000000000002 33.026315789473692 21.527692569870492 590.0350000000002 0.1637054524888841 0.0095389748255990305 0.17731968443915139 7.5000000000000009 0.17183391985401364 4.5000000000000009 1.3733549783549786 684.00000000000011 1349.0200000000002 0.17183391985401364 -22.983870967741932 13.529705882352943 0.70000700014000283 1.4622507122507127 16.500000000000004 -29.987804878048774 121.50000000000001 17.397770897832817 0.43569875758532317 7.2975848188614156 82.418693812797486 1.7423963133640554 -33.019230769230766 525.25000000000011 66.925824175824189
decision_type=2 2 10 10 2 2 10 10 10 2 10 2 10 2 2 2 2 10 2 2 2 10 2 2 2 10 10 10 2 2 10 2 2 2 10 2 2 2 2 2 2 2 2 10 2 2 10 2 10 10 10 2 2 2 10 10 10 2
left_child=2 5 3 15 9 10 14 13 29 23 36 16 38 48 -4 -1 35 -10 56 27 -15 37 26 40 33 55 -17 41 53 -7 34 47 -23 -14 -20 -6 -2 -19 -11 -40 -3 -12 -18 -38 -25 -27 -22 -32 -5 -33 -31 -28 -24 -13 -16 -9 -8 -46
right_child=1 4 6 7 11 8 18 25 17 12 19 28 24 20 54 22 42 21 30 -21 46 32 52 44 -26 45 51 -29 -30 50 31 49 -34 -35 -36 -37 43 -39 39 -41 -42 -43 -44 -45 57 -47 -48 -49 -50 -51 -52 -53 -54 -55 -56 -57 -58 -59
leaf_value=0.0047339722452696227 0.0033691585895547992 0.0014122806198176244 0.0035459307734987261 0.0029821649638172507 0.00097962836665461202 0.002478997487726362 0.0022213696745691557 0.0040276917523691929 0.00098439085061629607 0.0012836136936332943 0.0011795265230911435 -0.0019764410465434265 -0.0013284241218848457 0.0021336574566689949 0.0011538135104754124 0.0043347023468538869 -0.0018867808126735652 -0.00083010291648909543 -0.00036798884676168218 -0.00049222790135285913 2.8173623929599063e-05 0.00033871636181074307 0.0030508025594195398 0.00023221101125868508 -0.00052470920268763582 0.0026529284534081775 0.0035155404089005655 0.0023840004067845182 -0.005158507033556874 0.0022747642559534883 0 0.0013407937823029425 -0.0011419945024736522 -0.0029228064381201907 0.0012711551551005671 -0.0011995391307697101 0.0026532474682536113 -0.002179249173983855 0 -0.0020116530316524875 -1.2285085815699865e-05 -0.00066614778123291166 -0.0036034656151237411 0.00086637174090131708 -0.00032993155718182259 0.00048461033245382381 0.0011399622136490793 -0.0018624787613147357 0.0021582471162670653 -0.00015226818610226871 0.00015780027415255028 0.0016140358903120569 0.0015257022239426967 -0.0037860522857001066 0.0024438283896228226 0.0032762887614801064 0.0003230345271195734 -0.002004273272615948
leaf_count=10487 4004 2948 3961 5770 642 2465 1518 6276 2263 820 5574 1041 1587 5005 2620 14288 1496 2384 1369 1556 2301 3585 4356 1227 1627 4734 10130 3732 1896 400 390 797 1546 3706 1761 1251 2110 2561 1968 629 1130 512 1609 914 993 482 2545 2090 5203 1777 1422 589 972 1270 1451 8311 592 891
internal_value=0 -0.00409941 0.295947 0.333869 -0.144791 0.103 0.126806 0.266543 0.00886931 -0.0681907 0.187478 -0.289394 -0.137022 0.204192 0.259529 0.400569 -0.192482 -0.0478398 0.0221846 0.125528 0.140636 -0.0817057 0.374951 0.029481 -0.202456 0.331508 0.394834 0.154226 -0.401632 0.174121 -0.0158534 -0.0600707 -0.00897315 -0.246582 0.052433 -0.0408582 0.286098 -0.155081 -0.0015159 -0.0465129 0.0994646 0.10077 -0.281461 0.214888 -0.059176 0.247215 0.0632923 -0.154678 0.260221 0.0275394 0.0683549 0.342139 0.279349 -0.302253 0.164132 0.36083 0.173774 -0.117817
internal_count=161534 61759 99775 81449 26731 35028 18326 40627 16626 17526 18402 9205 10337 20824 8032 40822 4998 12339 10294 11374 9851 10076 30335 7189 6920 19803 25007 9818 4207 4287 8184 5054 5131 5293 3130 1893 7028 4945 3417 2597 4078 6086 3105 3024 3111 5216 4846 2480 10973 2574 1822 10719 5328 2311 4071 14587 2110 1884
shrinkage=0.01


Tree=4
num_leaves=63
num_cat=0
split_feature=136 134 106 84 76 51 141 95 117 136 76 136 107 107 51 76 84 84 84 117 84 76 84 134 84 76 46 76 18 107 76 84 117 136 136 136 117 106 136 137 107 51 117 50 157 95 136 136 117 134 136 122 51 84 134 76 107 84 134 136 134 126
split_gain=3400.64 1019.14 574.235 337.192 278.777 275.547 204.652 148.775 131.014 115.059 97.786 89.0898 72.9266 72.0544 57.8198 49.4055 46.5841 44.3962 42.4465 39.7165 35.8729 35.4265 35.262 31.5698 31.5183 28.0773 31.316 24.6339 20.6686 19.7582 19.0003 18.3278 17.6424 17.0735 16.6719 16.1968 15.5577 15.1784 12.7973 14.9174 12.7132 12.146 11.9965 11.8262 9.42555 8.91913 7.4722 7.34668 7.07009 5.9689 5.70716 5.43916 4.29705 3.72834 2.58833 2.27614 1.69309 1.36869 1.16212 0.770059 0.166441 0.0506534
threshold=0.070475640767183906 1.3939974769004893 10.500000000000002 12996.925000000001 1.5000000000000002 110.76631205673762 80.500000000000014 4.5000000000000009 2.0436689549961868 0.34901380316432951 2.5000000000000004 0.2696041428870502 -23.659420289855074 -25.547727272727272 118.82701624394416 7.5000000000000009 2210.0350000000003 1003.0700000000001 7182.2700000000004 1.9972527472527475 6324.5000000000009 5.5000000000000009 6771.4750000000013 3.6106044618238342 7840.130000000001 1.5000000000000002 1506815705.0000002 9.5000000000000018 4.5000000000000009 -38.244047619047613 2.5000000000000004 10159.455000000002 2.7507396449704147 0.12253285919534966 0.17183391985401364 0.17731968443915139 1.5020000000000002 -2.4999999999999996 0.038623157065910525 -0.41101363566479165 -25.743421052631579 147.31547619047623 4.7258403361344552 190.50000000000003 0.0077094391433917579 5.5000000000000009 0.28704886580354533 0.16126709221119129 2.6156923076923082 0.63588005753031085 0.044333236318596092 867.50000000000011 179.60477313384291 3326.5550000000007 6.4828189116900576 16.500000000000004 -24.987804878048774 1440.0350000000001 0.97964365977995893 0.49694386813048358 0.63588005753031085 0.0033452965081369897
decision_type=2 2 10 2 10 2 2 10 2 2 10 2 10 10 2 10 2 2 2 2 2 10 2 2 2 10 2 10 2 10 10 2 2 2 2 2 2 10 2 10 10 2 2 2 10 10 2 2 2 2 2 2 2 2 2 10 10 2 2 2 2 2
left_child=2 5 4 10 8 11 19 18 31 14 20 15 33 43 35 22 42 56 30 -4 37 32 36 51 27 49 -27 58 45 -19 48 -1 53 52 -16 -5 -2 54 -31 -40 -17 46 -10 59 -43 -15 -22 -45 -7 -14 -18 -11 -9 -8 -3 -35 -6 -34 -13 -12 -32 -55
right_child=1 3 6 9 17 7 21 12 16 23 13 24 25 28 34 40 50 29 -20 -21 41 -23 -24 -25 -26 26 -28 -29 -30 38 60 -33 57 55 -36 -37 -38 -39 39 -41 -42 44 -44 47 -46 -47 -48 -49 -50 -51 -52 -53 -54 61 -56 -57 -58 -59 -60 -61 -62 -63
leaf_value=0.0047333724347047223 0.0038789832098544874 0.0015592058224551642 0.0040189891053363808 0.0012763202262695385 0.0035247212456714734 0.0027828197901135 0.001683887792692436 0.00196717903797082 0.0039511532368944934 -0.00077950230847122204 0.0012316671210661626 0.0026049280660657031 0.00079253307019327643 0.00021378721003610359 -0.0016130146501573375 0.0016930241384692521 0.0031091852673157325 0.0030162485828903185 -5.1427249794205849e-05 0.0018510472749013174 0.00094361185698833253 -0.00082575331366574033 0.0016602559544199589 -0.0050697799986155583 -0.00039671735394194166 -0.00039093914897629807 -0.0022762987066330983 -5.9776962439040409e-05 -0.0026641081134370424 0.0022794915352096117 0.00219394675280133 0.0024517825441969336 0.00076680041891630387 0.00022408617238557082 -0.003362339629427398 -0.0010565848641575092 0.0026435079692068196 0 0.0023882156638850099 0.00075977460448070882 -1.9751592980199463e-05 -0 0.0031025674624640034 2.355970050942321e-05 -0.0020947047409780621 -0.0018440663649605539 -0.00083306186291220042 -0.0015723894553532646 0.00023168396383581048 -0.00054773769813968253 0.0020660098336901848 -0.0033177157779118566 0.00035478405978526503 0.00011606094840690421 -0.0011292070080432216 -0.0019525852801328314 0.0025409856065750614 -0.00036630282358026089 0.0010449853144327897 -0.00032169733444201821 0.00054291066279379659 0.0025700856440951463
leaf_count=17075 3145 3350 2649 738 5480 3240 3333 1743 18907 389 1172 1566 1280 722 2261 2121 5914 3312 1511 2167 1298 1994 3514 2046 1806 2293 2676 1006 3222 6241 584 773 1527 2195 1894 1275 6290 2056 1492 3291 1030 777 5396 1172 1124 892 901 1280 375 2656 2959 2201 1031 1456 133 280 2930 1911 1027 562 1698 195
internal_value=0 0.0192416 0.311515 -0.124575 0.348407 0.117866 0.13212 0.0360012 0.390553 -0.267294 -0.0413474 0.199453 -0.0254678 -0.120011 -0.17092 0.239048 0.350582 0.253331 0.154648 0.306838 0.0313187 0.0502304 0.269518 -0.392901 0.0795374 -0.0846474 -0.14278 0.141992 -0.208696 0.213601 0.197179 0.464115 0.0828707 0.073067 -0.243873 -0.0151742 0.30686 0.0910997 0.186074 0.129117 0.110395 -0.047111 0.376784 -0.015042 -0.126257 -0.08675 0.0171449 -0.0772736 0.2546 -0.00866145 0.277443 -0.29774 0.140549 0.130442 0.142642 -0 0.319631 0.010954 0.202954 0.067357 0.101404 0.0475523
internal_count=161534 72532 89002 29465 73770 43067 15232 21562 51024 10804 18661 21505 14154 9022 6168 16100 33176 22746 7408 4816 9639 10416 12949 4636 5405 8905 4969 3599 4836 14336 5897 17848 8422 5249 4155 2013 9435 5539 11024 4783 3151 4100 24303 4186 1901 1614 2199 2452 3615 3936 8873 2590 2774 4984 3483 2475 8410 3438 2593 1734 2282 1651
shrinkage=0.01


Tree=5
num_leaves=60
num_cat=0
split_feature=136 99 106 51 136 92 5 136 51 12 5 87 119 136 136 47 121 136 136 57 136 92 120 105 136 137 92 92 47 47 136 110 137 106 116 12 99 110 137 90 136 99 145 145 155 110 12 116 56 90 116 154 12 121 155 155 55 90 110
split_gain=3372.91 847.845 556.798 407.165 266.331 241.433 173.665 169.114 161.105 140.474 134.667 107.176 73.0468 70.3616 62.9054 56.7753 46.2272 45.7724 39.3237 38.5942 28.7696 28.2809 28.0344 27.3385 26.5834 27.62 20.7703 20.3111 20.1815 18.9825 18.3396 17.7718 16.1254 13.159 12.1494 10.4017 8.65868 8.62145 8.5917 7.50681 6.95867 5.97415 5.45044 5.1643 4.56591 4.27663 3.63319 3.53603 2.95135 2.80578 2.24292 1.56259 1.70112 1.55162 0.727626 0.574562 0.259734 0.227716 0.158255
threshold=0.06950494426600852 565.47000000000014 10.500000000000002 125.04625668449201 0.34901380316432951 1.1855065359477124 56.500000000000007 0.17183391985401364 131.28629976580797 11.500000000000002 28.500000000000004 610.41250000000014 9.2500000000000018 0.30656338798749583 0.20956160277635663 1506293155.5000002 473.50000000000006 0.17183391985401364 0.174729654993839 18.207019704433502 0.53904819115066538 0.99603025136273249 669.50000000000011 -33.499999999999993 0.038623157065910525 -0.39285714285714279 18.855898692810459 0.94243464052287595 1508513552.5000002 1506466190.0000002 0.87342702191173127 1.4122315592903829 -0.83862567204301064 -24.499999999999996 1.2564773795140289 113.50000000000001 275.40500000000003 1.381652661064426 -0.92849153084052405 52.357026143790861 0.10367999713897778 228.00500000000002 331.88724127735071 299.12078662326923 0.11230716492773886 1.4504901960784315 11.500000000000002 1.6112880396319891 6.5000000000000009 82.434869281045778 1.2728578892371998 144.50000000000003 81.500000000000014 477.50000000000006 0.17251450462594661 0.081579747647404902 0.38066348973607034 43.923109243697489 1.273460410557185
decision_type=2 2 10 2 2 10 2 2 2 2 2 10 2 2 2 2 10 2 2 2 2 10 2 10 2 10 10 10 2 2 2 10 10 10 2 2 2 10 10 2 2 2 10 10 10 10 2 2 2 2 2 10 2 10 10 10 2 2 10
left_child=2 3 5 9 8 19 21 10 18 13 46 26 20 28 29 49 35 40 50 33 48 -4 -18 38 45 -26 34 -8 41 42 39 44 -20 57 -7 -12 -15 51 -16 -17 -10 -2 -11 -33 -14 -13 -5 -21 -9 56 -3 52 -29 -27 -19 -42 -6 -1 -31
right_child=1 4 6 7 15 11 27 12 17 14 16 24 31 36 23 30 22 54 32 47 -22 -23 -24 -25 25 53 -28 37 -30 58 -32 43 -34 -35 -36 -37 -38 -39 -40 -41 55 -43 -44 -45 -46 -47 -48 -49 -50 -51 -52 -53 -54 -55 -56 -57 -58 -59 -60
leaf_value=0.0044709556648665242 0.0028237756879399968 0.0016910824797329114 0.003270958944230616 0.0027748820869364578 -0 0.0040402270932665832 0.0014218487442704401 0.0015884210825551999 -0.00025618283756852862 0.0010123535449578103 0.0013385487800665035 0.0021896462443905017 -0.0029386391422157967 0.0016797098681869817 0.00096828032206958429 0 -0.00096118435090372905 -0.0033554012924535657 0.00063151296702488875 0.0034858156912682008 -0.0012185437437847284 0.0016031775153959719 0.00055114823110930563 -0.0021669797741169002 0.0026136860966518237 0.0013801717114140302 0.0025067769507227701 0.00083796855105588096 0.0034190096010617709 0.0010035860575502804 -0.0035533694412170224 3.6802668606548528e-05 -0.0011111164968250046 0.0037394820533470192 0.0031008563579708534 -0.00022385122298615421 0.00013486213805587787 0.00049640929647831755 -0.00045046642490110666 -0.0018667972453616946 -0.0020546872699404328 0.0017348475337824378 -0.0012091468351963831 -0.0014211923762236975 -0.00088512480209029245 0.0030394268000676545 0.0013970177982956264 0.0021139416042621601 0 -0.0049523212955880202 0 -0.0011471588220997111 -0.0010901791976982572 0.0001315396817478841 -0.0015670643413897079 -0.00050090139868790007 -0.0035603641557170542 6.8923473448410743e-05 0.0024731265541755652
leaf_count=20984 3577 2447 3827 2491 91 8628 2041 1318 1838 3136 3417 5058 2080 1863 1846 648 4926 2001 1422 5913 1256 2651 2397 750 2787 3158 3463 820 5049 884 832 732 1977 9128 5656 958 1575 3701 1698 1344 1700 3389 298 3326 595 5977 1553 1326 1007 1548 632 1562 475 1183 707 834 2287 97 2670
internal_value=0 0.0202157 0.311096 0.0875139 -0.154216 0.347468 0.133392 -0.00215182 -0.0709342 0.175238 0.0645349 0.28663 -0.104841 0.239644 0.0860531 -0.319772 0.00730203 -0.178525 0.0452411 0.405474 0.0156012 0.260627 -0.0452907 -0.0143248 0.228407 0.168519 0.34554 0.0362592 0.278642 0.14906 -0.195033 -0.170275 -0.0353928 0.42433 0.367704 0.0974589 0.100207 0.00168282 0.0261841 -0.122054 -0.104975 0.231055 0.0789045 -0.113487 -0.252204 0.26606 0.227353 0.325056 0.0941695 -0.406443 0.137244 -0.0570319 0.00541096 0.106303 -0.293028 -0.158462 -0.34308 0.445532 0.213792
internal_count=161534 73099 88435 52791 20308 73358 15077 26056 13558 26735 15742 35910 10314 15453 11282 6750 11698 7080 6478 37448 3581 6478 7323 4294 18163 7128 17747 8599 12015 6988 2824 6733 3399 30209 14284 4375 3438 6558 3544 1992 4372 6966 3434 4058 2675 11035 4044 7239 2325 3926 3079 2857 1295 4341 2708 2534 2378 21081 3554
shrinkage=0.01


Tree=6
num_leaves=57
num_cat=0
split_feature=135 106 97 134 151 97 97 76 106 106 76 157 97 97 135 106 97 76 135 141 134 120 48 77 77 101 3 48 76 157 157 106 42 110 97 105 77 135 48 18 134 116 110 134 116 76 77 97 135 134 103 101 134 110 52 48
split_gain=3319.07 853.025 598.694 313.217 275.881 182.268 177.099 159.058 141.88 136.825 97.5241 82.5198 65.0859 61.5955 61.4487 44.7594 43.1725 35.1591 33.9644 30.8539 28.4142 28.2197 23.8576 22.8817 20.6298 19.6194 16.6538 15.7795 15.5739 15.2304 14.2383 13.0817 11.7991 10.8256 9.48051 9.15961 9.10476 7.77915 6.80116 6.64139 6.23881 5.93095 5.37321 5.22536 5.18343 5.03612 3.91772 3.57737 3.4044 2.92486 2.87638 2.68925 2.28647 0.912279 0.878956 0.477624
threshold=0.43569875758532317 -10.499999999999998 672.86500000000012 2.2906386512000911 2972.5000000000005 402.12000000000006 153.19500000000002 1.5000000000000002 5.5000000000000009 1.0000000180025095e-35 2.5000000000000004 0.0068464730513024472 222.48500000000004 529.59499999999991 1.1047397367680887 3.5000000000000004 360.65500000000003 5.5000000000000009 1.0550133241033393 68.500000000000014 4.2226791272500117 664.50000000000011 12682886.500000002 0.74322344322344336 0.77664399092970526 99905.617222023822 776.00000000000011 5884726.0000000009 3.5000000000000004 0.0024779237037499762 0.0062064315792086083 133.50000000000003 43.434385294117654 1.7154761904761906 1724.5000000000005 -28.499999999999996 0.84698996655518399 0.17680905620630208 26396969.000000004 3.5000000000000004 0.38843161970197065 1.5882943538861329 1.3307291666666667 0.65837040240309475 1.6673850574712643 1.5000000000000002 0.95698427382053664 186.73500000000004 0.82362413082099917 0.93717904229895799 1518135696.0000002 150577.06052476194 1.2097776716719311 1.4439203354297696 -5.4999999999999991 10618158.000000002
decision_type=2 10 2 2 2 2 2 10 10 10 10 10 2 2 2 10 2 10 2 2 2 2 2 10 10 8 2 2 10 10 10 10 2 10 2 10 10 2 2 2 2 2 10 2 2 10 10 2 2 2 2 10 2 10 2 2
left_child=1 5 9 8 7 10 19 13 18 14 26 48 43 40 22 29 21 33 24 44 -13 45 49 34 30 37 -1 -10 -24 -14 -4 35 55 39 -7 -19 -29 -15 -16 -8 -3 -28 -12 -9 -6 -11 -20 -23 -5 -2 -45 -26 -47 -21 -34 -18
right_child=2 4 3 11 6 23 17 12 27 16 42 20 15 25 38 -17 32 31 46 53 -22 47 28 -25 51 -27 41 36 -30 -31 -32 -33 54 -35 -36 -37 -38 -39 -40 -41 -42 -43 -44 50 -46 52 -48 -49 -50 -51 -52 -53 -54 -55 -56 -57
leaf_value=0.0045379819030056199 0.0034363335286633789 0.0039870518500195358 0.0012310822101498024 -0 0.0036365736676269543 0.0020324184761975014 0.0018299400868804375 0.0027787334718178342 0 0.00046841922893414364 0.0015242322001619867 -0.0028817633079525561 0.0020019182071035605 0.0030453633428769622 0.00050678346022692061 -0.0011763410010999955 -0.00072959692648283533 0.00016820678782509193 -0.0011484141842534278 0.0009870078630979124 -0.0045888692742622013 0.0022860369199425483 0.0017596760950805083 0.0030661030187656003 0.0015942252625882262 0.00067445186821365338 0.0040267404254393565 -0.0025827017133974901 0.00057806715395160063 0.00085024977594479613 -0.00033816776125885142 -2.4860426273748497e-05 -0.0013095047263822707 0.0014172894682953636 0.00022240669173238301 -0.0022259196803469466 -0.00075718697801363218 0.0019233099656774176 -0.0010311683262266723 -5.1438780893602085e-05 0.003093678078891572 0.0032207116792973096 0.0029388775347266305 -0 0 0 0.0013120409529858827 0.00053124251802886581 -0.0017057348981953451 0.0020011174498176069 0.001937842563724335 -0 -0.0017466176849768515 0.0020906404522306201 4.1957099843793462e-05 -0.0030110626090364464
leaf_count=12764 1275 4761 1217 840 1766 4963 496 4492 501 992 1289 4249 3202 3343 2527 969 435 329 3104 2305 2507 956 5242 3899 2188 1254 22159 3786 3251 5919 4792 1530 1009 1572 810 1510 867 3941 953 5129 7842 4542 5425 310 144 590 202 1145 1334 2745 2455 600 949 2249 1076 833
internal_value=0 0.275046 -0.0350248 -0.140528 0.186358 0.362992 0.077612 0.234197 -0.0598708 0.0798033 0.39017 -0.295114 0.159719 0.294767 0.13515 0.102163 -0.0298659 -0.00346267 0.000551607 0.211465 -0.353435 0.0378384 0.170368 0.232009 0.038217 0.220519 0.410583 -0.203406 0.131975 0.126659 -0.000302569 -0.0995193 -0.126136 0.040223 0.179587 -0.174642 -0.226524 0.24544 0.00564501 0.00997281 0.344122 0.389429 0.268387 0.238204 0.338375 -0.0417906 -0.0966009 0.138138 -0.108793 0.248643 0.169636 0.124453 -0.105116 0.155603 -0.0568447 -0.231393
internal_count=161534 111369 50165 26187 55518 55851 17030 38488 17257 23978 46179 8930 17347 21141 15993 10090 7985 10566 12103 6464 6756 4632 12513 9672 8797 8538 39465 5154 8493 9121 6009 3369 3353 7197 5773 1839 4653 7284 3480 5625 12603 26701 6714 7257 1910 2531 3306 2101 2174 4020 2765 2788 1539 4554 2085 1268
shrinkage=0.01


Tree=7
num_leaves=61
num_cat=0
split_feature=136 134 114 97 153 153 119 51 136 86 47 51 117 134 124 95 117 136 51 136 153 57 117 107 136 107 140 35 57 110 101 136 153 90 90 107 134 13 153 107 47 102 57 136 117 136 117 97 117 110 137 137 57 15 136 49 134 107 45 97
split_gain=3321.53 999.019 485.377 343.595 269.734 245.47 170.363 165.724 154.387 124.526 114.27 98.2886 83.1965 79.0488 55.2763 49.0261 46.5623 45.831 44.8033 43.274 33.2793 31.229 29.6836 28.4381 28.2485 28.0245 27.6019 22.8232 20.3375 19.7419 18.6938 18.092 17.9854 17.6722 15.0846 14.3035 14.1633 10.472 10.4589 9.9911 9.98926 9.78447 8.81236 8.7582 8.52384 8.43912 7.71385 7.57294 7.18791 4.85203 2.40718 2.34336 2.0245 1.68786 1.53075 4.79674 1.33859 1.23695 0.694494 0.0991881
threshold=0.06950494426600852 1.3939974769004893 18.500000000000004 713.87500000000011 29920.340000000004 2430.0500000000006 28.250000000000004 125.04625668449201 0.25828105698322767 510.31767857142859 1503133408.5000002 137.52344322344325 1.9502066115702481 3.6106044618238342 837.00000000000011 4.5000000000000009 1.9502066115702481 0.37811141708035284 99.191898527004938 0.17183391985401364 5949.3100000000004 18.637022397891968 1.9584770114942531 -23.659420289855074 0.22148925690356872 -28.596874999999997 0.24691996970462005 0.32942810457516342 21.835585585585587 1.8024390243902444 49.504625000000026 0.10943495239257552 10080.720000000003 26.765686274509807 23.685438596491235 -25.989583333333332 0.56569294645364521 0.0039729893548509304 5049.5400000000009 -3.964285714285714 1507853299.0000002 1524134053.5000002 18.117914438502677 0.040496095026811139 1.9972527472527475 0.13718894147795513 4.5961179544606212 425.11000000000007 2.8937111655055552 1.427051671732523 -1.5780766852195423 -3.1442553732465601 18.207019704433502 0.18780940594059406 0.1637054524888841 265.50000000000006 0.63074437145727902 -31.984374999999996 29.417500000000004 233.02000000000001
decision_type=2 2 10 2 2 2 2 2 2 10 2 2 2 2 2 10 2 2 2 2 2 2 2 10 2 10 10 2 2 8 10 2 2 2 2 10 2 2 2 10 2 2 2 2 2 2 2 2 2 10 10 10 2 2 2 2 2 10 2 2
left_child=2 4 5 14 10 12 22 17 11 16 15 45 52 18 24 36 -7 26 -10 35 48 29 30 -17 42 47 41 39 -25 -14 -4 57 58 -28 -18 -9 -2 -21 -24 -12 -26 -6 -3 -27 -22 -5 -31 -11 -8 -46 -19 -20 -1 -38 -34 -56 -37 -13 -16 -45
right_child=1 3 6 8 7 9 20 19 13 25 27 31 21 -15 32 23 34 50 51 37 44 -23 38 28 40 43 33 -29 -30 46 -32 -33 54 -35 -36 56 53 -39 -40 -41 -42 -43 -44 59 49 -47 -48 -49 -50 -51 -52 -53 -54 -55 55 -57 -58 -59 -60 -61
leaf_value=0.0050472654843650199 0.0031908165323694506 0.0015100811951440484 0.0043284829246590367 0.0013460384185791426 -0.00090696114606320197 0.0042487792082225619 0.0020223446706466889 0.00079487150254432132 -0.0013484667723688507 0.0028991992669617607 0.0023430002873674766 0.00021872374027482743 0.0032864788195219314 -0.0046278027753945935 -0.0005666437243572553 0.0014112668119295891 0.0032491219298548808 0.00070832495221563152 0 -0.0006808327002216499 0.0011197039578550079 0.0024868395482952124 0.0022604173078553213 -0.00097133188179730746 -0.00076983485078998041 0.0019618300905662502 0.0024666126198134557 0.0033554598458415247 0.0010055997260800806 0.0043781879084779261 0.0023490841679430904 -0.0026080091437022382 -0.00080153359798600045 0.0011460836325221206 0.0020619652763319211 0.00029874203333823339 0.0010682061568430417 -0.0022613420191339769 0.0002554085010034567 8.1404733001886614e-05 0.00068687087509355178 0.00097319231236897737 9.2676174708047347e-06 0.0016547660839766401 -0.0010574091982313359 -0.00022199837073210525 0.003376282578434872 0.0018630932764976541 0.00053100319379448778 9.9166030610336306e-05 -0.00082248918497436886 -0.0034290164151986268 0.0038905379253387287 0.0021330647947294286 -0.00281514369804681 -0 -0.00094291231755435148 -0.0014602731741751465 0.0010610038324371644 0.00026978731885269664
leaf_count=8766 1317 3457 1900 1083 759 6022 1828 2045 2904 6589 4340 499 8250 2819 1197 2573 10737 749 59 1667 980 3075 2173 2020 2390 4561 3670 5253 1210 10839 1766 3249 1151 3499 2810 881 2895 2151 808 524 1472 1748 1259 934 1847 2104 3558 3146 1703 2360 1455 3058 2141 2338 1099 222 2420 981 582 1642
internal_value=0 0.0197906 0.308455 -0.122503 0.116763 0.342868 0.144073 0.0333614 -0.218107 0.282568 0.1944 -0.111413 0.402517 -0.312364 0.00167155 0.125574 0.339876 0.113854 -0.239799 -0.0699421 0.0480762 0.367778 0.268312 0.0498654 0.0525461 0.215392 0.146655 0.277313 -0.0200211 0.383425 0.340869 -0.207474 -0.0986196 0.183763 0.301141 -0.00370735 0.191027 -0.159949 0.175151 0.211976 -0.0189346 0.0364418 0.11306 0.156214 -0.0082183 0.0282685 0.413937 0.257615 0.133331 -0.0386741 -0.025785 -0.333871 0.483218 0.156502 -0.167071 -0.23456 -0.0582389 -0.0831129 -0 0.0813048
internal_count=161534 73099 88435 29585 43514 73070 15365 21044 16756 36441 22470 7916 36629 8840 12829 12353 19569 11880 6021 9164 8718 25722 6647 5803 8578 16872 9676 10117 3230 22647 3666 4729 4251 7169 13547 5346 6550 3818 2981 4864 3862 2507 4716 7137 5187 3187 14397 9735 3531 4207 2204 3117 10907 5233 2472 1321 3301 1480 1779 2576
shrinkage=0.01


Tree=8
num_leaves=62
num_cat=0
split_feature=136 134 153 103 97 153 87 134 102 57 76 119 103 102 136 47 89 84 119 47 136 156 116 48 136 137 48 76 101 153 76 54 136 105 137 136 153 57 136 134 137 38 97 153 126 136 153 48 136 137 97 18 116 47 136 76 116 48 110 103 110
split_gain=3294.92 879.55 641.644 436.135 295.526 233.337 162.414 124.742 123.497 115.916 103.354 82.2416 67.0742 57.5812 49.7231 49.0446 46.308 43.9964 42.2393 37.3394 32.0156 31.9713 29.8843 27.5461 41.5606 26.7318 24.6986 23.2766 21.5574 20.1392 18.947 16.281 13.6708 12.8129 12.1289 11.5128 10.7661 10.3386 9.23375 8.04356 8.00639 7.85633 6.56951 6.49922 5.90182 5.88752 5.06151 4.78872 9.80869 3.88998 3.85476 3.80735 3.15426 2.76332 2.71471 2.69414 4.58276 2.04955 1.55018 0.804677 0.196596
threshold=0.090827556240274984 1.3939974769004893 2430.0500000000006 1518890290.0000002 672.86500000000012 29920.340000000004 610.41250000000014 3.6106044618238342 1522929922.5000002 18.145643939393942 3.5000000000000004 27.250000000000004 1519123691.5000002 1523706762.5000002 0.05440714256460321 1494078872.5000002 42242.524594444454 10159.455000000002 28.750000000000004 1508371358.0000002 0.25828105698322767 -0.19508292806218872 1.2759057180270625 24543721.500000004 0.2696041428870502 -0.39285714285714279 26774374.000000004 1.5000000000000002 88511.607450000025 10080.720000000003 4.5000000000000009 -1.6169218532511429 0.22148925690356872 -39.499999999999993 -0.41101363566479165 0.25828105698322767 20520.775000000005 21.527692569870492 0.1391079692275943 0.59307035796478791 -0.39908256880733933 0.4471830646521604 209.26000000000005 20520.775000000005 0.003493665633314619 0.049073007157426705 14508.750000000002 13632313.500000002 0.21741703906595686 -3.1442553732465601 480.41500000000002 4.5000000000000009 2.0539087474571347 1507853299.0000002 0.174729654993839 1.5000000000000002 1.5807155937455981 11181438.000000002 1.320714285714286 1504622156.0000002 1.6405128205128208
decision_type=2 2 2 2 2 2 10 2 2 2 10 2 2 2 2 2 8 2 2 2 2 10 2 2 2 10 2 10 10 2 10 2 2 10 10 2 2 2 2 2 10 2 2 2 2 2 2 2 2 10 2 2 2 2 2 10 2 2 10 2 10
left_child=2 5 9 11 15 10 17 12 21 27 19 36 49 25 33 29 28 22 55 39 -9 57 50 24 -14 42 -16 -1 40 51 44 -23 -17 46 35 -18 41 60 -25 -2 -10 -4 -12 -41 45 -13 -8 -31 -49 -6 -5 -3 -20 -34 -36 56 -11 -7 -28 -39 -32
right_child=1 4 3 6 7 8 14 20 16 18 13 30 23 -15 26 32 34 -19 52 -21 -22 31 -24 38 -26 -27 58 -29 -30 47 37 -33 53 -35 54 -37 -38 59 -40 43 -42 -43 -44 -45 -46 -47 -48 48 -50 -51 -52 -53 -54 -55 -56 -57 -58 -59 -60 -61 -62
leaf_value=0.0043706544568410657 0.0030380216278740619 0.0017409958926361117 0.0011941668869575736 0.0040671048716321243 0 -0.00094011158310268982 0.0029463497598321191 -0.002192696419304167 0.0020404525617594127 0.0037945292593075143 0.0015273310116379786 0.00058093041965311424 0.00033956933001700912 0.0018872147793404126 0.0018533730778394816 0.001264244064658413 0.0011429229514937382 0.0018149235172472491 0.0021216803979113488 0.0036434446525097598 -0.0045572428322598214 -0.00091821423076883307 0.0027647318910139856 -0.00085680583815641459 -0.0015387903090529251 -0.0016447194393832804 -0.00055331550934663504 0.0034145785364374532 -0.00054224922936605942 -0 -0.0019638662471246344 0.00073013766479855351 -0.00059690135527473872 0.0015789608100669017 -5.4895912271979247e-05 -0.00030733045430130293 0 -0.00062199963055055787 -0.0028470547168713313 0.0020266688646531708 0.00036980965314415353 0.002769275527351703 -2.6007048486676734e-05 0.00052544641145207602 0.0020671143841357455 -0.00058325425467861496 0.0020589647460282508 -0.0010256191616866011 -0.0030770210942823607 -0.0030526747986182852 0.0032302809723824483 -0.00036436456395019172 -0 0.00068325604860090458 -0.00205215226957935 0.0021371113444186383 0.0023070164027338604 -0.0024264644145341138 0.00075443924670890491 0.0012802471006835695 -0
leaf_count=24308 1682 373 1718 8711 97 1227 6478 1306 4436 6579 1050 3216 2519 3415 3549 2691 2281 2606 3766 3041 2872 2262 7047 914 3226 1038 855 5765 585 541 1367 1611 1677 3489 903 1668 648 727 1681 3977 923 1800 1573 1123 482 1746 4326 1361 940 3580 4950 1552 280 1401 582 1088 1186 1651 2231 468 389
internal_value=0 -0.00455781 0.289618 0.218881 -0.142053 0.100102 0.26614 -0.228248 0.0190462 0.382837 0.186434 0.0515929 -0.172824 0.0877735 0.198945 -0.00856975 0.0855202 0.325952 0.297196 0.256387 -0.384699 -0.0915247 0.343585 -0.117569 -0.0699075 -0.00396848 0.117482 0.419158 0.152732 -0.0915089 -0.00764811 -0.0207562 0.0583229 0.235995 0.0101037 0.0506557 0.173066 -0.0879508 -0.218814 0.206172 0.177174 0.203209 0.0561891 0.171642 0.0341748 0.015154 0.260182 -0.156654 -0.191353 -0.294983 0.377309 0 0.196739 -0 -0.090943 0.34179 0.358246 -0.183078 0.0360355 0.0046285 -0.156161
internal_count=161534 61759 99775 56803 26731 35028 44242 16195 18129 42972 16899 12561 12017 7076 20928 10536 11378 23314 12899 9823 4178 6751 20708 8340 5745 3661 6635 30073 5944 4767 8395 3873 5769 14293 5434 3949 4166 2951 2595 6782 5359 3518 2623 5100 5444 4962 10804 2842 2301 3677 13661 1925 4046 3078 1485 8853 7765 2878 3086 1195 1756
shrinkage=0.01


Tree=9
num_leaves=55
num_cat=0
split_feature=135 153 97 106 134 106 107 89 106 72 157 118 87 135 118 157 131 137 90 57 57 118 12 134 135 48 18 134 87 106 131 131 107 99 134 155 107 157 120 105 137 56 157 107 120 94 135 135 134 135 107 102 56 107
split_gain=3239.83 894.419 580.551 419.474 304.909 235.442 152.895 150.905 132.477 81.1889 80.1374 76.4879 66.2909 59.2711 50.1271 48.9669 47.3295 45.5732 39.3017 33.4833 33.3271 28.8639 28.6918 27.9297 26.5663 23.1299 20.3977 18.9 18.6572 18.2949 15.1427 14.8263 13.0311 10.3556 10.127 8.0031 9.47406 7.4781 6.77999 6.42028 6.39092 6.38267 5.84204 5.35533 5.28193 4.77313 4.17947 3.07618 2.60272 2.49178 2.21815 1.72713 1.20341 0.852117
threshold=0.43569875758532317 7752.4800000000014 672.86500000000012 10.500000000000002 2.2906386512000911 10.500000000000002 -20.019230769230766 45593.096731439393 1.0000000180025095e-35 2.5000000000000004 0.0068464730513024472 3.1445993031358892 895.85000000000014 1.1047397367680887 2.6264534883720931 0.003195167117912056 57.559841794569074 -0.3689317002210471 23.078167420814488 21.527692569870492 18.269614069369812 2.5671171171171179 9.5000000000000018 4.2226791272500117 1.0550133241033393 12682886.500000002 5.5000000000000009 1.199341587710322 2300.4500000000003 -27.499999999999996 14.703137254901963 12.18856209150327 33.026315789473692 650.06500000000017 1.2301149152388888 -0.11760792286676408 -44.485294117647051 0.010793722882556268 649.50000000000011 -53.499999999999993 -0.462499483172083 2.5000000000000004 0.010793722882556268 33.026315789473692 655.50000000000011 1.0597147950089127 0.1722140785989984 0.82362413082099917 0.93717904229895799 0.57984150051556871 -30.581989247311824 1523885111.5000002 1.5000000000000002 -35.985074626865661
decision_type=2 2 2 10 2 10 10 8 10 2 10 2 10 2 2 10 10 10 2 2 2 2 2 2 2 2 2 2 10 10 10 10 10 2 2 10 10 10 2 10 10 2 10 10 2 10 2 2 2 2 10 2 2 10
left_child=1 5 8 7 6 9 24 18 13 14 47 30 21 25 -1 53 26 50 46 43 29 33 -11 -12 34 48 44 -18 45 -16 -7 -13 -23 -5 -4 36 -27 -36 -34 -24 -15 -29 -20 -14 -10 -8 -3 -6 -2 -28 -17 -19 -47 -9
right_child=2 3 4 12 10 11 28 15 16 22 23 31 19 40 20 17 27 51 42 -21 -22 32 39 -25 -26 35 49 41 -30 -31 -32 -33 38 -35 37 -37 -38 -39 -40 -41 -42 -43 -44 -45 -46 52 -48 -49 -50 -51 -52 -53 -54 -55
leaf_value=0.0046868273563246809 0.0033871068025647152 0.0035046600558123193 0.0009855812543591606 0.0020578621679193795 -0 0.0035394804651126678 -0.00010699143857983457 0.0028343180135546936 0.00012532933260184887 0.003771491139245289 -0.002841304235757367 0.0017299373248992028 -0.00090004231337372908 0.00069350890153537892 0.0042147288188146064 0.0019535684646768007 -3.5645068898743761e-05 -0.0009145117750353032 0.002423515417779029 2.1974144229980854e-05 0.0028051334540315693 0.00098233594034711959 0.0032402560198308305 -0.0045373230441171702 -0.00078168415076759886 0.0025253165982756865 0.00063877860784797866 0 -0.0026733575909152164 0.003366472308929756 0.0017768158479729448 0.00031567180787249341 -0.0013736015484910713 -0.00038232536287929241 0.00082397331757587985 0.0019462045396329011 0.00066545424387681046 -0.00055408010843538717 0.00018694374917338431 0.0022425180480687705 -0.00066966854335685961 -0.0021842615647884324 0.0010716909068238137 -0.0025822682048898798 0.0019962646154689204 0.00068547216144139477 0.0027462746725828847 -0.0016841968587702732 0.0019683480312158537 -0.0010283657532239282 0.00092360410346671563 0.00030779762958613914 -0.0017959235219577774 0.0018333878165763368
leaf_count=11025 1275 7201 4101 2116 840 3469 1015 2159 804 5476 4249 3422 1285 1913 15727 3134 1600 1158 2355 2299 4793 1787 3505 2507 3021 691 640 404 2720 7635 1429 2224 1160 324 1480 2990 4812 2335 1422 5862 1567 2037 1932 1373 1352 130 7287 1334 2745 1148 2599 2169 2455 5042
internal_value=0 0.271467 -0.03489 0.165192 -0.13881 0.34832 -0.0591871 0.220682 0.0782088 0.375786 -0.2914 0.206499 -0 0.132732 0.401957 0.146547 -0.02981 0.0909434 0.284283 -0.0942558 0.375355 0.0685114 0.305868 -0.348972 0.0138262 0.167406 0.05412 -0.114057 -0.186921 0.394293 0.304878 0.119122 0.00973682 0.169414 0.0501994 0.129417 0.091997 -0 -0.0478963 0.262869 0.00518336 -0.182277 0.184004 -0.181057 0.134639 -0.12301 0.313167 -0.107411 0.244835 -0.0377598 0.150549 -0.00898574 -0.163206 0.21498
internal_count=161534 111369 50165 46802 26187 64567 17257 35036 23978 54023 8930 10544 11766 15993 39180 16261 7985 9060 18775 4957 28155 6809 14843 6756 10937 12513 3944 4041 6320 23362 4898 5646 4369 2440 7916 8493 5503 3815 2582 9367 3480 2441 4287 2658 2156 3600 14488 2174 4020 1788 5733 3327 2585 7201
shrinkage=0.01


Tree=10
num_leaves=61
num_cat=0
split_feature=135 153 84 106 76 106 135 89 57 135 131 107 117 85 117 131 157 57 90 117 3 52 57 52 157 101 131 135 18 14 48 101 131 157 107 107 107 107 153 18 153 107 117 102 107 157 48 110 48 135 39 57 146 57 135 135 117 110 156 57
split_gain=3211.08 890.44 578.709 414.378 233.032 200.609 181.641 149.034 145.768 113.292 101.866 86.1127 70.4104 67.0967 63.5694 58.1739 48.2441 39.2709 38.6692 34.3499 34.2361 28.6313 25.6776 24.5929 25.8437 23.2721 23.2361 21.1965 19.99 18.8445 18.1676 14.4791 13.7316 13.1909 12.035 11.4459 9.07326 8.58723 8.08376 9.34445 7.967 7.59416 7.13535 5.92835 5.89956 5.64757 5.46153 5.14338 4.43779 4.11539 3.13874 3.12746 2.48987 2.3492 1.93394 1.65448 1.07758 0.635677 0.591453 0.158228
threshold=0.43569875758532317 7752.4800000000014 12402.360000000002 10.500000000000002 1.5000000000000002 1.0000000180025095e-35 1.7080580827291405 45593.096731439393 18.269614069369812 1.1047397367680887 57.559841794569074 -8.2426470588235272 2.1365047995482782 1239.9575000000002 1.9678709677419357 130.00080000000003 0.0024779237037499762 17.52645576707727 23.078167420814488 1.8847537354731603 837.00000000000011 -2.4999999999999996 21.527692569870492 -9.4999999999999982 0.004905371126939906 150577.06052476194 17.397770897832817 0.85246672475040774 5.5000000000000009 36.500000000000007 12682886.500000002 325592.30896954704 10.103095238095241 0.0091415425673716053 33.026315789473692 33.026315789473692 -30.744565217391301 -30.452272727272721 39474.200000000019 5.5000000000000009 24332.560000000001 -25.989583333333332 2.6385078776645048 1524342299.0000002 -23.659420289855074 0.010793722882556268 14479342.500000002 1.2152509652509653 6398425.5000000009 0.1722140785989984 0.052747507535358222 21.433095942625012 148.50000000000003 21.835585585585587 1.0329827622980037 0.57984150051556871 3.9159604519774018 1.5671171171171174 0.904975368602144 22.203355611250355
decision_type=2 2 2 10 10 10 2 8 2 2 10 10 2 10 2 10 10 2 2 2 2 2 2 2 10 10 10 2 2 2 2 8 10 10 10 10 10 10 2 2 2 10 2 2 10 10 2 10 2 2 2 2 10 2 2 2 2 10 10 2
left_child=1 4 5 7 8 9 17 18 12 15 28 32 -1 19 52 30 -9 25 49 40 36 27 34 24 -17 54 42 59 51 -16 -2 48 -6 -27 -15 -21 -18 -14 39 -11 -5 -22 -13 -34 -25 -20 -19 -28 -8 -3 -23 -7 -10 -37 -4 -30 -31 -29 -40 -12
right_child=2 3 6 13 11 10 31 16 14 38 21 26 37 22 29 23 20 46 45 35 41 50 -24 44 -26 33 47 57 55 56 -32 -33 43 -35 -36 53 -38 -39 58 -41 -42 -43 -44 -45 -46 -47 -48 -49 -50 -51 -52 -53 -54 -55 -56 -57 -58 -59 -60 -61
leaf_value=0.0048378318675041639 0.0028405513560984968 0.0034850158463479932 0.00048266622356915535 0.002514239878489239 0.0036317624987421021 0.00031140768592159175 -0.00050811149836077788 0.0022154880964099363 0.0040997321199634576 0.00077537348893209543 -0.0015848192205951542 0.0024289354349757717 0.0040212918839426662 -0.00063976209750023889 0.0026738094087033811 0.0011530990854592513 0.0020748286867675715 -0.0013486212195403446 0.0024093430003112779 0.00098248790603125695 0.000554949555990507 -0.0010418923577160337 1.77757073421931e-05 0.0013305109354637338 -0.0010139555109230766 -0.00014193217572408095 -0.0011505245514570645 -0.0033345820366039755 0.00062854371801717302 0.0017184016982290163 0.0015192028185115772 -0.0044754024971575927 0.0022288022061077027 -0.0018616268732807193 -0.0024023383605263635 -0.0015037354290639107 0.00087709783335328077 0.0032130109346362847 -0.0014136757474561884 -0.00069249646579402501 0.00081851620890419975 -0.00090550230147379122 0.00069403820202099651 0.0031995361116076548 0 0.0010651247644746448 -0.0028604282817623629 0.00077817728043945856 -0.0031524206973212359 0.0027286282123095877 0.00092449644874720424 0.0020503064908469334 0.0019795439304712264 3.9747643475127031e-06 -0.00093086434960298881 -0.00098688222654302557 0.00011034845941859618 -0.001708797847055053 0.00018566574311843848 -0.00029452862166468388
leaf_count=13853 2595 7201 2114 1400 4023 886 333 6343 4254 1807 2146 1998 13772 1649 5440 1220 3020 1588 2355 1207 2671 620 2537 5338 1937 1293 581 1537 637 1637 6183 2416 6008 2599 1552 952 3080 5865 1825 1720 1538 1147 1047 3622 1148 1932 1910 1200 1921 7287 710 1230 518 931 791 1133 749 1018 390 1120
internal_value=0 0.270246 -0.0347521 0.164205 0.34693 0.0356444 -0.20091 0.219365 0.38618 0.0880797 -0.0782554 0.248383 0.422521 -0 0.288595 0.128041 0.145656 -0.123145 0.282597 0.0787484 0.0960006 -0.152718 -0.0828932 0.0684173 -0.014514 -0.0713386 0.123378 -0.187724 0.0563204 0.22557 0.192313 -0.369756 0.29176 -0.131661 -0.152845 -0.00170613 0.148791 0.378625 -0.0384382 0.00322437 0.166415 0.00899228 0.186756 0.260637 0.110239 0.182927 -0.220648 0.0092545 -0.280778 0.311302 0 0.137176 0.389363 -0.0710392 0.00630379 -0.0350913 0.125612 -0.273212 -0.108894 -0.117373
internal_count=161534 111369 50165 46802 64567 35200 14965 35036 46088 24163 11037 18479 33490 11766 12598 18421 16261 10295 18775 6028 9918 7151 5738 9643 3157 6797 4826 5821 3886 7826 8778 4670 13653 3892 3201 3090 6100 19637 5742 3527 2938 3818 3045 9630 6486 4287 3498 1781 2254 14488 1330 2116 4772 1883 2905 1770 2386 2555 2215 3266
shrinkage=0.01


Tree=11
num_leaves=60
num_cat=0
split_feature=136 90 106 51 76 136 76 141 76 51 118 51 97 107 136 97 90 136 136 118 92 76 136 118 118 110 136 97 48 107 101 136 118 107 110 42 101 136 51 118 136 95 51 101 21 136 136 105 18 49 121 154 110 21 18 136 97 90 110
split_gain=3221.62 740.918 523.337 424.238 268.411 249.675 206.645 196.457 154.351 136.918 90.673 85.3661 83.8905 70.1305 55.7717 52.6743 50.5373 48.1588 42.1646 39.9477 35.4203 30.75 28.5376 26.3138 24.7653 24.3031 23.4063 23.3288 21.3866 23.0411 20.7655 16.9618 15.9088 14.0258 13.345 12.3767 12.007 11.1883 8.86402 7.79887 7.66814 7.06793 6.52359 6.38732 5.7564 5.26726 5.1208 4.48702 4.16522 4.01917 3.46006 1.67094 4.61756 1.36119 0.636276 0.375408 0.272423 0.231519 0.186484
threshold=0.06950494426600852 34.054166666666681 10.500000000000002 127.09175084175085 1.5000000000000002 0.25828105698322767 4.5000000000000009 80.500000000000014 2.5000000000000004 134.398275862069 2.6023255813953496 82.418693812797486 360.65500000000003 -21.658333333333331 0.18013220642914463 270.73500000000007 19.323235294117652 0.22987978697343517 0.15211412978660291 2.6708333333333338 10.74656862745098 4.5000000000000009 0.11248847254763657 2.0131578947368425 2.8591269841269846 1.320714285714286 0.53904819115066538 240.01000000000002 10379931.000000002 -32.327956989247305 16519.548367857147 0.1391079692275943 5.846805736636246 -39.426406926406919 1.427051671732523 183.16784848484852 295325.27891111112 0.174729654993839 94.508423087544898 2.1883445945945952 0.21741703906595686 8.5000000000000018 73.317266744096017 325592.30896954704 25.500000000000004 0.49694386813048358 0.035152735267859801 -55.499999999999993 5.5000000000000009 150.50000000000003 522.50000000000011 134.50000000000003 1.6622807017543864 11.500000000000002 2.5000000000000004 0.038623157065910525 607.73000000000013 33.306552287581702 1.6622807017543864
decision_type=2 2 10 2 10 2 10 2 10 2 2 2 2 10 2 2 2 2 2 2 10 10 2 2 2 10 2 2 2 10 8 2 2 10 10 2 8 2 2 2 2 10 2 8 2 2 2 10 2 2 10 10 10 2 2 2 2 2 10
left_child=2 3 4 8 10 9 12 24 17 31 57 26 19 20 25 33 32 23 39 37 41 44 50 -2 -4 49 -7 -15 56 -30 53 -3 46 -6 -17 -20 54 -5 -33 -14 -29 -10 -25 -28 51 -22 -12 -27 -21 -8 -11 -9 -53 -19 -13 -35 -16 -1 -23
right_child=1 5 7 6 15 11 14 21 13 22 16 36 18 27 28 34 -18 30 35 48 45 58 -24 42 -26 47 43 40 29 -31 -32 38 -34 55 -36 -37 -38 -39 -40 -41 -42 -43 -44 -45 -46 -47 -48 -49 -50 -51 -52 52 -54 -55 -56 -57 -58 -59 -60
leaf_value=0.0046971583045381723 0.0037708967319015495 0.0016474531383993904 0.0037899589336624763 0.0027301480399644579 0.0037079130236441949 -0.00060001447401628158 -0.0022757763901163387 0.0018603336774928236 0.0021174312879381372 -2.7149339367470053e-05 0.0040305526035834486 2.8966948031624676e-05 0.0019286149731111678 0.00087816619348787264 0 0.0010672562818295503 0.0023362060203016913 0.0022308207655209575 -0.0012110818693116417 0.001404861547367903 0.00060175249379906804 -0.00094874525665827143 -0.0022988968568683214 0.0029495251048898092 0.0019113793672366247 0.00088503866385386196 -0.0016196480808504314 -0.00032920773861509891 -0.00044831146278726149 -0.0031757511387571283 7.1646776826589598e-05 0.0007490287621897808 0.0032115589588605012 0.0028276013618448244 0.0022010943822426492 0.00055615819371880061 -0.0045131701231948661 0.0010969789298966475 -0.00090681100879172547 0.00031284602812053642 -0.0023045952796602151 0.00080418650100170966 0.0019046150378964975 -0.0039792464197923256 0.00030288045686991506 -0.0011074058748382595 0.0032088759637926589 -0.00040846290113217784 0 -0 -0.0022658000149434975 0.0001583063805803955 0.0018749715589245557 0.00066063611517641846 -0.0030450679310639935 0.0019624316096765611 -0.0015988440390776058 0.0023519268575237203 0.0004381308587966582
leaf_count=11576 2906 2044 2777 2615 3225 1953 1189 1968 4167 1642 19648 51 872 920 683 3560 4210 2607 3618 1061 2423 1917 3257 3417 1999 1215 983 1042 636 2657 1414 1836 10701 7934 4992 796 2467 1500 1050 3995 1013 1657 4557 637 3323 623 4266 2824 2221 345 332 1721 773 792 2353 2864 729 382 599
internal_value=0 0.0189639 0.303268 0.0782962 0.338554 -0.154258 -0.0115785 0.130854 0.1666 -0.0453934 0.379994 -0.283944 0.0583666 0.0764328 -0.125973 0.2448 0.354025 0.233965 -0.00758114 0.142333 0.124356 0.0499902 -0.162535 0.275349 0.302854 -0.0501647 -0.154786 -0.063158 -0.213471 -0.268071 0.1381 0.077006 0.36833 0.287046 0.174188 -0.0870076 -0.376281 0.216166 0.0112314 0.0624945 -0.135515 0.176204 0.236708 -0.262232 0.0861531 0.021847 0.388917 -0 0.0465116 -0.176727 -0.0460306 0.125462 0.0733449 0.189582 -0.293989 0.260875 -0.0785089 0.463199 -0.0579902
internal_count=161534 73099 88435 54494 73358 18605 26956 15077 27538 10161 50783 8444 16678 11845 10278 22575 38825 15693 9281 7397 8870 10301 5231 10880 4776 5573 3573 2975 4705 3293 4813 4930 34615 14023 8552 4414 4871 4115 2886 4867 2055 5824 7974 1620 7785 3046 23914 4039 3282 1534 1974 4462 2494 3399 2404 10798 1412 11958 2516
shrinkage=0.01


Tree=12
num_leaves=59
num_cat=0
split_feature=136 134 106 153 76 153 51 118 134 76 118 107 131 153 77 102 99 51 136 136 136 151 52 136 52 136 52 99 77 118 107 131 107 105 153 131 21 131 52 103 77 136 154 136 136 107 145 131 131 136 153 134 76 134 102 94 99 118
split_gain=3194.66 956.633 517.67 323.648 267.072 260.009 182.095 167.407 163.547 133.399 91.0382 84.1048 73.0953 55.9938 55.2626 52.8485 51.6377 41.5488 40.9027 36.612 35.5016 30.7156 29.8722 24.9602 22.3982 22.1414 21.4649 19.0562 18.4511 16.7052 15.3407 14.5997 12.7144 12.6257 12.2217 10.2917 8.84138 8.38408 7.31314 13.5152 6.8604 6.31744 5.89871 5.87769 5.60296 5.59411 5.32885 4.8804 4.25214 3.87039 3.24424 3.08459 2.25114 2.18823 0.72331 0.379044 0.0978162 0.0895352
threshold=0.06950494426600852 1.3939974769004893 10.500000000000002 26694.640000000003 1.5000000000000002 21625.500000000004 131.28629976580797 2.8393548387096779 3.6106044618238342 3.5000000000000004 2.6023255813953496 -13.387499999999998 12.18856209150327 9500.2250000000022 0.74322344322344336 1523706762.5000002 328.5800000000001 86.157072368421083 0.26410903017391058 0.174729654993839 0.16908229988958104 648.50000000000011 -8.4999999999999982 0.25341264925740309 -8.4999999999999982 0.25828105698322767 -6.4999999999999991 565.47000000000014 0.84045454545454557 5.846805736636246 -25.989583333333332 13.179 -39.426406926406919 -39.499999999999993 10080.720000000003 179.10182903918414 9.5000000000000018 64.5029411764706 -8.4999999999999982 1517946525.0000002 0.19677419354838713 0.20956160277635663 84.500000000000014 0.1637054524888841 0.45897543151401254 -29.987804878048774 493.07823742109463 77.280933395872438 574.0953012525523 0.035152735267859801 82429.220000000016 0.93037016792138061 3.5000000000000004 0.63588005753031085 1524266541.0000002 2.1464285714285718 670.06000000000006 2.6963109354413706
decision_type=2 2 10 2 10 2 2 2 2 10 2 10 10 2 10 2 2 2 2 2 2 2 2 2 2 2 2 2 10 2 10 10 10 10 2 10 2 10 2 2 10 2 10 2 2 10 10 10 10 2 2 2 10 2 2 10 2 2
left_child=2 5 4 17 10 9 14 31 11 21 56 18 -9 32 23 24 29 44 22 30 38 51 -5 45 -11 -10 -20 -16 48 49 -8 -4 -6 -15 -22 -13 -23 -26 39 -19 47 -29 -42 -37 -3 -7 -32 -14 -21 -12 -25 -2 -33 -34 -36 -18 -1 -38
right_child=1 3 7 8 13 6 19 12 25 15 16 35 40 33 27 -17 55 20 26 28 34 36 -24 50 37 -27 -28 41 -30 -31 46 52 53 -35 54 43 57 -39 -40 -41 42 -43 -44 -45 -46 -47 -48 -49 -50 -51 -52 -53 -54 -55 -56 -57 -58 -59
leaf_value=0.004672614031921366 0.0035834736735365297 0.00171044062930969 0.0038059109052459329 -0.0011156550987522552 0.0036950637304690127 0.001638971322826592 0.00079909513367751772 0.0017916755208275017 -0.0023709269201644179 -0.0014222585839829846 0.0040147195571034163 -0.0010469469268480607 4.8536342429800001e-05 0.0019417656245380786 0.0023680033233677163 0.0019091097958639244 0.0025600841446130141 -0.0023422297569788701 -0.0031385543814559614 -0.0011231938904369752 -5.6984228636501281e-05 0.002628603101570984 0.00062483378349593034 0.0002202087544679515 0.0014162280240970244 -0.0045431466706180573 -0.0011198751905706955 0.0016571476280828107 0.00013364969757032841 0.0031915703793997906 -0.0010056205160679833 0.0023898010659718465 0.0029747808418129191 0.00039498675236903475 -0.0019282783203350489 -0.0016180317137950142 0.0017901864211967247 -0.00013036243488904987 0.0011373870047742408 0.00029416086706350451 0.0012350595536105321 -0 -9.7412136177048514e-05 -0.0033405405216425555 -0 0.00044007796807795654 0.00022392536545854513 -0.0011667793755633284 -0.0025962668294622205 0.0032134718294463765 -0.0011232264258730276 0.0024520045873072062 0 0.0021499623863564321 -1.0974135286442603e-05 0.00096945558723289819 0.002033219106634196 0.00023505387946411597
leaf_count=11663 4911 2167 2389 2571 3238 2418 2285 3990 1246 1041 19631 851 2107 7614 4655 3579 3576 385 1199 1823 1662 1937 2595 1608 1440 2756 2927 1235 840 10670 2457 1352 5786 1261 1992 974 1064 1387 1965 2176 1572 1001 1739 3070 594 2444 1501 1665 1481 4240 1191 2284 263 4676 455 708 295 932
internal_value=0 0.0188188 0.301935 -0.120451 0.337033 0.113735 0.0452508 0.130433 -0.204489 0.205102 0.378373 -0.151359 0.0640309 0.243505 0.119554 0.0956187 0.352366 0.0128826 -0.0905759 -0.0579293 -0.02416 0.277376 -0.0223077 0.0542598 0.0047329 -0.389722 -0.173498 0.190592 -0.139923 0.36693 -0.00184318 0.311147 0.288119 0.173345 -0.100812 -0.264423 0.188956 0.0625153 0.0433542 -0.00707837 -0 0.089567 0.0507584 -0.295368 0.131952 0.105794 -0.0515461 -0.0463712 -0.181751 0.387761 -0.031861 0.324094 0.201052 0.261735 -0.161239 0.23221 0.461703 0.111625
internal_count=161534 73099 88435 29585 73358 43514 24939 15077 18189 18575 50783 14187 11073 22575 14552 7447 38825 11396 9292 10387 8635 11128 5166 7661 3868 4002 4126 6891 4144 34541 6243 4004 13700 8875 4109 4895 3933 2827 4526 2561 7083 2236 3311 4044 2761 4862 3958 3772 3304 23871 2799 7195 1615 10462 2447 4284 11958 1996
shrinkage=0.01


Tree=13
num_leaves=63
num_cat=0
split_feature=135 96 84 103 103 135 76 58 135 97 90 76 21 117 97 117 107 102 97 77 134 134 145 58 108 77 134 97 157 157 124 134 117 97 84 117 157 135 110 97 157 134 21 84 110 77 107 84 134 99 56 77 157 55 54 134 97 81 134 117 97 97
split_gain=3134.93 820.931 561.934 515.101 191.672 177.654 140.801 124.561 108.778 97.5716 89.0659 81.5676 65.456 58.0019 56.2951 41.688 37.3976 34.8236 35.5082 32.6439 30.0573 28.3014 27.641 27.5921 26.6966 26.2427 24.8538 24.4854 23.1283 22.8968 22.1822 19.8305 15.1019 11.9704 11.5734 11.289 10.2961 9.52835 8.57164 9.75696 8.52517 7.88119 6.91304 6.57911 6.01737 5.92592 5.32812 4.99668 4.9308 4.58074 4.53764 4.31633 3.84422 3.68036 3.60069 3.32391 2.96368 2.74438 2.69739 2.30503 2.04509 1.95091
threshold=0.43569875758532317 2.5000000000000004 12402.360000000002 1518890290.0000002 1519809753.0000002 1.7080580827291405 4.5000000000000009 17.500000000000004 1.1047397367680887 360.65500000000003 23.078167420814488 5.5000000000000009 16.500000000000004 2.0613814756671904 514.58500000000004 1.8847537354731603 -13.387499999999998 1523264752.0000002 360.65500000000003 0.66260162601626027 2.1262071893730723 3.6106044618238342 468.47560419516651 21.500000000000004 1.5000000000000002 0.67156862745098056 0.63588005753031085 494.68500000000006 0.004565290711719394 0.015224105485078751 684.00000000000011 0.65256136262297526 3.2060339599757435 599.61500000000012 12683.105000000001 1.6524758454106283 0.0062064315792086083 0.86758036113073789 1.2012658227848103 467.8300000000001 0.0034310464760047179 0.39357874887559513 8.5000000000000018 8976.2550000000028 1.427051671732523 0.89528508771929838 -36.721111111111107 6005.2000000000007 1.190003845290609 204.00500000000002 4.5000000000000009 0.56385869565217395 0.0065216650986943377 0.33881245667359899 -4.3074919871794863 0.97291246824610778 186.73500000000004 6.5000000000000009 1.5787777417610338 1.9792740549828178 287.43500000000006 258.60500000000008
decision_type=2 10 2 2 2 2 10 2 2 2 2 10 2 2 2 2 10 2 2 10 2 2 10 2 8 10 2 2 10 10 2 2 2 2 2 2 10 2 10 2 10 2 2 2 10 10 10 2 2 2 2 10 10 2 2 2 2 10 2 2 2 2
left_child=1 7 4 11 9 16 10 13 14 22 26 15 31 27 30 34 20 60 -19 37 52 45 48 44 43 36 59 41 -22 -12 55 35 47 54 42 -9 -16 50 -17 -40 -20 -1 -3 -15 -13 -7 -32 -14 -2 -26 -11 -35 -4 -18 -10 -6 -24 -50 -28 -5 -8 -25
right_child=2 3 5 6 8 21 17 12 33 19 29 23 32 24 25 38 53 18 40 -21 28 -23 56 61 49 -27 58 -29 -30 -31 46 -33 -34 51 -36 -37 -38 -39 39 -41 -42 -43 -44 -45 -46 -47 -48 -49 57 -51 -52 -53 -54 -55 -56 -57 -58 -59 -60 -61 -62 -63
leaf_value=0.0051408779453138752 0.00061224792603803055 0.0027774712895250239 0.0010873753093142932 0.0037769940287991411 0.0031972962094782799 -0.0029594228391797558 0.00086612933404481437 0.0045275762026368033 -0.00073387964768982961 -0.00025553187782531231 0.0022208208894801936 -0.0028487390201093294 0.0025852947454877203 0.003117276170186983 0.0011084315409273912 -0.00085709823498521622 0.00044520958750484036 0.0024290571504834674 0.0018060245634183051 -0.00028671664665681047 0 -0.0046044719899697561 0.0023679578256012457 0.0014304103154360196 0.0040724520745703732 0.0015239804311648847 0.0027206459630095088 0.002121031994959153 -0.0024152386488431282 0.00069699072585903345 0.0020404140817104209 0.0022001296487532598 0.00099313584460527095 -0.0015113120572478288 -0.00025524313701823405 0.0032514644512594143 -0.00024853901498232656 -0.0028364434624808632 0.00096102452999786384 -0.00031640175056527747 0.0006650133761588314 0.0041392612524389933 0.0012751778139199407 1.780170060419247e-05 -0.00097896598096863189 -0.00022240623315758414 0.0007221324437012138 -0 -0 0.0019133370441428582 -0.0020304561986688135 0 -0.0003759717204681591 -0.0023099226885187106 0.00064945406685589457 0.0019413132432875874 0.00057375677584808893 -0.0017245063081103068 0.0011835137590414703 0.0030432714420203354 -0.00062992598330660361 -0.00040792204351623555
leaf_count=7198 912 1278 758 7385 1629 1971 1114 2743 1009 882 4142 1014 3682 7680 1461 1419 124 5827 2757 1897 762 2375 880 459 12107 2681 10659 678 1829 2483 1442 2054 2151 1892 511 5238 4096 2251 2851 1912 3731 4748 3004 239 1245 324 3260 215 880 516 1393 759 3500 3322 2073 3822 1070 911 819 7237 950 1323
internal_value=0 0.266741 -0.0346275 0.189472 0.0347547 -0.1984 0.241391 0.36396 0.0862002 -0.0764041 0.279261 0.02592 0.286478 0.401161 0.125458 0.0737613 -0.121437 0.154419 0.177293 -0.160424 -0.0711391 -0.365486 0.037581 -0.10151 0.363026 0.0570788 0.30743 0.462172 -0.168987 0.166586 0.179897 0.340976 0.194116 -0.0380512 0.151651 0.370638 0.00919629 -0.213361 0.0116885 0.0428303 0.116644 0.4754 0.175057 0.303605 -0.186822 -0.261719 0.114982 0.243647 -0.035786 0.399316 -0.138809 -0.104907 -0.00912046 -0.218196 0.0164529 0.233863 0.143939 -0.0906138 0.262031 0.342238 0.0131107 0.00159827
internal_count=161534 111369 50165 62120 35200 14965 47104 49249 24124 11076 32725 15016 16083 33166 18391 10975 10295 14379 12315 6423 6849 4670 4653 4041 20542 8238 26100 12624 2591 6625 10153 10035 6048 5733 4793 7981 5557 4526 6182 4763 6488 11946 4282 7919 2259 2295 4702 3897 2703 12623 2275 2651 4258 3446 3082 5451 1950 1791 11478 14622 2064 1782
shrinkage=0.01


Tree=14
num_leaves=61
num_cat=0
split_feature=135 153 135 103 153 76 76 107 117 90 58 107 85 134 90 107 103 134 117 157 3 46 58 56 107 157 56 58 157 153 153 107 56 107 107 89 107 130 107 58 153 117 153 134 122 146 134 110 51 49 76 153 15 134 153 118 134 155 134 90
split_gain=3107.29 875.629 553.809 395.709 260.182 228.444 141.749 141.447 134.391 122.052 118.915 82.4354 67.1575 59.2597 51.528 51.4617 48.127 42.6883 34.5069 31.715 35.9618 25.3558 24.5792 22.6408 22.4627 20.6952 19.6725 18.8589 18.7014 16.3229 13.0209 12.5899 12.3502 11.2432 11.2001 11.5994 10.9658 10.8508 10.3191 10.1216 8.14499 7.94271 7.67571 6.64389 6.50364 5.97682 5.88726 4.55356 3.57117 3.48892 3.35141 3.34592 3.30455 3.28679 2.11506 2.00785 1.61623 1.07494 1.0494 0.859367
threshold=0.43569875758532317 7752.4800000000014 1.2586965077481735 1518890290.0000002 24795.945000000003 1.5000000000000002 1.5000000000000002 -13.387499999999998 1.9972527472527475 49.230424836601308 18.500000000000004 -8.2426470588235272 1239.9575000000002 1.7127940251255029 23.515504201680674 -22.983870967741932 1519895851.5000002 3.6106044618238342 1.8847537354731603 0.003195167117912056 837.00000000000011 1506815705.0000002 21.500000000000004 4.5000000000000009 -30.581989247311824 0.0047850204125616221 4.5000000000000009 21.500000000000004 0.015224105485078751 10080.720000000003 3944.6200000000003 -39.193749999999994 2.5000000000000004 33.026315789473692 -33.245689655172406 98441.935931027561 -25.989583333333332 0.16438668063976847 33.026315789473692 17.500000000000004 10864.700000000003 4.801162790697675 24332.560000000001 1.190003845290609 867.50000000000011 148.50000000000003 0.63588005753031085 1.2236111111111114 70.601980198019817 139.50000000000003 1.5000000000000002 75907.720000000016 0.95315426029962558 0.93037016792138061 8100.0800000000008 4.3689931350114426 0.93717904229895799 -0.081721661715508973 1.4785685390448193 18.638006535947714
decision_type=2 2 2 2 2 10 10 10 2 2 2 10 10 2 2 10 2 2 2 10 2 2 2 2 10 10 2 2 10 2 2 10 2 10 10 8 10 10 10 2 2 2 2 2 2 10 2 10 2 2 10 2 2 2 2 2 2 10 2 2
left_child=1 5 4 12 16 8 14 13 39 15 24 31 18 34 56 48 22 44 42 -8 47 -14 43 51 41 -15 53 30 -16 -17 -13 -7 -31 -20 -6 -36 -22 -12 -23 -1 -28 -10 -3 -2 -11 -41 -33 -21 -4 -35 -45 -9 -34 -18 -24 -29 -5 -42 -25 -50
right_child=2 3 9 6 7 11 19 23 10 17 37 27 21 25 28 29 26 -19 33 20 36 38 54 58 -26 -27 40 55 -30 32 -32 46 52 49 35 -37 -38 -39 -40 45 57 -43 -44 50 -46 -47 -48 -49 59 -51 -52 -53 -54 -55 -56 -57 -58 -59 -60 -61
leaf_value=0.0048848367563373131 0.00065215841238968806 0.0024976019066800465 0.0003971727143223923 0.0032758031749138146 0.0011734943158012744 0.0036459973742726682 0.0019957908486614314 -0.00011454679862499941 0.0041972617118902315 -0.00035243805054735184 0.0022885889914312954 0.0012407107999299609 1.3645441123868235e-05 0.00028356568025135817 0.0023102465134044589 -0.00015357089051623493 0.0035917590969237975 -0.0044795644168420289 0.00096124991616731818 0.00010119848902134744 0.00041600435965810835 -0.00066762040959171109 0.0025143211858167976 -0.0017082250439008422 0.0031010417873534369 -0.0014929078132830029 0.0017221535638204414 0.003023744555163319 0.0007611503783455677 -0.00080922665526810672 -0.00047910538478842065 0.0029796643076533636 -0.0031158927824049137 -0.0015734966833267122 0.00081919748127081251 -0.00042775661671220529 -0.001405910502698247 0.00050237619953416742 -0.0023696909434488202 0.0041916866399818566 0.00017889767852436432 0.0032096211237806704 0.00082393470252506906 -0 -0.0026809725041031839 0.0021152991737269596 0.0020606165162813115 0.001648310632689786 -0 1.2466466605346902e-05 -0.0015747591400658986 -0.0015589739998325375 -0.00042155425853171924 0.0019627877495217608 0.00065840256758139604 0.00086581779009360562 0.0023943808100080773 0.0013522544856690388 -0.0030122788649451092 -0.0013831131225308022
leaf_count=10676 1213 1420 1412 10923 3864 3429 6188 1435 12656 460 5174 2166 2558 1307 4397 687 938 2404 1241 846 2167 1655 712 1955 7495 2964 4378 1024 1936 819 1093 5777 2532 914 2714 2686 861 912 1541 5037 2089 3498 1553 1112 2403 640 4447 4659 1084 969 1053 1398 289 2523 1070 543 2974 1542 1767 1355
internal_value=0 0.265551 -0.0344901 0.160387 0.0294268 0.3416 0.214579 -0.0482377 0.380478 -0.209685 0.337508 0.243986 0 0.0114988 0.271251 -0.128068 0.123809 -0.334179 0.0787656 0.135935 0.0885005 -0.0823749 0.0333526 -0.172917 0.37143 -0.092718 0.163606 0.121327 0.185354 -0.210063 0.0634571 0.286535 -0.244043 -0.00142814 0.0606287 0.0181367 -0.0072614 0.203783 -0.152247 0.457811 0.127459 0.399113 0.166047 -0.0235398 -0.234261 0.397802 0.259135 0.14286 -0.0331806 -0.0709729 -0.0777759 -0.0863819 -0.287608 0.243964 0.146212 0.234581 0.309566 0.0705702 -0.235853 -0.0793261
internal_count=161534 111369 50165 46802 36720 64567 34951 20090 46088 13445 29735 18479 11851 13535 20230 8178 16630 5267 6097 14721 8533 5754 5160 6555 23649 4271 11470 4826 6333 4327 3259 13653 3640 3124 9264 5400 3028 6086 3196 16353 8009 16154 2973 3378 2863 5677 10224 5505 3851 1883 2165 2833 2821 3461 1782 1567 13897 3631 3722 2439
shrinkage=0.01


Tree=15
num_leaves=56
num_cat=0
split_feature=153 107 90 76 89 106 89 59 157 117 150 90 117 92 131 90 48 131 132 153 107 157 33 90 102 153 58 90 48 153 45 58 45 48 33 102 122 45 105 117 92 110 52 55 98 45 131 157 117 157 117 48 33 45 132
split_gain=2974.98 654.578 538.601 407.054 236.873 163.658 157.602 138.086 112.845 93.8828 91.9789 79.594 78.3814 75.8317 67.3188 60.2495 59.3354 51.1435 48.5187 42.5382 42.0893 34.2575 32.1594 31.5743 26.9989 25.9145 23.8352 22.6624 22.1492 21.3645 21.098 20.2199 19.0012 15.9486 14.4401 10.98 9.75894 8.93414 8.22736 8.10567 7.98801 7.67585 7.33004 6.91016 6.05517 5.18788 4.57046 3.74168 3.17256 2.27593 1.85741 1.54186 0.985336 0.968162 0.21078
threshold=11082.580000000002 -13.387499999999998 57.771742424242426 1.5000000000000002 104593.483249752 10.500000000000002 30201.043550000006 18.500000000000004 0.004905371126939906 2.1365047995482782 2826011.7000000007 23.515504201680674 1.9792740549828178 28.235588235294117 138.1908823529412 162.05410216718269 20033829.000000004 13.179 32845.811177603398 2430.0500000000006 33.026315789473692 0.030723411530586258 12130.012228273712 6.6669444444444457 1523706762.5000002 44628.900000000009 21.500000000000004 145.91583333333332 10943398.500000002 5100.255000000001 65.002500000000012 18.500000000000004 20.355000000000004 10279197.000000002 13658.653522805174 1524906016.5000002 957.50000000000011 60.002500000000005 -43.499999999999993 2.66592261904762 7.970882352941179 1.2474489795918371 -8.4999999999999982 1.199394586894587 29.92071428571429 33.872500000000009 5.7060024009603865 0.0032735158961986919 3.3638833992094868 0.010340625384659919 2.6502032520325209 5218502.0000000009 4752.8386838798369 32.455000000000005 18847.268636268007
decision_type=2 10 2 10 8 10 8 2 10 2 2 2 2 10 10 2 2 10 2 2 10 10 10 2 2 2 2 2 2 2 2 2 2 2 10 2 2 2 10 2 10 10 2 2 2 2 10 10 2 10 2 2 8 2 2
left_child=3 2 4 5 11 9 13 19 38 29 27 22 46 20 43 36 25 39 34 -5 -3 42 47 31 32 -10 41 30 51 -1 -4 48 -21 40 -13 -18 -12 -35 -6 -9 -22 -19 -16 -8 -14 -45 -7 -2 -11 -25 -46 -23 -20 -26 -32
right_child=1 6 10 7 8 12 14 17 16 23 15 18 44 -15 21 -17 35 26 52 24 33 28 -24 49 53 -27 -28 -29 -30 -31 54 -33 -34 37 -36 -37 -38 -39 -40 -41 -42 -43 -44 45 50 -47 -48 -49 -50 -51 -52 -53 -54 -55 -56
leaf_value=0.0046046572873978502 0.0028930049139016733 0.0013666138175745853 -0.0030502493685876019 0.0032646450363099685 0.0018520564072773758 0.0041706364454483858 0.00049429966128557937 0.0024778697344034293 0.0011505921866532187 0.0039821163350434704 0.0018670338314787601 -0.00036343711025737689 0.0020697184982793283 -0.0019450983837986306 -0.0022290061877446457 -0.0021150482807490863 -0.0012860281037275574 -0.0016667639410541096 0.00045917014597154096 0.00028751662322159329 0.0018118897903492087 -0 0.0032711709445916153 0.0024957018984946987 0.0021944413190182711 -0.00020999533806643431 0.0014322554986592473 -0.0040555698507370739 -0.0037236984362705138 0.0034925852014982208 -0.0016992921171291265 0.0024511547499512488 0.0019252590677626561 -0.0014415744476878659 0.0011986565321774425 3.3223767305873316e-05 8.5006701646616478e-05 6.4127442872633576e-05 0.00050402208273555606 0.00064148995628189891 -0.00011490304644816643 -0 -0.00095363769511664081 -0.0017519708171222777 0.0014664536578937041 -0.00036050382201678502 0.002668910816705017 0.0018946648176407699 0.0033267237702973825 0.00012863290116129242 0.00013891238726677888 -0.0022476089793611385 0.002203941427134436 0.003122332371246993 -0.00030569626810966549
leaf_count=15412 2322 3340 1387 6409 6114 1679 965 2054 4747 10939 894 2177 1697 1905 2132 1314 3702 854 555 1694 793 336 5561 3464 4891 3069 1332 909 2563 4242 1321 2800 3886 1848 1734 1556 2362 1280 1446 942 984 2409 2962 1413 1349 2235 2241 8098 9018 324 1657 2042 3925 3071 1179
internal_value=0 0.0327462 0.0947012 0.304814 0.140616 0.355492 -0.102693 0.203513 0.0594608 0.380119 -0.124827 0.208883 0.22219 -0.00299797 -0.171074 -0.0156655 6.82593e-05 0.0826705 0.122846 0.248954 0.0402292 -0.220632 0.253367 0.337434 0.21138 0.0604332 0.00802418 -0.226625 -0.290187 0.437112 -0.181528 0.354479 0.144653 -0.0235861 0.0305533 -0.0877819 0.0607404 -0.079605 0.160783 0.193601 0.0695177 -0.0444328 -0.150911 -0.0609708 0.126176 -0.0928653 0.334415 0.212852 0.36923 0.231943 0.0769136 -0.196578 0.201058 0.256733 -0.108379
internal_count=161534 79170 54372 82364 45006 54822 24798 27542 20634 46199 9366 24372 8623 10150 14648 4570 13074 7591 8391 19951 8245 10035 15981 26545 13542 7816 4595 4796 4941 19654 3887 22757 5580 4905 3911 5258 3256 3128 7560 2996 1777 3263 5094 4613 4703 3648 3920 10420 19957 3788 3006 2378 4480 7962 2500
shrinkage=0.01


Tree=16
num_leaves=56
num_cat=0
split_feature=153 134 107 76 157 134 134 76 59 59 76 51 99 14 134 131 134 99 157 137 157 134 134 153 120 106 113 106 116 106 153 97 157 153 52 107 107 110 157 102 21 110 157 153 55 157 51 157 116 157 134 110 116 141 137
split_gain=2953.58 1041.96 449.724 404.433 265.953 183.392 146.542 146.444 136.466 132.038 95.9704 82.875 80.3663 61.2053 60.8072 50.7612 47.9215 45.0639 43.5309 35.744 33.9389 32.6401 32.416 30.4534 27.6759 23.8676 23.7162 20.4781 17.608 17.2729 17.1099 16.532 16.3242 13.1039 12.6905 11.1939 10.6727 8.24924 7.80016 7.68238 7.58401 6.16759 6.07582 5.70813 5.64387 7.12668 5.14437 5.97693 4.99414 4.41723 3.8885 3.71875 1.95684 1.44598 0.500746
threshold=11082.580000000002 1.4785685390448193 -10.240384615384613 1.5000000000000002 0.0070082105739653474 1.3939974769004893 2.4957125927064316 1.5000000000000002 18.500000000000004 19.500000000000004 4.5000000000000009 117.80713507130531 650.06500000000017 42.500000000000007 1.190003845290609 13.179 2.683202335714479 948.1450000000001 0.003195167117912056 -0.41101363566479165 0.015224105485078751 0.94406560977907683 4.2226791272500117 21625.500000000004 668.50000000000011 4.5000000000000009 21.954545454545457 -27.499999999999996 1.4100832898350093 -2.4999999999999996 2430.0500000000006 583.49000000000012 0.053378974808647811 43582.860000000008 -2.4999999999999996 -16.483333333333331 33.026315789473692 1.2474489795918371 0.003195167117912056 1523655186.0000002 8.5000000000000018 1.427051671732523 0.057406553508545101 63242.355000000003 13.379837097371345 0.0010053658369142081 121.92450142450143 0.00071536476980550657 1.3637247966041743 0.024338354043340806 3.6106044618238342 1.2947860962566848 1.6271558132619688 120.50000000000001 -0.56568849188374515
decision_type=2 2 8 10 10 2 2 10 2 2 10 2 2 2 2 10 2 2 10 10 10 2 2 2 2 10 10 10 2 10 2 2 10 2 2 10 10 10 10 2 2 10 10 2 2 10 2 10 2 10 2 10 2 2 10
left_child=3 2 7 5 16 9 11 12 14 27 23 33 21 40 30 -10 25 35 -9 32 -14 -2 29 48 -12 44 37 -1 -15 -7 -5 -13 -20 -6 36 -8 -25 -17 -23 -32 -11 -21 -35 -26 -3 -46 -18 -48 -4 -33 -19 -16 -42 -29 -27
right_child=1 4 10 8 6 22 17 18 15 13 24 31 20 28 51 26 46 50 19 41 -22 38 -24 34 43 54 -28 53 -30 -31 39 49 -34 42 -36 -37 -38 -39 -40 -41 52 -43 -44 -45 45 -47 47 -49 -50 -51 -52 -53 -54 -55 -56
leaf_value=0.0043007241698098334 0.0029375937597105974 0.00181868462672299 0.0016306865430712873 0.0033727987872198759 0.00067984295487150766 0.0026214585057091145 -0.0014115552756277896 0.001884299691583109 0.0019295990834924809 0.0038859024785653585 -0.0022051665641046481 -0.00081624934693776705 0.002025252821773218 0.0017330004632292034 0.00028768725765521499 -0.0016978849721908066 0.00049716379109468727 -0.0030580884091258838 0.0015350500117233567 -0.00083283580918378885 2.1994945539020209e-05 0.002900580624040406 -0.00025443764784487382 0.00029697903833354592 -0 0.0010579046279873266 0.0014174813606549 0.0039362178229892311 -0.00067802325489964017 0.00090733576329166468 0.0018061325311294514 -0.0017252603706224931 0.00031656314341549119 -0 0.0011538257783530014 -0.0031096283657595738 -0.00088724824187229778 -0 0.0013320726003478685 0.0027844894589363345 0.0029063426940507064 0.00035902502262182771 -0.0014706137235244126 -0.0015377001946287891 0.0020499260438721538 -0.00010303314085483724 0.00045237102632577394 -0.0016857837640782193 -0.0001761614899080496 -0.0031684197496965878 -0.0046221658487698271 0.0016458340816830842 0.0012549643634911201 0.0032342128193436864 -0.0012324193548633193
leaf_count=22394 12162 2295 2358 5829 1758 3549 1975 4766 2996 2529 2937 1321 2144 1363 1258 846 477 1549 4841 2072 2413 1135 788 2445 1896 205 1349 9517 644 1530 3782 1646 3131 1526 1149 1604 3309 2400 3499 6308 5061 2324 1496 1018 476 1201 337 1892 444 2213 2311 2774 732 6715 845
internal_value=0 0.0324609 0.111148 0.303552 -0.136375 0.354071 -0.206217 0.169805 0.202568 0.374818 -0.0333659 -0.122537 0.227225 0.26747 0.247761 0.0823778 0.0196701 -0.316697 0.0976066 0.0617242 0.0987636 0.261438 0.179027 0.0298515 -0.139769 0.0841112 0.00795954 0.40321 0.0911766 0.212641 0.278231 -0.215299 0.106943 -0.0197946 -0.00992578 -0.220494 -0.0367558 -0.0448884 0.174155 0.242913 0.308693 -0.0181295 -0.0740958 -0.0546817 0.127052 0.0457727 -0.0962542 -0.131882 0.131029 -0.258286 -0.402737 0.124747 0.271643 0.365355 -0.0689122
internal_count=161534 79170 54043 82364 25127 54822 17399 38487 27542 48955 15556 9960 21353 10329 19951 7591 7728 7439 17134 12368 4557 16796 5867 9705 5851 5022 4595 38626 2007 5079 15919 5180 7972 4780 6903 3579 5754 3246 4634 10090 8322 4396 3022 2914 3972 1677 2706 2229 2802 3859 3860 4032 5793 16232 1050
shrinkage=0.01


Tree=17
num_leaves=59
num_cat=0
split_feature=136 84 106 76 136 76 141 107 47 47 118 131 48 48 136 153 136 118 90 136 136 84 76 101 118 57 153 48 136 103 136 90 48 47 155 110 107 136 131 141 136 101 153 84 118 123 107 107 118 107 47 118 131 84 92 107 107 118
split_gain=3081.08 817.327 490.973 375.401 285.152 260.136 190.427 160.799 145.166 93.7972 93.5266 84.7645 66.1257 62.6171 60.7482 54.456 50.5145 51.2195 48.4035 32.1365 29.8629 28.7053 28.2194 27.9071 24.4137 24.0577 27.8582 23.2325 20.7735 20.6885 20.1177 16.8565 15.3812 13.691 13.3655 12.8989 12.3941 11.2207 9.29615 8.18443 7.76004 6.82367 6.39522 5.86371 6.47969 5.45169 4.68721 4.48554 3.27903 3.14806 2.88326 1.80905 1.25911 0.857795 0.5354 0.523974 0.428159 0.283874
threshold=0.06950494426600852 7840.130000000001 10.500000000000002 2.5000000000000004 0.34901380316432951 1.5000000000000002 80.500000000000014 -21.658333333333331 1499284414.0000002 1506466190.0000002 2.6023255813953496 64.5029411764706 10841447.000000002 17698837.500000004 0.1391079692275943 9500.2250000000022 0.15211412978660291 2.101724137931035 19.323235294117652 0.21741703906595686 0.32218818543371142 3600.0450000000005 4.5000000000000009 268637.26226666674 2.8591269841269846 18.269614069369812 1991.2800000000002 12563655.500000002 0.17183391985401364 1519902003.5000002 0.56679363844383357 75.688575851393196 22347619.500000004 1507725822.5000002 0.079156534222399946 1.45972972972973 -39.426406926406919 0.20956160277635663 19.132624113475185 92.500000000000014 0.40130669187779128 130788.64063814933 35698.895000000011 3238.3550000000005 7.36451048951049 684.00000000000011 -26.991071428571423 238.8730158730159 2.0845238095238101 -43.491379310344819 1513008093.5000002 7.0917508417508426 66.054969220246264 11860.465000000002 4.1694031647746828 -21.395652173913039 -35.985074626865661 2.8027777777777785
decision_type=2 2 10 10 2 10 2 10 2 2 2 10 2 2 2 2 2 2 2 2 2 2 10 8 2 2 2 2 2 2 2 2 2 2 10 10 10 2 10 2 2 8 2 2 2 2 10 10 2 10 2 2 10 2 10 10 10 2
left_child=2 3 5 9 8 10 24 13 14 16 53 32 23 20 34 36 17 -2 25 45 56 57 43 50 -4 26 -12 40 -29 -19 39 47 38 -21 46 -17 -7 49 -9 -11 -13 -14 -22 44 -8 -10 -3 -16 -23 -15 -6 -27 -24 -1 -39 -36 -5 -18
right_child=1 4 6 7 12 15 22 11 19 30 18 27 41 37 31 35 21 29 -20 33 42 48 52 -25 -26 51 -28 28 -30 -31 -32 -33 -34 -35 55 -37 -38 54 -40 -41 -42 -43 -44 -45 -46 -47 -48 -49 -50 -51 -52 -53 -54 -55 -56 -57 -58 -59
